# stage1.main_conv2.conv.weight (shape [24, 24, 3, 3], dtype float32),
5.00000000,
-47.00000381,
21.00000000,
-30.00000000,
6.00000000,
33.00000000,
-7.00000000,
-22.00000000,
25.00000000,
6.00000000,
-15.00000000,
24.00000000,
13.00000000,
-43.00000381,
79.00000000,
-22.00000000,
60.99999619,
92.00000000,
7.00000000,
10.00000000,
20.00000000,
38.00000000,
-13.00000000,
27.00000000,
-3.00000000,
29.00000000,
41.00000000,
11.00000000,
-16.00000000,
31.00000000,
-9.00000000,
33.00000000,
47.00000381,
-44.00000000,
-22.00000000,
62.00000000,
1.00000000,
-35.00000000,
-26.00000000,
21.00000000,
-7.00000000,
-8.00000000,
-4.00000000,
11.00000000,
-30.00000000,
46.00000000,
24.00000000,
33.00000000,
2.00000000,
5.00000000,
14.00000000,
-18.00000000,
24.00000000,
23.00000000,
-29.00000000,
0.00000000,
13.00000000,
20.00000000,
-36.00000000,
-22.00000000,
69.00000000,
27.00000000,
-26.00000000,
-50.00000000,
-46.00000000,
34.00000000,
-44.00000000,
-74.00000000,
41.00000000,
-19.00000000,
-28.00000000,
-18.00000000,
22.00000000,
20.00000000,
-31.00000000,
33.00000000,
-7.00000000,
-2.00000000,
3.00000000,
-35.00000000,
20.00000000,
12.00000000,
-24.00000000,
-19.00000000,
43.00000381,
-11.00000000,
-12.00000000,
1.00000000,
-31.00000000,
-3.00000000,
-3.00000000,
-14.00000000,
-5.00000000,
12.00000000,
-37.00000000,
19.00000000,
-10.00000000,
4.00000000,
1.00000000,
34.00000000,
11.00000000,
-18.00000000,
-11.00000000,
-21.00000000,
-8.00000000,
-39.00000000,
-42.00000000,
-2.00000000,
34.00000000,
29.00000000,
-31.00000000,
21.00000000,
-15.00000000,
-15.00000000,
8.00000000,
0.00000000,
48.00000000,
-7.00000000,
21.00000000,
-24.00000000,
16.00000000,
-78.00000000,
21.00000000,
-26.00000000,
31.00000000,
28.00000000,
-28.00000000,
-31.00000000,
-5.00000000,
25.00000000,
35.00000000,
-23.00000000,
13.00000000,
62.00000000,
17.00000000,
-13.00000000,
-15.00000000,
8.00000000,
-15.00000000,
-52.00000000,
13.00000000,
-17.00000000,
-42.00000000,
-8.00000000,
-40.00000000,
0.00000000,
-38.00000000,
14.00000000,
-25.00000000,
5.00000000,
-8.00000000,
-36.00000000,
-20.00000000,
-60.00000000,
-58.00000000,
-13.00000000,
-31.00000000,
-19.00000000,
-51.00000381,
7.00000000,
-17.00000000,
-2.00000000,
-31.00000000,
-29.00000000,
-56.99999619,
-26.00000000,
-11.00000000,
17.00000000,
-32.00000000,
10.00000000,
67.00000000,
22.00000000,
38.00000000,
-42.00000000,
84.00000000,
22.00000000,
-36.00000000,
15.00000000,
-31.00000000,
-65.00000000,
-1.00000000,
-59.00000381,
14.00000000,
-29.00000000,
5.00000000,
60.00000000,
14.00000000,
83.00000000,
17.00000000,
-17.00000000,
-21.00000000,
-20.00000000,
-31.00000000,
-36.00000000,
12.00000000,
30.00000000,
-29.00000000,
-36.00000000,
-10.00000000,
-31.00000000,
-28.00000000,
16.00000000,
-19.00000000,
-7.00000000,
23.00000000,
-2.00000000,
22.00000000,
-20.00000000,
-60.00000000,
20.00000000,
-38.00000000,
-1.00000000,
76.00000000,
-21.00000000,
4.00000000,
76.00000000,
10.00000000,
-55.00000381,
-50.00000000,
-60.00000000,
-41.00000000,
-59.00000381,
-35.00000000,
-16.00000000,
-5.00000000,
-15.00000000,
-8.00000000,
16.00000000,
23.00000000,
-10.00000000,
-15.00000000,
9.00000000,
2.00000000,
33.00000000,
-31.00000000,
41.00000000,
56.00000000,
56.99999619,
60.00000000,
54.00000000,
-15.00000000,
-46.00000000,
28.00000000,
28.00000000,
-4.00000000,
-6.00000000,
-48.99999619,
5.00000000,
56.00000000,
3.00000000,
44.00000000,
-6.00000000,
-7.00000000,
43.00000381,
19.00000000,
14.00000000,
-36.00000000,
-10.00000000,
-31.00000000,
34.00000000,
-41.00000000,
33.00000000,
-25.00000000,
60.00000000,
46.00000000,
-42.00000000,
47.00000381,
6.00000000,
23.00000000,
-8.00000000,
-74.00000000,
-38.00000000,
33.00000000,
20.00000000,
13.00000000,
5.00000000,
3.00000000,
9.00000000,
-27.00000000,
-21.00000000,
-22.00000000,
-66.00000000,
-23.00000000,
-18.00000000,
-43.00000381,
13.00000000,
-36.00000000,
-9.00000000,
-28.00000000,
-14.00000000,
-37.00000000,
-36.00000000,
3.00000000,
55.00000381,
13.00000000,
19.00000000,
-3.00000000,
-19.00000000,
28.00000000,
-7.00000000,
34.00000000,
13.00000000,
-37.00000000,
-21.00000000,
-11.00000000,
-9.00000000,
9.00000000,
-40.00000000,
8.00000000,
27.00000000,
-10.00000000,
-24.00000000,
36.00000000,
-5.00000000,
-52.99999619,
17.00000000,
-19.00000000,
-22.00000000,
10.00000000,
-29.00000000,
-44.99999619,
2.00000000,
-32.00000000,
-19.00000000,
44.00000000,
-8.00000000,
36.00000000,
36.00000000,
-13.00000000,
1.00000000,
55.00000381,
-62.00000000,
17.00000000,
18.00000000,
-16.00000000,
-4.00000000,
4.00000000,
-23.00000000,
-32.00000000,
-34.00000000,
-4.00000000,
-32.00000000,
-89.99999237,
-60.99999619,
-13.00000000,
-55.00000381,
-3.00000000,
39.00000000,
-18.00000000,
-4.00000000,
-48.99999619,
-28.00000000,
-11.00000000,
-17.00000000,
-30.00000000,
44.99999619,
-30.00000000,
-51.00000381,
-1.00000000,
-35.00000000,
-31.00000000,
2.00000000,
20.00000000,
17.00000000,
-5.00000000,
19.00000000,
21.00000000,
1.00000000,
-32.00000000,
-46.00000000,
-64.00000000,
-16.00000000,
-44.99999619,
17.00000000,
-29.00000000,
-11.00000000,
15.00000000,
-62.00000000,
22.00000000,
12.00000000,
10.00000000,
21.00000000,
-22.00000000,
-4.00000000,
-12.00000000,
-2.00000000,
-13.00000000,
63.00000381,
21.00000000,
7.00000000,
72.00000000,
-44.99999619,
-22.00000000,
-37.00000000,
-34.00000000,
-43.00000381,
-40.00000000,
10.00000000,
-9.00000000,
11.00000000,
18.00000000,
-6.00000000,
-44.00000000,
52.99999619,
15.00000000,
36.00000000,
32.00000000,
-15.00000000,
37.00000000,
-55.00000381,
-50.00000000,
33.00000000,
-36.00000000,
-55.00000381,
10.00000000,
-51.00000381,
-17.00000000,
0.00000000,
-6.00000000,
-14.00000000,
10.00000000,
22.00000000,
-60.99999619,
15.00000000,
29.00000000,
10.00000000,
-11.00000000,
-36.00000000,
-7.00000000,
-11.00000000,
-27.00000000,
-34.00000000,
13.00000000,
23.00000000,
-12.00000000,
-44.99999619,
89.99999237,
-17.00000000,
-54.00000000,
-4.00000000,
74.00000000,
9.00000000,
-26.00000000,
-3.00000000,
72.00000000,
-56.00000000,
-71.00000000,
23.00000000,
-15.00000000,
-64.00000000,
41.00000000,
-72.00000000,
-69.00000000,
97.99999237,
56.99999619,
52.99999619,
-60.00000000,
52.99999619,
16.00000000,
36.00000000,
-17.00000000,
-28.00000000,
43.00000381,
-76.00000000,
-42.00000000,
-7.00000000,
28.00000000,
-7.00000000,
46.00000000,
-44.99999619,
-88.00000000,
84.00000000,
9.00000000,
-70.00000000,
-38.00000000,
23.00000000,
3.00000000,
35.00000000,
-33.00000000,
-26.00000000,
16.00000000,
31.00000000,
-42.00000000,
-8.00000000,
23.00000000,
-21.00000000,
8.00000000,
7.00000000,
-83.00000000,
-30.00000000,
31.00000000,
1.00000000,
-44.00000000,
-4.00000000,
38.00000000,
23.00000000,
1.00000000,
-29.00000000,
18.00000000,
16.00000000,
19.00000000,
-22.00000000,
66.00000000,
-10.00000000,
-86.00000763,
84.00000000,
130.00000000,
-8.00000000,
-2.00000000,
19.00000000,
8.00000000,
-116.00000000,
26.00000000,
5.00000000,
16.00000000,
13.00000000,
0.00000000,
6.00000000,
-9.00000000,
-13.00000000,
15.00000000,
2.00000000,
15.00000000,
0.00000000,
-56.00000000,
48.99999619,
3.00000000,
11.00000000,
-39.00000000,
71.00000000,
-71.00000000,
-2.00000000,
5.00000000,
41.00000000,
-40.00000000,
46.00000000,
-21.00000000,
-1.00000000,
-2.00000000,
-30.00000000,
5.00000000,
-14.00000000,
14.00000000,
39.00000000,
17.00000000,
-44.00000000,
-1.00000000,
52.99999619,
-52.99999619,
24.00000000,
13.00000000,
-14.00000000,
18.00000000,
16.00000000,
-56.99999619,
-1.00000000,
16.00000000,
-19.00000000,
58.00000000,
0.00000000,
-86.00000763,
-4.00000000,
47.00000381,
-22.00000000,
14.00000000,
23.00000000,
34.00000000,
75.00000000,
-63.00000381,
-80.00000000,
83.00000000,
56.99999619,
17.00000000,
-16.00000000,
89.00000000,
85.00000000,
-42.00000000,
-62.00000000,
-27.00000000,
67.00000000,
-60.99999619,
-44.00000000,
44.99999619,
4.00000000,
-51.00000381,
65.00000000,
10.00000000,
-86.00000763,
2.00000000,
9.00000000,
12.00000000,
-20.00000000,
10.00000000,
-10.00000000,
15.00000000,
-22.00000000,
22.00000000,
27.00000000,
23.00000000,
78.00000000,
-3.00000000,
-16.00000000,
-1.00000000,
-89.99999237,
37.00000000,
37.00000000,
-24.00000000,
-47.00000381,
39.00000000,
-59.00000381,
-5.00000000,
25.00000000,
43.00000381,
-48.99999619,
-75.00000000,
43.00000381,
-10.00000000,
-54.00000000,
-34.00000000,
37.00000000,
-60.00000000,
80.00000000,
-58.00000000,
-78.00000000,
25.00000000,
-38.00000000,
-69.00000000,
7.00000000,
-12.00000000,
-14.00000000,
60.00000000,
-40.00000000,
-56.99999619,
-18.00000000,
33.00000000,
6.00000000,
-63.00000381,
29.00000000,
-29.00000000,
-7.00000000,
-8.00000000,
28.00000000,
-22.00000000,
-50.00000000,
-87.00000000,
55.00000381,
8.00000000,
-60.99999619,
38.00000000,
105.99999237,
27.00000000,
-8.00000000,
43.00000381,
72.00000000,
44.00000000,
21.00000000,
12.00000000,
-31.00000000,
3.00000000,
-11.00000000,
-33.00000000,
-18.00000000,
12.00000000,
-32.00000000,
-32.00000000,
-10.00000000,
-26.00000000,
-54.00000000,
3.00000000,
20.00000000,
89.00000000,
-16.00000000,
-14.00000000,
64.00000000,
-17.00000000,
-73.00000000,
10.00000000,
-32.00000000,
9.00000000,
-23.00000000,
13.00000000,
-9.00000000,
-35.00000000,
-18.00000000,
34.00000000,
-76.00000000,
-11.00000000,
-11.00000000,
19.00000000,
-48.00000000,
-56.00000000,
60.99999619,
-36.00000000,
-52.00000000,
28.00000000,
14.00000000,
-32.00000000,
-33.00000000,
19.00000000,
-31.00000000,
-2.00000000,
4.00000000,
-2.00000000,
-9.00000000,
14.00000000,
-30.00000000,
59.00000381,
-46.00000000,
-8.00000000,
-32.00000000,
0.00000000,
85.00000000,
-20.00000000,
-44.99999619,
-35.00000000,
99.00000000,
20.00000000,
-66.00000000,
26.00000000,
-4.00000000,
12.00000000,
10.00000000,
19.00000000,
-8.00000000,
-14.00000000,
10.00000000,
-21.00000000,
-31.00000000,
-28.00000000,
-13.00000000,
-72.00000000,
-18.00000000,
19.00000000,
-17.00000000,
28.00000000,
23.00000000,
-38.00000000,
-26.00000000,
15.00000000,
-97.99999237,
-31.00000000,
-33.00000000,
34.00000000,
-40.00000000,
-26.00000000,
12.00000000,
37.00000000,
18.00000000,
-13.00000000,
-25.00000000,
-25.00000000,
71.00000000,
-29.00000000,
-9.00000000,
10.00000000,
-10.00000000,
-79.00000000,
2.00000000,
-17.00000000,
0.00000000,
-21.00000000,
-2.00000000,
18.00000000,
-2.00000000,
-34.00000000,
65.00000000,
20.00000000,
26.00000000,
-11.00000000,
77.00000000,
71.00000000,
-4.00000000,
32.00000000,
25.00000000,
24.00000000,
-34.00000000,
12.00000000,
7.00000000,
-37.00000000,
11.00000000,
-54.00000000,
24.00000000,
-19.00000000,
55.00000381,
-21.00000000,
-56.99999619,
-41.00000000,
13.00000000,
47.00000381,
-20.00000000,
60.00000000,
-42.00000000,
51.00000381,
68.00000000,
-9.00000000,
10.00000000,
-5.00000000,
8.00000000,
-2.00000000,
87.00000000,
-48.00000000,
-56.00000000,
-23.00000000,
-4.00000000,
-6.00000000,
43.00000381,
-21.00000000,
2.00000000,
66.00000000,
17.00000000,
-54.00000000,
-20.00000000,
-22.00000000,
-71.00000000,
15.00000000,
-39.00000000,
-47.00000381,
-79.00000000,
52.99999619,
22.00000000,
3.00000000,
11.00000000,
-20.00000000,
-12.00000000,
25.00000000,
-4.00000000,
-4.00000000,
-9.00000000,
12.00000000,
38.00000000,
10.00000000,
-26.00000000,
-28.00000000,
-12.00000000,
-1.00000000,
-40.00000000,
-33.00000000,
-43.00000381,
-10.00000000,
-22.00000000,
-21.00000000,
-35.00000000,
15.00000000,
-5.00000000,
46.00000000,
-52.99999619,
-56.00000000,
26.00000000,
-2.00000000,
-29.00000000,
24.00000000,
-36.00000000,
55.00000381,
2.00000000,
17.00000000,
0.00000000,
32.00000000,
6.00000000,
32.00000000,
25.00000000,
5.00000000,
20.00000000,
-19.00000000,
8.00000000,
56.00000000,
11.00000000,
-14.00000000,
-33.00000000,
15.00000000,
-5.00000000,
-16.00000000,
-3.00000000,
-15.00000000,
38.00000000,
24.00000000,
23.00000000,
30.00000000,
20.00000000,
-36.00000000,
-47.00000381,
-13.00000000,
5.00000000,
-17.00000000,
68.00000000,
1.00000000,
50.00000000,
-23.00000000,
-7.00000000,
-14.00000000,
-33.00000000,
-41.00000000,
2.00000000,
10.00000000,
52.00000000,
63.00000381,
-11.00000000,
-15.00000000,
60.99999619,
-16.00000000,
9.00000000,
-21.00000000,
41.00000000,
26.00000000,
-79.00000000,
48.00000000,
26.00000000,
7.00000000,
56.00000000,
11.00000000,
0.00000000,
-15.00000000,
-3.00000000,
-15.00000000,
39.00000000,
-27.00000000,
16.00000000,
-13.00000000,
15.00000000,
-1.00000000,
30.00000000,
41.00000000,
-13.00000000,
22.00000000,
-6.00000000,
-31.00000000,
-60.99999619,
-58.00000000,
9.00000000,
35.00000000,
41.00000000,
31.00000000,
-59.00000381,
-15.00000000,
4.00000000,
59.00000381,
25.00000000,
-65.00000000,
13.00000000,
-35.00000000,
30.00000000,
17.00000000,
-22.00000000,
26.00000000,
39.00000000,
-1.00000000,
-3.00000000,
-25.00000000,
15.00000000,
36.00000000,
-84.00000000,
-9.00000000,
20.00000000,
-31.00000000,
31.00000000,
33.00000000,
34.00000000,
23.00000000,
4.00000000,
-6.00000000,
18.00000000,
-14.00000000,
9.00000000,
-7.00000000,
-12.00000000,
-38.00000000,
-51.00000381,
18.00000000,
-8.00000000,
-28.00000000,
14.00000000,
-8.00000000,
7.00000000,
-20.00000000,
3.00000000,
-47.00000381,
-17.00000000,
42.00000000,
32.00000000,
9.00000000,
17.00000000,
19.00000000,
-21.00000000,
-14.00000000,
14.00000000,
0.00000000,
-52.99999619,
-39.00000000,
-8.00000000,
-52.00000000,
-43.00000381,
-87.00000000,
-34.00000000,
-74.00000000,
-27.00000000,
10.00000000,
-38.00000000,
-92.00000000,
10.00000000,
-29.00000000,
37.00000000,
60.99999619,
43.00000381,
-12.00000000,
8.00000000,
31.00000000,
15.00000000,
5.00000000,
-25.00000000,
-4.00000000,
28.00000000,
-28.00000000,
0.00000000,
-14.00000000,
-35.00000000,
-17.00000000,
1.00000000,
34.00000000,
-13.00000000,
-56.99999619,
-67.00000000,
-18.00000000,
-13.00000000,
-54.00000000,
-27.00000000,
-5.00000000,
-16.00000000,
31.00000000,
-58.00000000,
-7.00000000,
14.00000000,
28.00000000,
30.00000000,
-4.00000000,
-18.00000000,
3.00000000,
37.00000000,
-4.00000000,
-15.00000000,
-20.00000000,
41.00000000,
69.00000000,
-17.00000000,
7.00000000,
38.00000000,
41.00000000,
82.00000000,
8.00000000,
-15.00000000,
44.00000000,
-22.00000000,
-22.00000000,
9.00000000,
-29.00000000,
-23.00000000,
-69.00000000,
-34.00000000,
3.00000000,
-18.00000000,
-5.00000000,
28.00000000,
-10.00000000,
-4.00000000,
19.00000000,
24.00000000,
1.00000000,
7.00000000,
-24.00000000,
-10.00000000,
6.00000000,
15.00000000,
-4.00000000,
17.00000000,
14.00000000,
15.00000000,
-17.00000000,
-24.00000000,
-16.00000000,
-12.00000000,
-30.00000000,
-22.00000000,
1.00000000,
48.00000000,
-25.00000000,
-13.00000000,
3.00000000,
-3.00000000,
-21.00000000,
-19.00000000,
-8.00000000,
-24.00000000,
18.00000000,
22.00000000,
11.00000000,
-22.00000000,
-40.00000000,
14.00000000,
-17.00000000,
27.00000000,
-48.99999619,
47.00000381,
-18.00000000,
-30.00000000,
43.00000381,
24.00000000,
-63.00000381,
64.00000000,
-37.00000000,
23.00000000,
-17.00000000,
-15.00000000,
-77.00000000,
-22.00000000,
-23.00000000,
-58.00000000,
-22.00000000,
-8.00000000,
-59.00000381,
-37.00000000,
12.00000000,
18.00000000,
-22.00000000,
58.00000000,
-11.00000000,
-15.00000000,
21.00000000,
-15.00000000,
21.00000000,
-22.00000000,
-1.00000000,
-16.00000000,
-19.00000000,
56.00000000,
25.00000000,
40.00000000,
-38.00000000,
12.00000000,
-7.00000000,
-10.00000000,
9.00000000,
40.00000000,
19.00000000,
-52.00000000,
-2.00000000,
-20.00000000,
74.00000000,
-4.00000000,
13.00000000,
31.00000000,
-24.00000000,
37.00000000,
19.00000000,
-23.00000000,
-32.00000000,
-24.00000000,
11.00000000,
0.00000000,
-19.00000000,
31.00000000,
-60.00000000,
-23.00000000,
6.00000000,
-11.00000000,
15.00000000,
39.00000000,
21.00000000,
41.00000000,
22.00000000,
-34.00000000,
-52.00000000,
7.00000000,
-60.99999619,
-24.00000000,
-54.00000000,
-36.00000000,
-48.00000000,
-31.00000000,
43.00000381,
46.00000000,
81.00000000,
59.00000381,
54.00000000,
-58.00000000,
23.00000000,
83.00000000,
-7.00000000,
15.00000000,
59.00000381,
13.00000000,
-19.00000000,
-30.00000000,
-21.00000000,
27.00000000,
1.00000000,
-27.00000000,
4.00000000,
48.00000000,
-11.00000000,
66.00000000,
29.00000000,
-25.00000000,
-8.00000000,
85.00000000,
-21.00000000,
31.00000000,
-44.99999619,
33.00000000,
-44.99999619,
-65.00000000,
-41.00000000,
25.00000000,
-9.00000000,
-29.00000000,
-5.00000000,
19.00000000,
-16.00000000,
23.00000000,
21.00000000,
-40.00000000,
-82.00000000,
-17.00000000,
-44.99999619,
-9.00000000,
-46.00000000,
31.00000000,
-66.00000000,
11.00000000,
-23.00000000,
-25.00000000,
34.00000000,
-24.00000000,
-24.00000000,
38.00000000,
25.00000000,
0.00000000,
10.00000000,
-84.00000000,
-29.00000000,
-17.00000000,
4.00000000,
-89.00000000,
4.00000000,
-7.00000000,
9.00000000,
9.00000000,
-110.00000763,
4.00000000,
1.00000000,
60.99999619,
7.00000000,
7.00000000,
11.00000000,
-19.00000000,
-18.00000000,
91.00000000,
-21.00000000,
-13.00000000,
7.00000000,
19.00000000,
-22.00000000,
40.00000000,
-115.00000000,
-13.00000000,
-3.00000000,
-22.00000000,
-54.00000000,
-18.00000000,
12.00000000,
27.00000000,
-23.00000000,
-36.00000000,
11.00000000,
-24.00000000,
22.00000000,
16.00000000,
-12.00000000,
-69.00000000,
37.00000000,
34.00000000,
-42.00000000,
-47.00000381,
-60.00000000,
26.00000000,
89.99999237,
-2.00000000,
7.00000000,
12.00000000,
7.00000000,
-1.00000000,
-35.00000000,
-2.00000000,
3.00000000,
15.00000000,
2.00000000,
39.00000000,
-48.99999619,
15.00000000,
-5.00000000,
-39.00000000,
-48.00000000,
-14.00000000,
-3.00000000,
-9.00000000,
-33.00000000,
0.00000000,
-4.00000000,
-5.00000000,
8.00000000,
23.00000000,
42.00000000,
39.00000000,
35.00000000,
39.00000000,
5.00000000,
-2.00000000,
-78.00000000,
-56.99999619,
-7.00000000,
-26.00000000,
-17.00000000,
27.00000000,
-13.00000000,
43.00000381,
17.00000000,
-3.00000000,
35.00000000,
38.00000000,
-46.00000000,
1.00000000,
8.00000000,
9.00000000,
1.00000000,
-2.00000000,
24.00000000,
30.00000000,
55.00000381,
7.00000000,
36.00000000,
67.00000000,
-2.00000000,
31.00000000,
52.99999619,
-16.00000000,
-10.00000000,
4.00000000,
12.00000000,
22.00000000,
-25.00000000,
-16.00000000,
-27.00000000,
31.00000000,
-26.00000000,
-19.00000000,
-28.00000000,
25.00000000,
48.99999619,
22.00000000,
3.00000000,
54.00000000,
-21.00000000,
-5.00000000,
36.00000000,
17.00000000,
0.00000000,
14.00000000,
14.00000000,
28.00000000,
68.00000000,
22.00000000,
51.00000381,
34.00000000,
-5.00000000,
15.00000000,
52.99999619,
-14.00000000,
-21.00000000,
36.00000000,
-16.00000000,
-5.00000000,
-21.00000000,
39.00000000,
-6.00000000,
-12.00000000,
35.00000000,
42.00000000,
-46.00000000,
-29.00000000,
29.00000000,
44.00000000,
12.00000000,
20.00000000,
-16.00000000,
44.99999619,
15.00000000,
-6.00000000,
-24.00000000,
31.00000000,
-8.00000000,
-29.00000000,
-36.00000000,
-23.00000000,
0.00000000,
31.00000000,
-2.00000000,
26.00000000,
46.00000000,
14.00000000,
19.00000000,
9.00000000,
-21.00000000,
29.00000000,
-10.00000000,
8.00000000,
-19.00000000,
-13.00000000,
-33.00000000,
-31.00000000,
0.00000000,
-41.00000000,
12.00000000,
-2.00000000,
20.00000000,
0.00000000,
-52.99999619,
-1.00000000,
-15.00000000,
-7.00000000,
-19.00000000,
10.00000000,
0.00000000,
44.99999619,
-30.00000000,
-56.00000000,
-41.00000000,
-5.00000000,
19.00000000,
8.00000000,
25.00000000,
50.00000000,
-3.00000000,
-12.00000000,
-19.00000000,
-64.00000000,
-47.00000381,
17.00000000,
-47.00000381,
-23.00000000,
25.00000000,
-42.00000000,
-28.00000000,
-47.00000381,
-20.00000000,
3.00000000,
-29.00000000,
-29.00000000,
-55.00000381,
-12.00000000,
-51.00000381,
0.00000000,
16.00000000,
-3.00000000,
-6.00000000,
-26.00000000,
-36.00000000,
-19.00000000,
10.00000000,
-26.00000000,
-7.00000000,
12.00000000,
39.00000000,
12.00000000,
-2.00000000,
18.00000000,
7.00000000,
5.00000000,
-12.00000000,
-17.00000000,
-34.00000000,
-18.00000000,
14.00000000,
23.00000000,
26.00000000,
54.00000000,
21.00000000,
28.00000000,
28.00000000,
39.00000000,
0.00000000,
20.00000000,
-26.00000000,
-30.00000000,
16.00000000,
-2.00000000,
-1.00000000,
10.00000000,
-40.00000000,
-44.00000000,
-64.00000000,
7.00000000,
-47.00000381,
-29.00000000,
-4.00000000,
-14.00000000,
-28.00000000,
13.00000000,
-36.00000000,
38.00000000,
-24.00000000,
62.00000000,
14.00000000,
48.00000000,
-19.00000000,
-7.00000000,
44.99999619,
-11.00000000,
-5.00000000,
-12.00000000,
-4.00000000,
-18.00000000,
-6.00000000,
-16.00000000,
1.00000000,
10.00000000,
42.00000000,
-31.00000000,
56.99999619,
15.00000000,
40.00000000,
4.00000000,
20.00000000,
-7.00000000,
-30.00000000,
-32.00000000,
6.00000000,
1.00000000,
-33.00000000,
56.99999619,
55.00000381,
42.00000000,
-11.00000000,
-23.00000000,
2.00000000,
1.00000000,
0.00000000,
-29.00000000,
-30.00000000,
-1.00000000,
-44.99999619,
-3.00000000,
14.00000000,
-37.00000000,
10.00000000,
-64.00000000,
4.00000000,
7.00000000,
-2.00000000,
-51.00000381,
-17.00000000,
16.00000000,
39.00000000,
-48.99999619,
-9.00000000,
50.00000000,
-21.00000000,
-30.00000000,
-1.00000000,
-9.00000000,
-30.00000000,
40.00000000,
-19.00000000,
41.00000000,
-1.00000000,
18.00000000,
73.00000000,
28.00000000,
36.00000000,
52.99999619,
-33.00000000,
-38.00000000,
-37.00000000,
5.00000000,
-20.00000000,
-17.00000000,
39.00000000,
50.00000000,
-47.00000381,
-37.00000000,
15.00000000,
2.00000000,
-21.00000000,
-25.00000000,
15.00000000,
5.00000000,
70.00000000,
-33.00000000,
-4.00000000,
23.00000000,
19.00000000,
-31.00000000,
0.00000000,
-17.00000000,
-30.00000000,
-36.00000000,
-11.00000000,
-18.00000000,
-14.00000000,
37.00000000,
-41.00000000,
12.00000000,
-6.00000000,
-10.00000000,
-2.00000000,
-25.00000000,
-25.00000000,
-33.00000000,
-42.00000000,
-46.00000000,
-40.00000000,
-30.00000000,
-18.00000000,
-52.99999619,
-38.00000000,
-6.00000000,
-15.00000000,
-55.00000381,
-10.00000000,
-43.00000381,
16.00000000,
-43.00000381,
-12.00000000,
-1.00000000,
-29.00000000,
22.00000000,
35.00000000,
-38.00000000,
-14.00000000,
-24.00000000,
-36.00000000,
-17.00000000,
8.00000000,
4.00000000,
-26.00000000,
5.00000000,
-56.00000000,
14.00000000,
29.00000000,
-35.00000000,
-13.00000000,
1.00000000,
1.00000000,
23.00000000,
7.00000000,
64.00000000,
40.00000000,
-40.00000000,
46.00000000,
5.00000000,
-9.00000000,
-29.00000000,
-5.00000000,
11.00000000,
48.99999619,
34.00000000,
30.00000000,
16.00000000,
27.00000000,
-56.00000000,
-33.00000000,
-36.00000000,
-4.00000000,
-34.00000000,
20.00000000,
-18.00000000,
18.00000000,
-19.00000000,
-14.00000000,
-52.99999619,
-6.00000000,
-32.00000000,
-7.00000000,
-48.00000000,
-6.00000000,
10.00000000,
59.00000381,
10.00000000,
23.00000000,
-12.00000000,
2.00000000,
-60.99999619,
-16.00000000,
-52.99999619,
-42.00000000,
-48.00000000,
0.00000000,
-5.00000000,
10.00000000,
-16.00000000,
2.00000000,
-10.00000000,
36.00000000,
-4.00000000,
26.00000000,
-108.00000000,
-86.00000763,
-40.00000000,
-97.00000000,
-119.00000000,
-48.99999619,
-54.00000000,
-60.99999619,
-71.00000000,
9.00000000,
37.00000000,
3.00000000,
12.00000000,
16.00000000,
37.00000000,
-8.00000000,
-3.00000000,
-4.00000000,
37.00000000,
38.00000000,
35.00000000,
15.00000000,
38.00000000,
-18.00000000,
-23.00000000,
36.00000000,
-34.00000000,
-10.00000000,
15.00000000,
-34.00000000,
-63.00000381,
50.00000000,
38.00000000,
50.00000000,
-47.00000381,
-6.00000000,
-28.00000000,
14.00000000,
3.00000000,
8.00000000,
29.00000000,
52.00000000,
29.00000000,
-16.00000000,
-27.00000000,
-6.00000000,
79.00000000,
-44.00000000,
34.00000000,
-26.00000000,
-19.00000000,
-8.00000000,
-20.00000000,
42.00000000,
0.00000000,
-7.00000000,
24.00000000,
14.00000000,
26.00000000,
-42.00000000,
-4.00000000,
8.00000000,
-15.00000000,
34.00000000,
16.00000000,
-50.00000000,
-10.00000000,
-7.00000000,
38.00000000,
-35.00000000,
-68.00000000,
-41.00000000,
3.00000000,
7.00000000,
-5.00000000,
39.00000000,
9.00000000,
-17.00000000,
12.00000000,
30.00000000,
15.00000000,
10.00000000,
50.00000000,
2.00000000,
10.00000000,
-68.00000000,
35.00000000,
103.00000000,
-105.00000000,
-44.00000000,
-39.00000000,
75.00000000,
-54.00000000,
-87.00000000,
-11.00000000,
39.00000000,
-26.00000000,
-56.99999619,
32.00000000,
11.00000000,
-85.00000000,
48.99999619,
-73.00000000,
-35.00000000,
-37.00000000,
-4.00000000,
25.00000000,
-41.00000000,
54.00000000,
28.00000000,
-16.00000000,
55.00000381,
-7.00000000,
-27.00000000,
-100.00000000,
-27.00000000,
2.00000000,
-20.00000000,
3.00000000,
1.00000000,
-3.00000000,
-14.00000000,
-11.00000000,
-37.00000000,
-12.00000000,
-8.00000000,
-9.00000000,
56.00000000,
-33.00000000,
11.00000000,
73.00000000,
26.00000000,
11.00000000,
-44.00000000,
29.00000000,
-11.00000000,
50.00000000,
-12.00000000,
34.00000000,
37.00000000,
25.00000000,
-14.00000000,
-28.00000000,
15.00000000,
1.00000000,
12.00000000,
3.00000000,
67.00000000,
63.00000381,
-30.00000000,
50.00000000,
19.00000000,
21.00000000,
-2.00000000,
-30.00000000,
7.00000000,
-31.00000000,
4.00000000,
-28.00000000,
21.00000000,
2.00000000,
-20.00000000,
-31.00000000,
48.00000000,
-44.00000000,
-27.00000000,
52.99999619,
44.00000000,
-52.00000000,
6.00000000,
28.00000000,
18.00000000,
8.00000000,
6.00000000,
-18.00000000,
58.00000000,
-34.00000000,
-16.00000000,
-93.00000000,
4.00000000,
-29.00000000,
35.00000000,
4.00000000,
-48.99999619,
-68.00000000,
11.00000000,
-10.00000000,
-120.00000000,
-34.00000000,
-42.00000000,
-5.00000000,
0.00000000,
-47.00000381,
-25.00000000,
-14.00000000,
12.00000000,
50.00000000,
-6.00000000,
3.00000000,
-3.00000000,
-16.00000000,
-30.00000000,
66.00000000,
21.00000000,
-1.00000000,
-32.00000000,
17.00000000,
36.00000000,
-6.00000000,
56.00000000,
135.00000000,
8.00000000,
-72.00000000,
13.00000000,
37.00000000,
-41.00000000,
0.00000000,
31.00000000,
28.00000000,
-46.00000000,
2.00000000,
-21.00000000,
-48.00000000,
-42.00000000,
-20.00000000,
7.00000000,
-37.00000000,
-55.00000381,
-8.00000000,
59.00000381,
3.00000000,
-44.99999619,
-63.00000381,
-47.00000381,
44.99999619,
-35.00000000,
28.00000000,
-7.00000000,
19.00000000,
-62.00000000,
-29.00000000,
17.00000000,
9.00000000,
25.00000000,
-60.99999619,
25.00000000,
-5.00000000,
19.00000000,
-6.00000000,
-30.00000000,
48.00000000,
17.00000000,
14.00000000,
22.00000000,
11.00000000,
29.00000000,
-13.00000000,
62.00000000,
4.00000000,
19.00000000,
-6.00000000,
-40.00000000,
5.00000000,
20.00000000,
23.00000000,
8.00000000,
18.00000000,
52.00000000,
-4.00000000,
7.00000000,
-10.00000000,
-67.00000000,
-70.00000000,
-3.00000000,
-65.00000000,
-12.00000000,
44.00000000,
10.00000000,
16.00000000,
-24.00000000,
-19.00000000,
-21.00000000,
2.00000000,
-21.00000000,
-39.00000000,
7.00000000,
67.00000000,
-8.00000000,
25.00000000,
35.00000000,
21.00000000,
6.00000000,
-17.00000000,
1.00000000,
30.00000000,
10.00000000,
-3.00000000,
-6.00000000,
-23.00000000,
-48.99999619,
-9.00000000,
43.00000381,
64.00000000,
-27.00000000,
6.00000000,
1.00000000,
-56.00000000,
-44.99999619,
-9.00000000,
-25.00000000,
-6.00000000,
-32.00000000,
15.00000000,
50.00000000,
1.00000000,
-31.00000000,
32.00000000,
-33.00000000,
-4.00000000,
16.00000000,
52.99999619,
-55.00000381,
-7.00000000,
19.00000000,
-29.00000000,
-60.99999619,
-28.00000000,
25.00000000,
-8.00000000,
-15.00000000,
52.99999619,
48.99999619,
-54.00000000,
-26.00000000,
-31.00000000,
-25.00000000,
-44.99999619,
-27.00000000,
-42.00000000,
44.00000000,
55.00000381,
-29.00000000,
-16.00000000,
16.00000000,
58.00000000,
10.00000000,
2.00000000,
43.00000381,
-3.00000000,
-21.00000000,
11.00000000,
-30.00000000,
-16.00000000,
7.00000000,
15.00000000,
3.00000000,
58.00000000,
30.00000000,
-2.00000000,
5.00000000,
10.00000000,
-27.00000000,
-26.00000000,
15.00000000,
30.00000000,
16.00000000,
-4.00000000,
24.00000000,
23.00000000,
-11.00000000,
-35.00000000,
-58.00000000,
-36.00000000,
-30.00000000,
-65.00000000,
-26.00000000,
-21.00000000,
-21.00000000,
-48.00000000,
-27.00000000,
25.00000000,
14.00000000,
-9.00000000,
18.00000000,
-26.00000000,
39.00000000,
12.00000000,
-7.00000000,
-27.00000000,
1.00000000,
17.00000000,
-10.00000000,
39.00000000,
3.00000000,
-19.00000000,
-17.00000000,
-41.00000000,
-48.99999619,
-62.00000000,
-2.00000000,
56.99999619,
54.00000000,
-2.00000000,
-16.00000000,
50.00000000,
18.00000000,
35.00000000,
-12.00000000,
-6.00000000,
55.00000381,
80.00000000,
-2.00000000,
56.99999619,
64.00000000,
15.00000000,
10.00000000,
26.00000000,
26.00000000,
-11.00000000,
-4.00000000,
41.00000000,
13.00000000,
-20.00000000,
-32.00000000,
13.00000000,
4.00000000,
-67.00000000,
-36.00000000,
-39.00000000,
26.00000000,
-36.00000000,
-1.00000000,
-46.00000000,
-50.00000000,
10.00000000,
26.00000000,
41.00000000,
-9.00000000,
22.00000000,
20.00000000,
0.00000000,
-7.00000000,
-47.00000381,
-36.00000000,
-30.00000000,
14.00000000,
-34.00000000,
-37.00000000,
9.00000000,
17.00000000,
-21.00000000,
-21.00000000,
77.00000000,
-25.00000000,
-21.00000000,
33.00000000,
35.00000000,
-5.00000000,
-13.00000000,
18.00000000,
-39.00000000,
-17.00000000,
42.00000000,
3.00000000,
-17.00000000,
-25.00000000,
8.00000000,
-6.00000000,
-9.00000000,
9.00000000,
16.00000000,
33.00000000,
37.00000000,
54.00000000,
-9.00000000,
23.00000000,
-18.00000000,
-11.00000000,
29.00000000,
18.00000000,
42.00000000,
38.00000000,
17.00000000,
2.00000000,
19.00000000,
-21.00000000,
14.00000000,
74.00000000,
-32.00000000,
25.00000000,
30.00000000,
-56.00000000,
-4.00000000,
6.00000000,
-60.00000000,
-4.00000000,
-13.00000000,
56.99999619,
25.00000000,
-30.00000000,
34.00000000,
-56.00000000,
-71.00000000,
-21.00000000,
5.00000000,
-27.00000000,
-3.00000000,
18.00000000,
37.00000000,
-3.00000000,
-18.00000000,
26.00000000,
-14.00000000,
1.00000000,
44.99999619,
-41.00000000,
1.00000000,
-7.00000000,
35.00000000,
16.00000000,
16.00000000,
-48.99999619,
-9.00000000,
-1.00000000,
82.00000000,
-7.00000000,
-33.00000000,
24.00000000,
-56.00000000,
-21.00000000,
-56.99999619,
1.00000000,
-48.99999619,
-58.00000000,
39.00000000,
8.00000000,
44.00000000,
48.99999619,
13.00000000,
38.00000000,
-13.00000000,
40.00000000,
-23.00000000,
56.99999619,
23.00000000,
-16.00000000,
36.00000000,
-22.00000000,
29.00000000,
7.00000000,
-30.00000000,
16.00000000,
-13.00000000,
25.00000000,
39.00000000,
-21.00000000,
11.00000000,
-10.00000000,
3.00000000,
6.00000000,
-9.00000000,
7.00000000,
-48.99999619,
-11.00000000,
-1.00000000,
-8.00000000,
-26.00000000,
0.00000000,
31.00000000,
-2.00000000,
38.00000000,
38.00000000,
24.00000000,
-24.00000000,
7.00000000,
74.00000000,
-46.00000000,
-8.00000000,
24.00000000,
35.00000000,
43.00000381,
-64.00000000,
28.00000000,
10.00000000,
1.00000000,
-44.00000000,
1.00000000,
8.00000000,
-1.00000000,
-8.00000000,
4.00000000,
-51.00000381,
-9.00000000,
-1.00000000,
40.00000000,
1.00000000,
3.00000000,
-31.00000000,
46.00000000,
-3.00000000,
-35.00000000,
-13.00000000,
-92.00000000,
30.00000000,
-4.00000000,
-29.00000000,
-26.00000000,
-14.00000000,
-7.00000000,
17.00000000,
-28.00000000,
-36.00000000,
-42.00000000,
-1.00000000,
32.00000000,
-44.00000000,
-19.00000000,
3.00000000,
-28.00000000,
-56.99999619,
25.00000000,
-13.00000000,
-48.00000000,
-59.00000381,
14.00000000,
0.00000000,
-44.99999619,
-8.00000000,
-48.99999619,
-40.00000000,
22.00000000,
-18.00000000,
-86.00000763,
12.00000000,
25.00000000,
34.00000000,
1.00000000,
39.00000000,
32.00000000,
-21.00000000,
-27.00000000,
27.00000000,
-25.00000000,
35.00000000,
-21.00000000,
-7.00000000,
2.00000000,
-66.00000000,
35.00000000,
-65.00000000,
48.99999619,
-11.00000000,
-56.99999619,
-44.00000000,
-30.00000000,
-62.00000000,
42.00000000,
56.99999619,
8.00000000,
23.00000000,
-6.00000000,
-11.00000000,
5.00000000,
-43.00000381,
-16.00000000,
-22.00000000,
-29.00000000,
19.00000000,
44.99999619,
14.00000000,
-13.00000000,
2.00000000,
18.00000000,
-15.00000000,
-2.00000000,
3.00000000,
2.00000000,
-48.00000000,
10.00000000,
15.00000000,
-25.00000000,
11.00000000,
-12.00000000,
1.00000000,
-48.00000000,
-1.00000000,
8.00000000,
-30.00000000,
-21.00000000,
-11.00000000,
-31.00000000,
-6.00000000,
-80.00000000,
-47.00000381,
-44.99999619,
9.00000000,
-40.00000000,
33.00000000,
22.00000000,
-11.00000000,
44.99999619,
19.00000000,
5.00000000,
69.00000000,
9.00000000,
39.00000000,
26.00000000,
-24.00000000,
58.00000000,
-21.00000000,
-27.00000000,
-63.00000381,
28.00000000,
26.00000000,
-27.00000000,
38.00000000,
-32.00000000,
-44.00000000,
39.00000000,
-26.00000000,
-12.00000000,
-22.00000000,
39.00000000,
-38.00000000,
-38.00000000,
29.00000000,
-3.00000000,
-6.00000000,
-4.00000000,
-32.00000000,
26.00000000,
34.00000000,
-63.00000381,
3.00000000,
48.99999619,
12.00000000,
46.00000000,
84.00000000,
-13.00000000,
-23.00000000,
25.00000000,
16.00000000,
7.00000000,
2.00000000,
-1.00000000,
31.00000000,
18.00000000,
60.00000000,
-15.00000000,
-20.00000000,
52.99999619,
-50.00000000,
-52.00000000,
88.00000000,
-27.00000000,
-56.99999619,
-28.00000000,
-23.00000000,
20.00000000,
-12.00000000,
8.00000000,
-18.00000000,
7.00000000,
-2.00000000,
9.00000000,
-48.00000000,
-21.00000000,
4.00000000,
-7.00000000,
-19.00000000,
-46.00000000,
10.00000000,
-20.00000000,
3.00000000,
-33.00000000,
-19.00000000,
27.00000000,
22.00000000,
-1.00000000,
1.00000000,
-11.00000000,
-6.00000000,
-28.00000000,
0.00000000,
3.00000000,
43.00000381,
-35.00000000,
-8.00000000,
14.00000000,
-10.00000000,
7.00000000,
2.00000000,
-44.00000000,
-17.00000000,
22.00000000,
-20.00000000,
70.00000000,
-28.00000000,
-35.00000000,
21.00000000,
-25.00000000,
34.00000000,
17.00000000,
-43.00000381,
26.00000000,
9.00000000,
11.00000000,
33.00000000,
-15.00000000,
-12.00000000,
-47.00000381,
-29.00000000,
29.00000000,
-48.99999619,
43.00000381,
7.00000000,
-37.00000000,
-8.00000000,
-4.00000000,
24.00000000,
6.00000000,
5.00000000,
17.00000000,
2.00000000,
28.00000000,
-11.00000000,
-1.00000000,
8.00000000,
-19.00000000,
8.00000000,
-22.00000000,
-1.00000000,
15.00000000,
60.00000000,
2.00000000,
34.00000000,
24.00000000,
24.00000000,
16.00000000,
1.00000000,
26.00000000,
-10.00000000,
6.00000000,
-5.00000000,
10.00000000,
-16.00000000,
13.00000000,
-12.00000000,
-3.00000000,
24.00000000,
-30.00000000,
4.00000000,
9.00000000,
-63.00000381,
37.00000000,
-77.00000000,
83.00000000,
55.00000381,
23.00000000,
64.00000000,
21.00000000,
52.99999619,
-47.00000381,
-58.00000000,
-26.00000000,
58.00000000,
14.00000000,
16.00000000,
50.00000000,
-17.00000000,
28.00000000,
12.00000000,
1.00000000,
-42.00000000,
26.00000000,
23.00000000,
10.00000000,
15.00000000,
-19.00000000,
34.00000000,
-8.00000000,
13.00000000,
-71.00000000,
-14.00000000,
-6.00000000,
-55.00000381,
-26.00000000,
15.00000000,
-12.00000000,
-1.00000000,
-8.00000000,
-46.00000000,
-52.99999619,
0.00000000,
-42.00000000,
-36.00000000,
-84.00000000,
18.00000000,
-47.00000381,
-41.00000000,
-44.00000000,
-20.00000000,
-18.00000000,
16.00000000,
3.00000000,
-7.00000000,
16.00000000,
-54.00000000,
7.00000000,
42.00000000,
24.00000000,
-14.00000000,
-18.00000000,
-46.00000000,
-10.00000000,
-52.00000000,
42.00000000,
-17.00000000,
-32.00000000,
-17.00000000,
11.00000000,
-16.00000000,
63.00000381,
-6.00000000,
18.00000000,
-18.00000000,
20.00000000,
-1.00000000,
39.00000000,
33.00000000,
-13.00000000,
-39.00000000,
-16.00000000,
9.00000000,
-9.00000000,
-21.00000000,
2.00000000,
-23.00000000,
-56.00000000,
6.00000000,
-34.00000000,
-62.00000000,
7.00000000,
9.00000000,
-27.00000000,
2.00000000,
1.00000000,
20.00000000,
-12.00000000,
-16.00000000,
44.99999619,
-13.00000000,
-20.00000000,
15.00000000,
-20.00000000,
-42.00000000,
-21.00000000,
-14.00000000,
-52.99999619,
-97.00000000,
0.00000000,
-67.00000000,
-48.00000000,
-43.00000381,
51.00000381,
-5.00000000,
-2.00000000,
50.00000000,
-14.00000000,
27.00000000,
41.00000000,
-19.00000000,
-19.00000000,
-17.00000000,
27.00000000,
-29.00000000,
19.00000000,
-19.00000000,
16.00000000,
28.00000000,
-8.00000000,
-16.00000000,
32.00000000,
-13.00000000,
-40.00000000,
-64.00000000,
-11.00000000,
-52.00000000,
-77.00000000,
-47.00000381,
-5.00000000,
43.00000381,
11.00000000,
26.00000000,
-17.00000000,
-31.00000000,
4.00000000,
-27.00000000,
-72.00000000,
11.00000000,
-4.00000000,
-15.00000000,
-33.00000000,
-3.00000000,
-11.00000000,
-14.00000000,
1.00000000,
-29.00000000,
-18.00000000,
51.00000381,
36.00000000,
-56.00000000,
-10.00000000,
-44.00000000,
-10.00000000,
-25.00000000,
-39.00000000,
4.00000000,
68.00000000,
46.00000000,
-27.00000000,
31.00000000,
-31.00000000,
-62.00000000,
9.00000000,
14.00000000,
-33.00000000,
21.00000000,
46.00000000,
-48.00000000,
-41.00000000,
-80.00000000,
-31.00000000,
-64.00000000,
-64.00000000,
1.00000000,
40.00000000,
-7.00000000,
-22.00000000,
-18.00000000,
-38.00000000,
18.00000000,
6.00000000,
27.00000000,
13.00000000,
2.00000000,
35.00000000,
23.00000000,
-22.00000000,
-2.00000000,
47.00000381,
-31.00000000,
25.00000000,
1.00000000,
54.00000000,
16.00000000,
10.00000000,
-11.00000000,
-51.00000381,
-2.00000000,
14.00000000,
-2.00000000,
-23.00000000,
5.00000000,
-67.00000000,
-17.00000000,
-28.00000000,
5.00000000,
-38.00000000,
3.00000000,
-39.00000000,
28.00000000,
-35.00000000,
21.00000000,
-15.00000000,
-23.00000000,
-40.00000000,
-9.00000000,
-35.00000000,
102.00000763,
4.00000000,
52.99999619,
48.00000000,
44.99999619,
27.00000000,
4.00000000,
47.00000381,
-12.00000000,
6.00000000,
-14.00000000,
21.00000000,
15.00000000,
-36.00000000,
15.00000000,
-28.00000000,
35.00000000,
-34.00000000,
-39.00000000,
18.00000000,
-62.00000000,
12.00000000,
-36.00000000,
-12.00000000,
-17.00000000,
-48.99999619,
-11.00000000,
-44.00000000,
5.00000000,
-43.00000381,
-21.00000000,
-7.00000000,
-116.00000000,
-2.00000000,
-30.00000000,
-22.00000000,
-4.00000000,
12.00000000,
-59.00000381,
24.00000000,
9.00000000,
-7.00000000,
44.99999619,
-48.99999619,
-29.00000000,
11.00000000,
31.00000000,
60.99999619,
-6.00000000,
4.00000000,
-12.00000000,
-32.00000000,
18.00000000,
16.00000000,
34.00000000,
50.00000000,
89.00000000,
-42.00000000,
73.00000000,
34.00000000,
-16.00000000,
26.00000000,
14.00000000,
-17.00000000,
52.99999619,
-13.00000000,
-72.00000000,
73.00000000,
-19.00000000,
-80.00000000,
-30.00000000,
-40.00000000,
-47.00000381,
8.00000000,
21.00000000,
27.00000000,
3.00000000,
-14.00000000,
23.00000000,
-22.00000000,
50.00000000,
37.00000000,
-1.00000000,
29.00000000,
-14.00000000,
1.00000000,
11.00000000,
19.00000000,
51.00000381,
-7.00000000,
-9.00000000,
22.00000000,
2.00000000,
-25.00000000,
14.00000000,
-1.00000000,
23.00000000,
-1.00000000,
13.00000000,
34.00000000,
-41.00000000,
32.00000000,
2.00000000,
-13.00000000,
12.00000000,
-33.00000000,
14.00000000,
28.00000000,
-44.00000000,
24.00000000,
-40.00000000,
23.00000000,
-18.00000000,
-52.00000000,
20.00000000,
24.00000000,
-17.00000000,
-5.00000000,
-40.00000000,
0.00000000,
-62.00000000,
-2.00000000,
-7.00000000,
8.00000000,
0.00000000,
-72.00000000,
-26.00000000,
-1.00000000,
-23.00000000,
20.00000000,
-50.00000000,
-81.00000000,
-26.00000000,
-71.00000000,
-11.00000000,
11.00000000,
-16.00000000,
14.00000000,
-12.00000000,
-32.00000000,
0.00000000,
14.00000000,
-24.00000000,
-3.00000000,
14.00000000,
13.00000000,
-66.00000000,
-27.00000000,
-52.99999619,
-4.00000000,
-4.00000000,
-52.00000000,
-36.00000000,
-19.00000000,
48.99999619,
18.00000000,
-39.00000000,
-31.00000000,
-46.00000000,
-21.00000000,
-7.00000000,
-9.00000000,
-32.00000000,
19.00000000,
12.00000000,
-39.00000000,
5.00000000,
21.00000000,
-22.00000000,
-27.00000000,
15.00000000,
10.00000000,
34.00000000,
28.00000000,
-67.00000000,
47.00000381,
-20.00000000,
-48.00000000,
-4.00000000,
2.00000000,
-12.00000000,
21.00000000,
20.00000000,
-22.00000000,
23.00000000,
-1.00000000,
-69.00000000,
-21.00000000,
-58.00000000,
-25.00000000,
70.00000000,
83.00000000,
-22.00000000,
63.00000381,
2.00000000,
-16.00000000,
13.00000000,
19.00000000,
51.00000381,
-22.00000000,
-22.00000000,
48.99999619,
-1.00000000,
-12.00000000,
33.00000000,
-48.00000000,
7.00000000,
38.00000000,
17.00000000,
-10.00000000,
-24.00000000,
50.00000000,
60.00000000,
24.00000000,
-17.00000000,
-34.00000000,
8.00000000,
28.00000000,
-94.00000763,
-31.00000000,
9.00000000,
-60.00000000,
-12.00000000,
-5.00000000,
-66.00000000,
-21.00000000,
62.00000000,
10.00000000,
-77.00000000,
19.00000000,
10.00000000,
-55.00000381,
-21.00000000,
-46.00000000,
-7.00000000,
-51.00000381,
-31.00000000,
0.00000000,
-39.00000000,
-14.00000000,
8.00000000,
-32.00000000,
30.00000000,
12.00000000,
-9.00000000,
-27.00000000,
-18.00000000,
46.00000000,
0.00000000,
-26.00000000,
-21.00000000,
7.00000000,
-38.00000000,
-23.00000000,
-16.00000000,
10.00000000,
-19.00000000,
-14.00000000,
-1.00000000,
8.00000000,
-11.00000000,
-48.00000000,
29.00000000,
-37.00000000,
2.00000000,
48.00000000,
-10.00000000,
4.00000000,
13.00000000,
-10.00000000,
2.00000000,
35.00000000,
-62.00000000,
14.00000000,
33.00000000,
-69.00000000,
-10.00000000,
16.00000000,
-54.00000000,
2.00000000,
24.00000000,
2.00000000,
13.00000000,
1.00000000,
10.00000000,
-21.00000000,
-21.00000000,
50.00000000,
36.00000000,
16.00000000,
-14.00000000,
35.00000000,
-42.00000000,
12.00000000,
-40.00000000,
-44.00000000,
19.00000000,
-25.00000000,
-22.00000000,
-41.00000000,
17.00000000,
34.00000000,
-2.00000000,
27.00000000,
3.00000000,
-18.00000000,
24.00000000,
59.00000381,
-20.00000000,
-33.00000000,
39.00000000,
-19.00000000,
-22.00000000,
-17.00000000,
-16.00000000,
-33.00000000,
-48.99999619,
39.00000000,
25.00000000,
-4.00000000,
44.99999619,
-8.00000000,
7.00000000,
-15.00000000,
-27.00000000,
-30.00000000,
5.00000000,
12.00000000,
-42.00000000,
36.00000000,
12.00000000,
-14.00000000,
-30.00000000,
27.00000000,
36.00000000,
-21.00000000,
39.00000000,
29.00000000,
-9.00000000,
4.00000000,
-9.00000000,
-28.00000000,
76.00000000,
8.00000000,
-34.00000000,
-8.00000000,
-23.00000000,
-19.00000000,
-35.00000000,
1.00000000,
-18.00000000,
-23.00000000,
-29.00000000,
-39.00000000,
-31.00000000,
10.00000000,
-12.00000000,
9.00000000,
-47.00000381,
-4.00000000,
-43.00000381,
-7.00000000,
-15.00000000,
-52.99999619,
44.00000000,
-76.00000000,
-78.00000000,
-12.00000000,
7.00000000,
-14.00000000,
-24.00000000,
18.00000000,
17.00000000,
33.00000000,
40.00000000,
-4.00000000,
-41.00000000,
13.00000000,
-1.00000000,
10.00000000,
-28.00000000,
-36.00000000,
9.00000000,
-2.00000000,
-47.00000381,
40.00000000,
-19.00000000,
-68.00000000,
-2.00000000,
-16.00000000,
-11.00000000,
23.00000000,
28.00000000,
24.00000000,
25.00000000,
-51.00000381,
13.00000000,
20.00000000,
-29.00000000,
8.00000000,
15.00000000,
-13.00000000,
-9.00000000,
8.00000000,
15.00000000,
28.00000000,
11.00000000,
-3.00000000,
21.00000000,
21.00000000,
-67.00000000,
-3.00000000,
6.00000000,
-29.00000000,
-24.00000000,
-23.00000000,
29.00000000,
29.00000000,
-19.00000000,
-13.00000000,
40.00000000,
-44.00000000,
37.00000000,
36.00000000,
40.00000000,
9.00000000,
-50.00000000,
-1.00000000,
-16.00000000,
-54.00000000,
-14.00000000,
-41.00000000,
-43.00000381,
19.00000000,
21.00000000,
-29.00000000,
3.00000000,
10.00000000,
-36.00000000,
19.00000000,
-14.00000000,
-56.00000000,
24.00000000,
17.00000000,
25.00000000,
25.00000000,
-34.00000000,
19.00000000,
0.00000000,
-69.00000000,
44.00000000,
-28.00000000,
-14.00000000,
15.00000000,
22.00000000,
-37.00000000,
52.00000000,
4.00000000,
-46.00000000,
-2.00000000,
-38.00000000,
-20.00000000,
8.00000000,
-54.00000000,
33.00000000,
31.00000000,
2.00000000,
-20.00000000,
9.00000000,
-13.00000000,
-40.00000000,
-8.00000000,
-42.00000000,
-62.00000000,
-19.00000000,
-33.00000000,
3.00000000,
12.00000000,
29.00000000,
-16.00000000,
5.00000000,
13.00000000,
59.00000381,
30.00000000,
94.00000763,
16.00000000,
-6.00000000,
-17.00000000,
33.00000000,
-60.00000000,
38.00000000,
-36.00000000,
-69.00000000,
-27.00000000,
-62.00000000,
-28.00000000,
-7.00000000,
24.00000000,
-35.00000000,
11.00000000,
18.00000000,
17.00000000,
48.99999619,
-6.00000000,
34.00000000,
-35.00000000,
-3.00000000,
-24.00000000,
25.00000000,
-25.00000000,
-16.00000000,
13.00000000,
52.99999619,
7.00000000,
-54.00000000,
-21.00000000,
6.00000000,
-3.00000000,
28.00000000,
17.00000000,
7.00000000,
33.00000000,
-26.00000000,
-48.00000000,
44.99999619,
56.00000000,
8.00000000,
32.00000000,
84.00000000,
-8.00000000,
-35.00000000,
60.00000000,
44.00000000,
32.00000000,
-76.00000000,
65.00000000,
56.00000000,
-81.00000000,
58.00000000,
6.00000000,
-71.00000000,
-9.00000000,
20.00000000,
-67.00000000,
17.00000000,
66.00000000,
13.00000000,
18.00000000,
12.00000000,
12.00000000,
52.99999619,
44.99999619,
-15.00000000,
15.00000000,
-24.00000000,
3.00000000,
-1.00000000,
-48.99999619,
47.00000381,
-32.00000000,
-15.00000000,
-3.00000000,
60.00000000,
32.00000000,
6.00000000,
75.00000000,
9.00000000,
-2.00000000,
3.00000000,
-37.00000000,
-3.00000000,
-44.00000000,
-3.00000000,
-52.00000000,
8.00000000,
11.00000000,
-28.00000000,
-38.00000000,
-54.00000000,
-13.00000000,
-44.00000000,
-65.00000000,
-16.00000000,
33.00000000,
-69.00000000,
-1.00000000,
67.00000000,
11.00000000,
9.00000000,
-37.00000000,
24.00000000,
-32.00000000,
-17.00000000,
3.00000000,
38.00000000,
-10.00000000,
-12.00000000,
9.00000000,
34.00000000,
4.00000000,
30.00000000,
10.00000000,
15.00000000,
59.00000381,
-41.00000000,
9.00000000,
-10.00000000,
-6.00000000,
-5.00000000,
68.00000000,
3.00000000,
29.00000000,
4.00000000,
-13.00000000,
43.00000381,
68.00000000,
-35.00000000,
21.00000000,
43.00000381,
-12.00000000,
23.00000000,
0.00000000,
-47.00000381,
59.00000381,
0.00000000,
12.00000000,
-32.00000000,
29.00000000,
33.00000000,
-16.00000000,
56.99999619,
24.00000000,
-7.00000000,
-41.00000000,
47.00000381,
34.00000000,
-22.00000000,
-2.00000000,
18.00000000,
-22.00000000,
-33.00000000,
-34.00000000,
41.00000000,
-54.00000000,
-44.99999619,
-21.00000000,
-18.00000000,
-9.00000000,
21.00000000,
60.99999619,
-37.00000000,
-70.00000000,
27.00000000,
-11.00000000,
21.00000000,
4.00000000,
-38.00000000,
59.00000381,
-3.00000000,
22.00000000,
39.00000000,
-2.00000000,
-44.99999619,
1.00000000,
0.00000000,
-4.00000000,
47.00000381,
-51.00000381,
-9.00000000,
51.00000381,
-16.00000000,
-8.00000000,
7.00000000,
-23.00000000,
-25.00000000,
-2.00000000,
16.00000000,
-27.00000000,
-25.00000000,
-36.00000000,
59.00000381,
-5.00000000,
-13.00000000,
-4.00000000,
-1.00000000,
16.00000000,
32.00000000,
-8.00000000,
21.00000000,
-4.00000000,
-3.00000000,
-38.00000000,
27.00000000,
4.00000000,
18.00000000,
55.00000381,
48.00000000,
6.00000000,
38.00000000,
9.00000000,
7.00000000,
-36.00000000,
-8.00000000,
-26.00000000,
22.00000000,
26.00000000,
-44.99999619,
58.00000000,
56.99999619,
86.00000763,
-37.00000000,
1.00000000,
-1.00000000,
3.00000000,
0.00000000,
55.00000381,
47.00000381,
2.00000000,
-40.00000000,
-31.00000000,
-52.99999619,
31.00000000,
0.00000000,
8.00000000,
25.00000000,
1.00000000,
-56.99999619,
37.00000000,
-6.00000000,
-3.00000000,
34.00000000,
-17.00000000,
-4.00000000,
-78.00000000,
-18.00000000,
40.00000000,
8.00000000,
-50.00000000,
-2.00000000,
-14.00000000,
-32.00000000,
-32.00000000,
-1.00000000,
-3.00000000,
0.00000000,
9.00000000,
-38.00000000,
24.00000000,
0.00000000,
40.00000000,
-5.00000000,
-69.00000000,
-48.00000000,
-59.00000381,
-16.00000000,
-68.00000000,
-64.00000000,
-32.00000000,
-11.00000000,
10.00000000,
-19.00000000,
-16.00000000,
-10.00000000,
-23.00000000,
4.00000000,
-35.00000000,
-44.99999619,
-36.00000000,
4.00000000,
-7.00000000,
-25.00000000,
31.00000000,
15.00000000,
-14.00000000,
-65.00000000,
19.00000000,
50.00000000,
3.00000000,
13.00000000,
33.00000000,
-20.00000000,
17.00000000,
12.00000000,
39.00000000,
-21.00000000,
-22.00000000,
10.00000000,
-44.99999619,
28.00000000,
-30.00000000,
14.00000000,
-3.00000000,
-44.99999619,
12.00000000,
19.00000000,
5.00000000,
30.00000000,
-11.00000000,
14.00000000,
20.00000000,
30.00000000,
-9.00000000,
13.00000000,
2.00000000,
18.00000000,
-32.00000000,
-31.00000000,
-25.00000000,
-50.00000000,
-76.00000000,
-39.00000000,
-93.00000000,
-15.00000000,
-24.00000000,
-6.00000000,
-67.00000000,
38.00000000,
17.00000000,
43.00000381,
-35.00000000,
-31.00000000,
-15.00000000,
9.00000000,
-20.00000000,
-17.00000000,
16.00000000,
-43.00000381,
-5.00000000,
-41.00000000,
38.00000000,
37.00000000,
-1.00000000,
-26.00000000,
24.00000000,
-25.00000000,
-22.00000000,
-104.00000000,
-74.00000000,
-33.00000000,
-63.00000381,
-25.00000000,
30.00000000,
-33.00000000,
8.00000000,
16.00000000,
-77.00000000,
-20.00000000,
-21.00000000,
29.00000000,
-8.00000000,
64.00000000,
3.00000000,
-7.00000000,
-27.00000000,
38.00000000,
-40.00000000,
-24.00000000,
14.00000000,
17.00000000,
-16.00000000,
69.00000000,
47.00000381,
56.99999619,
40.00000000,
8.00000000,
-33.00000000,
-31.00000000,
24.00000000,
-4.00000000,
0.00000000,
29.00000000,
-17.00000000,
24.00000000,
-52.99999619,
20.00000000,
-12.00000000,
-20.00000000,
-11.00000000,
39.00000000,
-47.00000381,
-31.00000000,
3.00000000,
-71.00000000,
12.00000000,
32.00000000,
20.00000000,
31.00000000,
-60.99999619,
3.00000000,
-16.00000000,
4.00000000,
-28.00000000,
-66.00000000,
-89.00000000,
-29.00000000,
-32.00000000,
-97.99999237,
-5.00000000,
5.00000000,
-21.00000000,
-28.00000000,
24.00000000,
6.00000000,
41.00000000,
30.00000000,
-28.00000000,
12.00000000,
-4.00000000,
11.00000000,
3.00000000,
-41.00000000,
64.00000000,
-14.00000000,
-29.00000000,
52.99999619,
-5.00000000,
41.00000000,
-40.00000000,
-42.00000000,
36.00000000,
-24.00000000,
-59.00000381,
-26.00000000,
-24.00000000,
14.00000000,
-74.00000000,
74.00000000,
55.00000381,
37.00000000,
-8.00000000,
-51.00000381,
14.00000000,
11.00000000,
23.00000000,
8.00000000,
2.00000000,
19.00000000,
-25.00000000,
37.00000000,
48.00000000,
11.00000000,
43.00000381,
12.00000000,
-27.00000000,
-23.00000000,
9.00000000,
14.00000000,
-17.00000000,
-8.00000000,
33.00000000,
38.00000000,
25.00000000,
2.00000000,
-14.00000000,
14.00000000,
-33.00000000,
-9.00000000,
18.00000000,
1.00000000,
-18.00000000,
-16.00000000,
27.00000000,
68.00000000,
15.00000000,
32.00000000,
12.00000000,
-44.99999619,
33.00000000,
-37.00000000,
28.00000000,
-51.00000381,
-72.00000000,
-17.00000000,
-26.00000000,
85.00000000,
-15.00000000,
9.00000000,
-11.00000000,
13.00000000,
34.00000000,
-59.00000381,
-55.00000381,
8.00000000,
-18.00000000,
-29.00000000,
-8.00000000,
-31.00000000,
1.00000000,
2.00000000,
3.00000000,
38.00000000,
-17.00000000,
-25.00000000,
-66.00000000,
19.00000000,
-24.00000000,
-37.00000000,
-13.00000000,
-1.00000000,
2.00000000,
12.00000000,
23.00000000,
-14.00000000,
-3.00000000,
66.00000000,
15.00000000,
39.00000000,
68.00000000,
-24.00000000,
-8.00000000,
-37.00000000,
-89.00000000,
-85.00000000,
-81.00000000,
-15.00000000,
-58.00000000,
-52.99999619,
-48.99999619,
-54.00000000,
-34.00000000,
-38.00000000,
-41.00000000,
13.00000000,
0.00000000,
-10.00000000,
23.00000000,
-34.00000000,
-31.00000000,
38.00000000,
-25.00000000,
-10.00000000,
-96.00000000,
-31.00000000,
28.00000000,
-13.00000000,
41.00000000,
-55.00000381,
-8.00000000,
-28.00000000,
4.00000000,
37.00000000,
-12.00000000,
20.00000000,
46.00000000,
25.00000000,
-62.00000000,
-33.00000000,
-34.00000000,
-43.00000381,
-11.00000000,
10.00000000,
47.00000381,
15.00000000,
46.00000000,
-9.00000000,
-70.00000000,
8.00000000,
-46.00000000,
-8.00000000,
52.00000000,
-40.00000000,
-29.00000000,
7.00000000,
-9.00000000,
8.00000000,
25.00000000,
34.00000000,
38.00000000,
-34.00000000,
-23.00000000,
19.00000000,
-35.00000000,
-21.00000000,
-38.00000000,
-15.00000000,
6.00000000,
26.00000000,
20.00000000,
-25.00000000,
29.00000000,
29.00000000,
30.00000000,
-48.99999619,
-99.00000000,
-31.00000000,
-34.00000000,
-38.00000000,
15.00000000,
48.00000000,
-16.00000000,
21.00000000,
-35.00000000,
1.00000000,
42.00000000,
-44.00000000,
32.00000000,
30.00000000,
-16.00000000,
1.00000000,
-7.00000000,
-27.00000000,
9.00000000,
28.00000000,
-13.00000000,
-35.00000000,
16.00000000,
25.00000000,
24.00000000,
41.00000000,
-4.00000000,
-8.00000000,
55.00000381,
-44.00000000,
-15.00000000,
52.00000000,
46.00000000,
0.00000000,
71.00000000,
35.00000000,
14.00000000,
37.00000000,
-25.00000000,
-35.00000000,
48.99999619,
63.00000381,
52.00000000,
-18.00000000,
6.00000000,
-1.00000000,
15.00000000,
-23.00000000,
-66.00000000,
44.99999619,
-29.00000000,
-56.99999619,
35.00000000,
24.00000000,
-38.00000000,
60.00000000,
-4.00000000,
-52.00000000,
35.00000000,
6.00000000,
-14.00000000,
27.00000000,
-52.00000000,
-5.00000000,
9.00000000,
-50.00000000,
41.00000000,
28.00000000,
14.00000000,
10.00000000,
47.00000381,
-4.00000000,
-37.00000000,
-10.00000000,
-6.00000000,
19.00000000,
33.00000000,
18.00000000,
-13.00000000,
36.00000000,
25.00000000,
-15.00000000,
2.00000000,
19.00000000,
5.00000000,
-5.00000000,
16.00000000,
-27.00000000,
-34.00000000,
-31.00000000,
-29.00000000,
-26.00000000,
-10.00000000,
-63.00000381,
7.00000000,
-52.99999619,
-16.00000000,
-89.99999237,
-34.00000000,
-29.00000000,
11.00000000,
29.00000000,
75.00000000,
-63.00000381,
-66.00000000,
-40.00000000,
-4.00000000,
12.00000000,
-50.00000000,
13.00000000,
3.00000000,
-12.00000000,
-11.00000000,
-52.99999619,
10.00000000,
42.00000000,
14.00000000,
-1.00000000,
-59.00000381,
12.00000000,
-56.99999619,
-28.00000000,
39.00000000,
-52.99999619,
39.00000000,
11.00000000,
34.00000000,
33.00000000,
7.00000000,
11.00000000,
14.00000000,
28.00000000,
-1.00000000,
11.00000000,
21.00000000,
54.00000000,
20.00000000,
33.00000000,
29.00000000,
7.00000000,
-32.00000000,
6.00000000,
44.00000000,
4.00000000,
37.00000000,
15.00000000,
-12.00000000,
-25.00000000,
30.00000000,
-1.00000000,
9.00000000,
31.00000000,
15.00000000,
9.00000000,
-3.00000000,
-11.00000000,
50.00000000,
-24.00000000,
-1.00000000,
-18.00000000,
-13.00000000,
-18.00000000,
-4.00000000,
-31.00000000,
-33.00000000,
-75.00000000,
23.00000000,
30.00000000,
-38.00000000,
-18.00000000,
-29.00000000,
-4.00000000,
-18.00000000,
21.00000000,
-22.00000000,
-27.00000000,
-43.00000381,
-14.00000000,
2.00000000,
9.00000000,
-50.00000000,
-17.00000000,
15.00000000,
13.00000000,
-37.00000000,
-14.00000000,
-34.00000000,
56.99999619,
-60.99999619,
11.00000000,
23.00000000,
-48.00000000,
-69.00000000,
15.00000000,
-30.00000000,
-38.00000000,
17.00000000,
-5.00000000,
-18.00000000,
-23.00000000,
-16.00000000,
50.00000000,
-81.00000000,
30.00000000,
43.00000381,
52.00000000,
12.00000000,
13.00000000,
26.00000000,
-20.00000000,
-30.00000000,
23.00000000,
-35.00000000,
23.00000000,
56.99999619,
48.00000000,
-11.00000000,
42.00000000,
48.99999619,
25.00000000,
2.00000000,
34.00000000,
14.00000000,
-44.00000000,
22.00000000,
-25.00000000,
-40.00000000,
-16.00000000,
-25.00000000,
-6.00000000,
-42.00000000,
-48.00000000,
42.00000000,
23.00000000,
-33.00000000,
36.00000000,
-32.00000000,
-39.00000000,
22.00000000,
-6.00000000,
39.00000000,
-38.00000000,
-2.00000000,
-28.00000000,
-1.00000000,
-19.00000000,
10.00000000,
-10.00000000,
-5.00000000,
14.00000000,
-48.00000000,
1.00000000,
-16.00000000,
-28.00000000,
-3.00000000,
-4.00000000,
-24.00000000,
2.00000000,
-34.00000000,
-3.00000000,
118.00000763,
28.00000000,
-9.00000000,
88.00000000,
-77.00000000,
-28.00000000,
39.00000000,
-38.00000000,
2.00000000,
-7.00000000,
21.00000000,
30.00000000,
-55.00000381,
42.00000000,
10.00000000,
-40.00000000,
8.00000000,
-6.00000000,
-9.00000000,
-14.00000000,
-7.00000000,
25.00000000,
26.00000000,
-17.00000000,
-5.00000000,
9.00000000,
-31.00000000,
-19.00000000,
-39.00000000,
18.00000000,
-23.00000000,
-21.00000000,
40.00000000,
22.00000000,
-3.00000000,
33.00000000,
-77.00000000,
-9.00000000,
21.00000000,
-14.00000000,
-43.00000381,
31.00000000,
-60.99999619,
6.00000000,
14.00000000,
55.00000381,
39.00000000,
33.00000000,
78.00000000,
27.00000000,
58.00000000,
21.00000000,
31.00000000,
-26.00000000,
-67.00000000,
-8.00000000,
-51.00000381,
-47.00000381,
-8.00000000,
-48.00000000,
-73.00000000,
-50.00000000,
15.00000000,
8.00000000,
-29.00000000,
4.00000000,
-52.00000000,
-56.00000000,
-11.00000000,
-35.00000000,
-10.00000000,
51.00000381,
46.00000000,
36.00000000,
-21.00000000,
-26.00000000,
21.00000000,
47.00000381,
28.00000000,
10.00000000,
-22.00000000,
-11.00000000,
-31.00000000,
-18.00000000,
-86.00000763,
0.00000000,
-20.00000000,
-6.00000000,
4.00000000,
-20.00000000,
35.00000000,
-4.00000000,
-14.00000000,
-54.00000000,
-32.00000000,
-25.00000000,
6.00000000,
-56.00000000,
-21.00000000,
-27.00000000,
-10.00000000,
-38.00000000,
-44.00000000,
-35.00000000,
-65.00000000,
-48.00000000,
7.00000000,
-1.00000000,
47.00000381,
25.00000000,
-30.00000000,
-54.00000000,
24.00000000,
44.00000000,
-39.00000000,
23.00000000,
38.00000000,
33.00000000,
-25.00000000,
-7.00000000,
-11.00000000,
-47.00000381,
0.00000000,
16.00000000,
-28.00000000,
54.00000000,
-4.00000000,
44.00000000,
15.00000000,
-46.00000000,
-30.00000000,
73.00000000,
9.00000000,
34.00000000,
15.00000000,
88.00000000,
40.00000000,
-10.00000000,
-28.00000000,
36.00000000,
56.99999619,
27.00000000,
10.00000000,
36.00000000,
-23.00000000,
21.00000000,
-16.00000000,
-4.00000000,
47.00000381,
-10.00000000,
63.00000381,
-35.00000000,
-17.00000000,
2.00000000,
-35.00000000,
-3.00000000,
-44.99999619,
3.00000000,
12.00000000,
33.00000000,
-39.00000000,
-40.00000000,
-59.00000381,
37.00000000,
-21.00000000,
-44.00000000,
-40.00000000,
-29.00000000,
46.00000000,
-40.00000000,
20.00000000,
8.00000000,
34.00000000,
-60.00000000,
16.00000000,
60.99999619,
6.00000000,
-20.00000000,
-6.00000000,
55.00000381,
-17.00000000,
63.00000381,
-5.00000000,
18.00000000,
19.00000000,
-4.00000000,
-16.00000000,
-23.00000000,
15.00000000,
-27.00000000,
-50.00000000,
8.00000000,
-7.00000000,
-96.00000000,
-19.00000000,
26.00000000,
-43.00000381,
12.00000000,
-52.00000000,
-12.00000000,
8.00000000,
-58.00000000,
-14.00000000,
0.00000000,
-6.00000000,
-29.00000000,
-22.00000000,
-19.00000000,
-14.00000000,
-44.99999619,
-7.00000000,
6.00000000,
-15.00000000,
-9.00000000,
-21.00000000,
18.00000000,
-18.00000000,
13.00000000,
14.00000000,
-22.00000000,
15.00000000,
-13.00000000,
-26.00000000,
22.00000000,
30.00000000,
-1.00000000,
3.00000000,
-18.00000000,
-44.00000000,
-15.00000000,
-24.00000000,
-48.00000000,
-15.00000000,
28.00000000,
-8.00000000,
-5.00000000,
31.00000000,
20.00000000,
13.00000000,
31.00000000,
-13.00000000,
-7.00000000,
2.00000000,
-19.00000000,
-28.00000000,
-2.00000000,
-14.00000000,
-8.00000000,
-42.00000000,
-25.00000000,
-44.00000000,
18.00000000,
3.00000000,
44.00000000,
26.00000000,
-40.00000000,
11.00000000,
-6.00000000,
-52.99999619,
-11.00000000,
73.00000000,
-10.00000000,
36.00000000,
28.00000000,
4.00000000,
-10.00000000,
19.00000000,
34.00000000,
-10.00000000,
0.00000000,
-2.00000000,
-20.00000000,
7.00000000,
81.00000000,
22.00000000,
-4.00000000,
51.00000381,
30.00000000,
-16.00000000,
15.00000000,
3.00000000,
-15.00000000,
4.00000000,
6.00000000,
-22.00000000,
2.00000000,
10.00000000,
-8.00000000,
65.00000000,
20.00000000,
0.00000000,
-6.00000000,
27.00000000,
11.00000000,
25.00000000,
-3.00000000,
-27.00000000,
-31.00000000,
-22.00000000,
-36.00000000,
8.00000000,
28.00000000,
36.00000000,
-4.00000000,
11.00000000,
27.00000000,
4.00000000,
2.00000000,
-7.00000000,
42.00000000,
-8.00000000,
-14.00000000,
-9.00000000,
11.00000000,
-22.00000000,
-5.00000000,
-13.00000000,
-13.00000000,
-40.00000000,
-15.00000000,
20.00000000,
11.00000000,
-4.00000000,
44.99999619,
-20.00000000,
9.00000000,
14.00000000,
34.00000000,
5.00000000,
16.00000000,
-3.00000000,
30.00000000,
43.00000381,
0.00000000,
-1.00000000,
37.00000000,
-36.00000000,
11.00000000,
16.00000000,
-5.00000000,
-31.00000000,
48.00000000,
-4.00000000,
19.00000000,
39.00000000,
7.00000000,
25.00000000,
-5.00000000,
-4.00000000,
-3.00000000,
51.00000381,
23.00000000,
39.00000000,
17.00000000,
20.00000000,
25.00000000,
-22.00000000,
-24.00000000,
21.00000000,
38.00000000,
48.00000000,
22.00000000,
11.00000000,
-1.00000000,
23.00000000,
-3.00000000,
14.00000000,
-35.00000000,
-8.00000000,
8.00000000,
-6.00000000,
-25.00000000,
10.00000000,
13.00000000,
-4.00000000,
7.00000000,
17.00000000,
7.00000000,
56.00000000,
-19.00000000,
-9.00000000,
-8.00000000,
13.00000000,
-34.00000000,
-35.00000000,
6.00000000,
-18.00000000,
2.00000000,
17.00000000,
-5.00000000,
-8.00000000,
18.00000000,
35.00000000,
6.00000000,
56.99999619,
31.00000000,
43.00000381,
56.99999619,
6.00000000,
-9.00000000,
12.00000000,
-18.00000000,
11.00000000,
17.00000000,
18.00000000,
19.00000000,
18.00000000,
-48.99999619,
-13.00000000,
18.00000000,
12.00000000,
-43.00000381,
4.00000000,
-8.00000000,
30.00000000,
1.00000000,
-35.00000000,
-23.00000000,
-10.00000000,
40.00000000,
16.00000000,
-28.00000000,
-7.00000000,
-29.00000000,
-10.00000000,
11.00000000,
-11.00000000,
-11.00000000,
-7.00000000,
-31.00000000,
-7.00000000,
0.00000000,
21.00000000,
-27.00000000,
-29.00000000,
9.00000000,
-16.00000000,
-12.00000000,
-12.00000000,
-44.99999619,
21.00000000,
43.00000381,
-2.00000000,
32.00000000,
-23.00000000,
3.00000000,
-39.00000000,
21.00000000,
-12.00000000,
7.00000000,
-5.00000000,
-43.00000381,
-46.00000000,
-4.00000000,
52.00000000,
27.00000000,
-30.00000000,
-2.00000000,
-11.00000000,
-28.00000000,
-44.00000000,
39.00000000,
4.00000000,
-11.00000000,
17.00000000,
22.00000000,
-30.00000000,
-1.00000000,
3.00000000,
-42.00000000,
11.00000000,
-60.00000000,
-7.00000000,
46.00000000,
11.00000000,
-48.99999619,
11.00000000,
9.00000000,
-35.00000000,
2.00000000,
-8.00000000,
-24.00000000,
-8.00000000,
18.00000000,
-40.00000000,
13.00000000,
-33.00000000,
21.00000000,
14.00000000,
-16.00000000,
-26.00000000,
-17.00000000,
-11.00000000,
12.00000000,
5.00000000,
23.00000000,
39.00000000,
41.00000000,
71.00000000,
56.00000000,
4.00000000,
-15.00000000,
35.00000000,
19.00000000,
-6.00000000,
17.00000000,
-11.00000000,
32.00000000,
32.00000000,
6.00000000,
29.00000000,
29.00000000,
-5.00000000,
4.00000000,
13.00000000,
15.00000000,
-6.00000000,
-1.00000000,
-29.00000000,
18.00000000,
-22.00000000,
21.00000000,
-18.00000000,
9.00000000,
-46.00000000,
-54.00000000,
-40.00000000,
28.00000000,
23.00000000,
11.00000000,
3.00000000,
-20.00000000,
3.00000000,
39.00000000,
58.00000000,
-14.00000000,
19.00000000,
14.00000000,
-8.00000000,
10.00000000,
-9.00000000,
9.00000000,
-11.00000000,
-66.00000000,
-51.00000381,
-19.00000000,
26.00000000,
-17.00000000,
-23.00000000,
-7.00000000,
-2.00000000,
-56.00000000,
15.00000000,
12.00000000,
-7.00000000,
-10.00000000,
9.00000000,
-27.00000000,
13.00000000,
9.00000000,
-1.00000000,
-19.00000000,
-48.99999619,
-41.00000000,
6.00000000,
-16.00000000,
-24.00000000,
-25.00000000,
16.00000000,
-17.00000000,
-58.00000000,
-51.00000381,
-22.00000000,
-11.00000000,
36.00000000,
-40.00000000,
-14.00000000,
-23.00000000,
-44.99999619,
-21.00000000,
-9.00000000,
11.00000000,
-34.00000000,
9.00000000,
-3.00000000,
24.00000000,
47.00000381,
48.00000000,
-9.00000000,
19.00000000,
-21.00000000,
-9.00000000,
24.00000000,
2.00000000,
19.00000000,
19.00000000,
-38.00000000,
29.00000000,
-12.00000000,
-4.00000000,
-11.00000000,
11.00000000,
-20.00000000,
-48.00000000,
11.00000000,
-15.00000000,
-64.00000000,
-38.00000000,
43.00000381,
7.00000000,
20.00000000,
15.00000000,
4.00000000,
13.00000000,
17.00000000,
-14.00000000,
56.00000000,
-6.00000000,
-15.00000000,
15.00000000,
-22.00000000,
4.00000000,
32.00000000,
48.99999619,
-39.00000000,
30.00000000,
-21.00000000,
-25.00000000,
35.00000000,
2.00000000,
-31.00000000,
7.00000000,
7.00000000,
-31.00000000,
-26.00000000,
10.00000000,
-4.00000000,
-30.00000000,
11.00000000,
-29.00000000,
6.00000000,
7.00000000,
-56.99999619,
18.00000000,
-63.00000381,
-42.00000000,
5.00000000,
-22.00000000,
40.00000000,
-47.00000381,
-20.00000000,
29.00000000,
-22.00000000,
41.00000000,
-6.00000000,
-16.00000000,
0.00000000,
-12.00000000,
-9.00000000,
-44.99999619,
-48.99999619,
15.00000000,
-34.00000000,
18.00000000,
10.00000000,
-24.00000000,
-89.99999237,
0.00000000,
-44.00000000,
-111.00000000,
20.00000000,
-11.00000000,
-95.00000000,
10.00000000,
43.00000381,
-30.00000000,
17.00000000,
38.00000000,
2.00000000,
-20.00000000,
6.00000000,
-3.00000000,
-15.00000000,
-12.00000000,
-30.00000000,
28.00000000,
4.00000000,
-60.99999619,
-37.00000000,
1.00000000,
-31.00000000,
19.00000000,
-32.00000000,
-33.00000000,
2.00000000,
-14.00000000,
5.00000000,
5.00000000,
-31.00000000,
-51.00000381,
15.00000000,
-32.00000000,
-37.00000000,
8.00000000,
-28.00000000,
-42.00000000,
-6.00000000,
15.00000000,
-78.00000000,
-16.00000000,
76.00000000,
73.00000000,
20.00000000,
43.00000381,
26.00000000,
-16.00000000,
-18.00000000,
-5.00000000,
18.00000000,
12.00000000,
44.99999619,
-2.00000000,
-14.00000000,
62.00000000,
14.00000000,
7.00000000,
5.00000000,
-4.00000000,
3.00000000,
-44.99999619,
-56.00000000,
-14.00000000,
-65.00000000,
-19.00000000,
25.00000000,
-43.00000381,
7.00000000,
30.00000000,
-52.00000000,
56.99999619,
24.00000000,
9.00000000,
-20.00000000,
-1.00000000,
35.00000000,
31.00000000,
-28.00000000,
-52.99999619,
-18.00000000,
-54.00000000,
-39.00000000,
0.00000000,
-6.00000000,
-10.00000000,
-13.00000000,
-10.00000000,
-8.00000000,
30.00000000,
-30.00000000,
-23.00000000,
-32.00000000,
10.00000000,
-44.00000000,
-34.00000000,
54.00000000,
-26.00000000,
-17.00000000,
31.00000000,
14.00000000,
-13.00000000,
65.00000000,
-30.00000000,
16.00000000,
-16.00000000,
-6.00000000,
12.00000000,
0.00000000,
-2.00000000,
-32.00000000,
39.00000000,
-5.00000000,
-6.00000000,
52.99999619,
29.00000000,
-3.00000000,
-12.00000000,
16.00000000,
13.00000000,
16.00000000,
20.00000000,
-17.00000000,
17.00000000,
33.00000000,
24.00000000,
3.00000000,
-15.00000000,
-1.00000000,
54.00000000,
39.00000000,
22.00000000,
1.00000000,
-52.00000000,
3.00000000,
13.00000000,
-25.00000000,
-3.00000000,
-58.00000000,
-26.00000000,
33.00000000,
-7.00000000,
26.00000000,
8.00000000,
35.00000000,
-10.00000000,
-11.00000000,
6.00000000,
5.00000000,
-18.00000000,
8.00000000,
-18.00000000,
-48.00000000,
22.00000000,
32.00000000,
-17.00000000,
8.00000000,
-33.00000000,
-25.00000000,
-34.00000000,
44.99999619,
-28.00000000,
27.00000000,
56.00000000,
3.00000000,
-39.00000000,
32.00000000,
-46.00000000,
0.00000000,
-29.00000000,
-8.00000000,
16.00000000,
37.00000000,
-6.00000000,
28.00000000,
28.00000000,
-6.00000000,
23.00000000,
27.00000000,
36.00000000,
-7.00000000,
36.00000000,
1.00000000,
10.00000000,
-16.00000000,
26.00000000,
-19.00000000,
-18.00000000,
-2.00000000,
42.00000000,
36.00000000,
-39.00000000,
35.00000000,
66.00000000,
-6.00000000,
-4.00000000,
-1.00000000,
25.00000000,
-65.00000000,
-33.00000000,
-23.00000000,
-2.00000000,
-1.00000000,
12.00000000,
-60.99999619,
30.00000000,
-8.00000000,
10.00000000,
14.00000000,
-13.00000000,
0.00000000,
13.00000000,
52.99999619,
15.00000000,
-55.00000381,
-3.00000000,
16.00000000,
34.00000000,
-21.00000000,
-4.00000000,
-8.00000000,
-29.00000000,
6.00000000,
16.00000000,
35.00000000,
17.00000000,
2.00000000,
17.00000000,
-26.00000000,
66.00000000,
23.00000000,
13.00000000,
-21.00000000,
-40.00000000,
26.00000000,
-47.00000381,
40.00000000,
42.00000000,
-35.00000000,
-16.00000000,
-88.00000000,
-39.00000000,
7.00000000,
-36.00000000,
59.00000381,
-46.00000000,
72.00000000,
-4.00000000,
-5.00000000,
47.00000381,
37.00000000,
5.00000000,
12.00000000,
-40.00000000,
0.00000000,
14.00000000,
-22.00000000,
11.00000000,
-16.00000000,
-43.00000381,
28.00000000,
31.00000000,
-9.00000000,
16.00000000,
9.00000000,
-6.00000000,
-38.00000000,
-6.00000000,
-52.00000000,
-17.00000000,
-3.00000000,
58.00000000,
47.00000381,
-23.00000000,
75.00000000,
22.00000000,
65.00000000,
10.00000000,
-37.00000000,
-21.00000000,
33.00000000,
52.00000000,
51.00000381,
42.00000000,
42.00000000,
0.00000000,
3.00000000,
-6.00000000,
-15.00000000,
59.00000381,
21.00000000,
-32.00000000,
-52.99999619,
13.00000000,
9.00000000,
-8.00000000,
7.00000000,
-65.00000000,
13.00000000,
13.00000000,
-10.00000000,
31.00000000,
9.00000000,
38.00000000,
-52.00000000,
-44.99999619,
32.00000000,
17.00000000,
-67.00000000,
32.00000000,
-21.00000000,
-70.00000000,
24.00000000,
11.00000000,
-13.00000000,
-40.00000000,
-41.00000000,
-10.00000000,
0.00000000,
13.00000000,
26.00000000,
-23.00000000,
-4.00000000,
-27.00000000,
35.00000000,
33.00000000,
-41.00000000,
-41.00000000,
46.00000000,
-56.00000000,
25.00000000,
-19.00000000,
-31.00000000,
56.00000000,
84.00000000,
27.00000000,
18.00000000,
-26.00000000,
-20.00000000,
3.00000000,
52.99999619,
-48.99999619,
-3.00000000,
56.00000000,
110.00000763,
-8.00000000,
46.00000000,
-16.00000000,
40.00000000,
60.99999619,
22.00000000,
7.00000000,
14.00000000,
56.00000000,
3.00000000,
59.00000381,
56.99999619,
-1.00000000,
-44.99999619,
-22.00000000,
17.00000000,
-1.00000000,
-48.00000000,
59.00000381,
21.00000000,
6.00000000,
34.00000000,
-25.00000000,
-70.00000000,
50.00000000,
29.00000000,
-41.00000000,
-28.00000000,
-5.00000000,
-24.00000000,
24.00000000,
-31.00000000,
-74.00000000,
11.00000000,
-14.00000000,
-30.00000000,
73.00000000,
22.00000000,
-29.00000000,
32.00000000,
-60.99999619,
-31.00000000,
30.00000000,
-5.00000000,
50.00000000,
48.99999619,
31.00000000,
-17.00000000,
