# stage1.main_conv1.conv.weight (shape [24, 16, 3, 3], dtype float32),
5.00000000,
47.00000000,
-74.00000000,
-75.00000763,
70.00000000,
-18.99999809,
97.00000000,
-122.00000763,
87.00000763,
-27.00000000,
-3.00000000,
-21.00000000,
-64.00000000,
51.00000000,
-9.00000000,
57.00000000,
-75.99999237,
18.99999809,
-16.00000000,
98.00000000,
-86.00000000,
-57.00000000,
98.00000000,
-89.00000000,
115.00000000,
-132.00000000,
54.00000000,
-43.00000000,
-18.00000000,
-2.00000000,
32.00000000,
-5.00000000,
-39.00000000,
37.99999619,
10.00000000,
43.99999619,
-41.00000000,
3.00000000,
5.00000000,
21.00000000,
15.00000000,
-3.00000000,
10.99999905,
20.00000000,
-45.00000000,
17.00000000,
-1.00000000,
-53.00000000,
-37.00000000,
54.00000000,
9.00000000,
-61.00000381,
-18.99999809,
48.00000000,
-5.00000000,
21.00000000,
26.00000000,
20.00000000,
-41.00000000,
-37.99999619,
-21.00000000,
-15.00000000,
15.00000000,
5.00000000,
-85.00000000,
27.00000000,
80.00000000,
18.00000000,
-52.00000000,
-113.00000000,
112.00000000,
-33.00000000,
25.00000000,
-3.00000000,
-21.99999809,
-17.00000000,
59.00000000,
-30.00000000,
-25.00000000,
10.00000000,
-4.00000000,
70.00000000,
-50.00000000,
-5.00000000,
-29.00000000,
41.00000000,
-18.00000000,
-26.00000000,
91.00000000,
16.00000000,
-1.00000000,
-3.00000000,
-26.00000000,
0.00000000,
8.00000000,
-4.00000000,
-37.99999619,
-48.00000000,
18.99999809,
-28.00000000,
12.00000000,
-4.00000000,
67.00000000,
-21.99999809,
9.00000000,
-18.99999809,
21.00000000,
-12.00000000,
-28.00000000,
-43.99999619,
46.00000000,
-43.00000000,
53.00000000,
6.00000000,
-10.00000000,
-4.00000000,
-35.00000000,
26.00000000,
-47.00000000,
-6.00000000,
41.00000000,
-75.99999237,
-3.00000000,
-75.99999237,
94.00000000,
28.00000000,
-2.00000000,
-42.00000000,
17.00000000,
-31.00000000,
-43.00000000,
56.00000000,
41.00000000,
-3.00000000,
18.00000000,
33.00000000,
-27.00000000,
2.00000000,
9.00000000,
-12.00000000,
-55.00000381,
3.00000000,
9.00000000,
-7.00000000,
30.00000000,
-4.00000000,
-1.00000000,
37.00000000,
-21.00000000,
-1.00000000,
-14.00000000,
39.00000000,
-13.00000000,
-25.00000000,
24.00000000,
32.00000000,
7.00000000,
31.00000000,
31.00000000,
12.00000000,
-28.00000000,
-27.00000000,
5.00000000,
10.99999905,
34.00000000,
2.00000000,
9.00000000,
18.00000000,
-8.00000000,
23.00000000,
26.00000000,
13.00000000,
-1.00000000,
3.00000000,
-21.99999809,
27.00000000,
-2.00000000,
14.00000000,
-6.00000000,
-2.00000000,
-3.00000000,
16.00000000,
23.00000000,
-5.00000000,
-13.00000000,
43.00000000,
24.00000000,
7.00000000,
-18.00000000,
-25.00000000,
-6.00000000,
-5.00000000,
4.00000000,
-18.00000000,
6.00000000,
5.00000000,
-29.00000000,
-5.00000000,
-2.00000000,
-10.99999905,
-2.00000000,
0.00000000,
23.00000000,
-2.00000000,
-13.00000000,
3.00000000,
-8.00000000,
-23.00000000,
-8.00000000,
9.00000000,
34.00000000,
1.00000000,
16.00000000,
30.00000000,
23.00000000,
-1.00000000,
10.00000000,
-4.00000000,
-28.00000000,
9.00000000,
3.00000000,
-10.99999905,
-34.00000000,
-31.00000000,
-4.00000000,
10.99999905,
7.00000000,
-6.00000000,
-10.99999905,
-21.00000000,
-20.00000000,
-10.00000000,
-7.00000000,
-33.00000000,
-14.00000000,
13.00000000,
27.00000000,
16.00000000,
18.99999809,
35.00000000,
20.00000000,
14.00000000,
18.00000000,
-23.00000000,
37.00000000,
2.00000000,
-6.00000000,
35.00000000,
-8.00000000,
-4.00000000,
-5.00000000,
21.00000000,
10.99999905,
18.99999809,
-23.00000000,
1.00000000,
8.00000000,
-13.00000000,
0.00000000,
2.00000000,
13.00000000,
-29.00000000,
-23.00000000,
-27.00000000,
-10.00000000,
6.00000000,
18.99999809,
1.00000000,
9.00000000,
-10.99999905,
-30.00000000,
16.00000000,
2.00000000,
21.99999809,
-13.00000000,
27.00000000,
8.00000000,
-13.00000000,
21.00000000,
5.00000000,
-7.00000000,
-21.99999809,
-28.00000000,
-12.00000000,
15.00000000,
-13.00000000,
-21.00000000,
1.00000000,
-28.00000000,
-5.00000000,
-52.00000000,
-49.00000000,
4.00000000,
-39.00000000,
-18.00000000,
7.00000000,
-2.00000000,
-39.00000000,
-4.00000000,
-48.00000000,
10.99999905,
-3.00000000,
-32.00000000,
-29.00000000,
-15.00000000,
-26.00000000,
-24.00000000,
-12.00000000,
33.00000000,
-6.00000000,
-17.00000000,
-15.00000000,
-9.00000000,
12.00000000,
-7.00000000,
21.00000000,
-27.00000000,
-43.99999619,
-3.00000000,
-4.00000000,
5.00000000,
3.00000000,
25.00000000,
0.00000000,
-6.00000000,
14.00000000,
-4.00000000,
31.00000000,
0.00000000,
0.00000000,
2.00000000,
-13.00000000,
-36.00000000,
-50.00000000,
3.00000000,
40.00000000,
-43.99999619,
25.00000000,
59.00000000,
-24.00000000,
25.00000000,
21.99999809,
50.00000000,
15.00000000,
-39.00000000,
9.00000000,
16.00000000,
-41.00000000,
36.00000000,
-10.99999905,
-8.00000000,
-32.00000000,
23.00000000,
32.00000000,
-4.00000000,
66.00000000,
67.00000000,
7.00000000,
-13.00000000,
13.00000000,
-54.00000000,
-15.00000000,
16.00000000,
-43.00000000,
42.00000000,
54.00000000,
-58.00000000,
-5.00000000,
25.00000000,
-27.00000000,
10.00000000,
24.00000000,
-57.00000000,
-7.00000000,
33.00000000,
-23.00000000,
37.99999619,
10.00000000,
13.00000000,
13.00000000,
-35.00000000,
-7.00000000,
23.00000000,
-24.00000000,
-6.00000000,
-33.00000000,
-43.00000000,
54.00000000,
25.00000000,
9.00000000,
55.00000381,
3.00000000,
4.00000000,
-3.00000000,
-12.00000000,
-43.99999619,
-34.00000000,
-16.00000000,
1.00000000,
-31.00000000,
9.00000000,
34.00000000,
-53.00000000,
-24.00000000,
28.00000000,
-31.00000000,
51.00000000,
-9.00000000,
-32.00000000,
15.00000000,
-1.00000000,
-20.00000000,
-17.00000000,
12.00000000,
33.00000000,
37.99999619,
-37.99999619,
7.00000000,
-16.00000000,
-21.00000000,
28.00000000,
-17.00000000,
4.00000000,
-30.00000000,
-18.99999809,
36.00000000,
-40.00000000,
10.99999905,
15.00000000,
-26.00000000,
-2.00000000,
21.99999809,
-78.00000000,
-6.00000000,
37.00000000,
-1.00000000,
2.00000000,
67.00000000,
33.00000000,
-15.00000000,
27.00000000,
18.00000000,
3.00000000,
-45.00000000,
5.00000000,
-31.00000000,
-33.00000000,
-57.00000000,
-7.00000000,
2.00000000,
69.00000000,
37.00000000,
-10.99999905,
-5.00000000,
-57.00000000,
-65.00000000,
-46.00000000,
-31.00000000,
-20.00000000,
-5.00000000,
10.00000000,
-30.00000000,
21.99999809,
26.00000000,
18.99999809,
-18.99999809,
35.00000000,
24.00000000,
10.99999905,
-6.00000000,
-36.00000000,
-35.00000000,
30.00000000,
30.00000000,
5.00000000,
40.00000000,
15.00000000,
16.00000000,
20.00000000,
-20.00000000,
43.00000000,
24.00000000,
-51.00000000,
-27.00000000,
-55.00000381,
-80.00000000,
0.00000000,
16.00000000,
-37.00000000,
-32.00000000,
-3.00000000,
32.00000000,
-18.00000000,
10.00000000,
6.00000000,
-8.00000000,
15.00000000,
-66.00000000,
17.00000000,
-21.99999809,
-84.00000000,
-18.99999809,
-18.99999809,
16.00000000,
8.00000000,
1.00000000,
18.00000000,
30.00000000,
-5.00000000,
-42.00000000,
13.00000000,
-3.00000000,
2.00000000,
14.00000000,
58.00000000,
47.00000000,
48.00000000,
29.00000000,
-9.00000000,
20.00000000,
9.00000000,
-59.00000000,
-27.00000000,
-28.00000000,
-58.00000000,
-18.00000000,
-4.00000000,
-27.00000000,
-16.00000000,
8.00000000,
17.00000000,
-26.00000000,
18.00000000,
-16.00000000,
-35.00000000,
-8.00000000,
43.99999619,
12.00000000,
-4.00000000,
35.00000000,
-10.00000000,
18.00000000,
32.00000000,
29.00000000,
-10.99999905,
26.00000000,
25.00000000,
17.00000000,
-45.00000000,
26.00000000,
29.00000000,
-21.99999809,
0.00000000,
2.00000000,
-4.00000000,
-8.00000000,
0.00000000,
24.00000000,
-54.00000000,
-50.00000000,
16.00000000,
14.00000000,
34.00000000,
3.00000000,
1.00000000,
6.00000000,
-14.00000000,
42.00000000,
33.00000000,
1.00000000,
-8.00000000,
0.00000000,
-28.00000000,
20.00000000,
-48.00000000,
-89.00000000,
24.00000000,
-60.00000000,
-16.00000000,
7.00000000,
-62.00000000,
-29.00000000,
-20.00000000,
-75.00000763,
-13.00000000,
39.00000000,
0.00000000,
21.00000000,
34.00000000,
62.00000000,
26.00000000,
6.00000000,
-16.00000000,
8.00000000,
14.00000000,
33.00000000,
-21.00000000,
59.00000000,
21.00000000,
16.00000000,
-27.00000000,
-15.00000000,
34.00000000,
17.00000000,
-14.00000000,
2.00000000,
18.99999809,
-10.99999905,
3.00000000,
-18.00000000,
-23.00000000,
25.00000000,
-30.00000000,
-29.00000000,
8.00000000,
9.00000000,
18.00000000,
-20.00000000,
15.00000000,
21.00000000,
10.00000000,
23.00000000,
3.00000000,
36.00000000,
2.00000000,
-9.00000000,
-10.00000000,
-35.00000000,
7.00000000,
26.00000000,
-25.00000000,
5.00000000,
-24.00000000,
17.00000000,
17.00000000,
-1.00000000,
-1.00000000,
6.00000000,
28.00000000,
-48.00000000,
25.00000000,
-20.00000000,
-27.00000000,
56.00000000,
0.00000000,
-31.00000000,
18.00000000,
16.00000000,
16.00000000,
0.00000000,
-9.00000000,
-16.00000000,
-28.00000000,
-16.00000000,
18.00000000,
5.00000000,
37.00000000,
48.00000000,
13.00000000,
5.00000000,
-10.00000000,
-12.00000000,
10.99999905,
-28.00000000,
5.00000000,
-12.00000000,
35.00000000,
-12.00000000,
-7.00000000,
-2.00000000,
-47.00000000,
9.00000000,
-3.00000000,
23.00000000,
37.99999619,
-28.00000000,
-48.00000000,
-21.99999809,
-27.00000000,
6.00000000,
1.00000000,
-14.00000000,
7.00000000,
-12.00000000,
37.00000000,
-16.00000000,
23.00000000,
4.00000000,
-43.99999619,
1.00000000,
12.00000000,
-15.00000000,
32.00000000,
18.00000000,
41.00000000,
18.99999809,
24.00000000,
-3.00000000,
34.00000000,
26.00000000,
-18.00000000,
17.00000000,
-26.00000000,
-17.00000000,
-20.00000000,
7.00000000,
-10.99999905,
12.00000000,
8.00000000,
-18.00000000,
1.00000000,
37.00000000,
12.00000000,
-7.00000000,
-5.00000000,
-18.99999809,
2.00000000,
-50.00000000,
23.00000000,
-1.00000000,
13.00000000,
31.00000000,
14.00000000,
14.00000000,
9.00000000,
-12.00000000,
37.00000000,
41.00000000,
-18.99999809,
-9.00000000,
10.99999905,
-15.00000000,
-18.00000000,
14.00000000,
-23.00000000,
-8.00000000,
-1.00000000,
-3.00000000,
-13.00000000,
-28.00000000,
-49.00000000,
25.00000000,
-1.00000000,
-32.00000000,
30.00000000,
37.99999619,
30.00000000,
-5.00000000,
10.00000000,
-33.00000000,
-8.00000000,
-4.00000000,
-5.00000000,
23.00000000,
-9.00000000,
15.00000000,
-21.99999809,
5.00000000,
-18.00000000,
9.00000000,
-21.00000000,
27.00000000,
-15.00000000,
-10.00000000,
-13.00000000,
-37.99999619,
-42.00000000,
10.00000000,
10.99999905,
-37.00000000,
-47.00000000,
-7.00000000,
5.00000000,
-20.00000000,
-1.00000000,
21.00000000,
-24.00000000,
6.00000000,
39.00000000,
-17.00000000,
-34.00000000,
0.00000000,
-27.00000000,
10.00000000,
-2.00000000,
5.00000000,
25.00000000,
39.00000000,
16.00000000,
23.00000000,
8.00000000,
0.00000000,
-14.00000000,
10.99999905,
-23.00000000,
-16.00000000,
8.00000000,
-28.00000000,
-13.00000000,
-33.00000000,
-10.00000000,
8.00000000,
-1.00000000,
-2.00000000,
-7.00000000,
15.00000000,
-46.00000000,
-9.00000000,
3.00000000,
-14.00000000,
-1.00000000,
-39.00000000,
-12.00000000,
7.00000000,
27.00000000,
15.00000000,
-3.00000000,
-10.00000000,
-25.00000000,
27.00000000,
32.00000000,
-21.99999809,
9.00000000,
3.00000000,
3.00000000,
14.00000000,
10.00000000,
2.00000000,
-34.00000000,
2.00000000,
-21.99999809,
9.00000000,
-5.00000000,
-1.00000000,
-37.99999619,
-40.00000000,
-46.00000000,
-18.00000000,
-23.00000000,
-21.99999809,
-29.00000000,
-43.00000000,
-36.00000000,
-18.00000000,
-39.00000000,
-25.00000000,
23.00000000,
26.00000000,
-15.00000000,
21.99999809,
12.00000000,
18.99999809,
-12.00000000,
37.99999619,
28.00000000,
5.00000000,
7.00000000,
-43.99999619,
18.99999809,
-24.00000000,
-42.00000000,
18.99999809,
20.00000000,
-7.00000000,
57.00000000,
62.00000000,
26.00000000,
-12.00000000,
-5.00000000,
25.00000000,
-37.00000000,
4.00000000,
12.00000000,
-14.00000000,
-43.00000000,
-31.00000000,
-17.00000000,
-20.00000000,
-58.00000000,
-16.00000000,
15.00000000,
-15.00000000,
50.00000000,
-46.00000000,
-65.00000000,
-6.00000000,
-2.00000000,
-87.99999237,
21.00000000,
-33.00000000,
-7.00000000,
10.99999905,
1.00000000,
40.00000000,
21.00000000,
-12.00000000,
10.00000000,
-18.99999809,
-52.00000000,
27.00000000,
14.00000000,
26.00000000,
31.00000000,
33.00000000,
39.00000000,
-14.00000000,
-28.00000000,
-4.00000000,
-27.00000000,
-55.00000381,
-61.00000381,
-48.00000000,
10.99999905,
-20.00000000,
-31.00000000,
1.00000000,
106.00000000,
31.00000000,
-21.00000000,
0.00000000,
10.00000000,
-21.99999809,
33.00000000,
-29.00000000,
-7.00000000,
32.00000000,
-15.00000000,
-17.00000000,
107.00000000,
69.00000000,
9.00000000,
87.99999237,
-65.00000000,
67.00000000,
54.00000000,
-64.00000000,
13.00000000,
20.00000000,
-2.00000000,
51.00000000,
47.00000000,
24.00000000,
30.00000000,
17.00000000,
29.00000000,
-61.00000381,
-61.00000381,
-25.00000000,
18.99999809,
-10.00000000,
41.00000000,
48.00000000,
80.00000000,
-21.99999809,
25.00000000,
5.00000000,
-21.99999809,
0.00000000,
-66.00000000,
-27.00000000,
-42.00000000,
-31.00000000,
-10.00000000,
9.00000000,
39.00000000,
-35.00000000,
-1.00000000,
-17.00000000,
-21.00000000,
-43.99999619,
-18.99999809,
-43.00000000,
-26.00000000,
-12.00000000,
-66.00000000,
-8.00000000,
42.00000000,
-42.00000000,
1.00000000,
10.00000000,
-16.00000000,
-15.00000000,
12.00000000,
-64.00000000,
7.00000000,
10.00000000,
-32.00000000,
35.00000000,
8.00000000,
0.00000000,
2.00000000,
37.00000000,
-35.00000000,
-9.00000000,
36.00000000,
-5.00000000,
25.00000000,
10.00000000,
-41.00000000,
-64.00000000,
18.00000000,
-39.00000000,
45.00000000,
-3.00000000,
1.00000000,
25.00000000,
21.00000000,
-27.00000000,
-20.00000000,
-2.00000000,
39.00000000,
31.00000000,
-79.00000000,
46.00000000,
69.00000000,
-8.00000000,
-5.00000000,
-14.00000000,
17.00000000,
2.00000000,
37.99999619,
-34.00000000,
21.00000000,
52.00000000,
-13.00000000,
1.00000000,
-14.00000000,
-16.00000000,
43.99999619,
34.00000000,
-54.00000000,
84.00000000,
13.00000000,
-51.00000000,
10.00000000,
16.00000000,
-16.00000000,
-24.00000000,
43.00000000,
16.00000000,
16.00000000,
24.00000000,
-24.00000000,
33.00000000,
-16.00000000,
-18.00000000,
-36.00000000,
-9.00000000,
-5.00000000,
23.00000000,
26.00000000,
4.00000000,
30.00000000,
-10.00000000,
74.00000000,
14.00000000,
-81.00000000,
-5.00000000,
21.00000000,
-70.00000000,
-21.99999809,
42.00000000,
48.00000000,
-36.00000000,
-43.00000000,
5.00000000,
-31.00000000,
21.00000000,
28.00000000,
-9.00000000,
-24.00000000,
12.00000000,
0.00000000,
-66.00000000,
-45.00000000,
69.00000000,
-96.00000000,
-53.00000000,
32.00000000,
7.00000000,
-21.00000000,
53.00000000,
33.00000000,
1.00000000,
43.00000000,
34.00000000,
-43.99999619,
2.00000000,
6.00000000,
9.00000000,
54.00000000,
-2.00000000,
-50.00000000,
25.00000000,
-6.00000000,
-39.00000000,
-27.00000000,
47.00000000,
9.00000000,
-26.00000000,
33.00000000,
-3.00000000,
10.99999905,
-20.00000000,
32.00000000,
0.00000000,
-36.00000000,
-3.00000000,
4.00000000,
-41.00000000,
14.00000000,
-24.00000000,
-66.00000000,
-2.00000000,
-29.00000000,
-34.00000000,
-56.00000000,
48.00000000,
-34.00000000,
-36.00000000,
31.00000000,
50.00000000,
-37.00000000,
-26.00000000,
25.00000000,
-9.00000000,
7.00000000,
-41.00000000,
-20.00000000,
74.00000000,
-5.00000000,
-21.00000000,
48.00000000,
-10.99999905,
2.00000000,
2.00000000,
20.00000000,
-8.00000000,
17.00000000,
9.00000000,
41.00000000,
-12.00000000,
-27.00000000,
-35.00000000,
54.00000000,
-18.00000000,
-93.00000000,
43.00000000,
12.00000000,
-71.00000000,
23.00000000,
39.00000000,
-37.99999619,
-29.00000000,
18.00000000,
-83.00000000,
-80.00000000,
-51.00000000,
-4.00000000,
-58.00000000,
-49.00000000,
10.00000000,
13.00000000,
29.00000000,
31.00000000,
-18.99999809,
32.00000000,
41.00000000,
13.00000000,
-10.00000000,
27.00000000,
21.00000000,
4.00000000,
39.00000000,
4.00000000,
28.00000000,
47.00000000,
-13.00000000,
4.00000000,
-5.00000000,
-3.00000000,
-6.00000000,
-45.00000000,
-25.00000000,
27.00000000,
13.00000000,
-10.00000000,
14.00000000,
0.00000000,
33.00000000,
12.00000000,
6.00000000,
5.00000000,
-10.99999905,
4.00000000,
-12.00000000,
43.00000000,
41.00000000,
21.99999809,
6.00000000,
31.00000000,
15.00000000,
-27.00000000,
-36.00000000,
-21.99999809,
-50.00000000,
16.00000000,
-10.99999905,
-13.00000000,
6.00000000,
-29.00000000,
-15.00000000,
-26.00000000,
25.00000000,
1.00000000,
-41.00000000,
-41.00000000,
-59.00000000,
-98.00000000,
-72.00000000,
-93.00000000,
-37.00000000,
-27.00000000,
-67.00000000,
42.00000000,
-10.00000000,
10.00000000,
24.00000000,
21.99999809,
4.00000000,
-13.00000000,
-35.00000000,
-50.00000000,
-10.99999905,
1.00000000,
-29.00000000,
-15.00000000,
36.00000000,
18.99999809,
6.00000000,
0.00000000,
-34.00000000,
-9.00000000,
1.00000000,
10.00000000,
-23.00000000,
4.00000000,
24.00000000,
-31.00000000,
-15.00000000,
-23.00000000,
-18.99999809,
-15.00000000,
10.00000000,
-3.00000000,
-13.00000000,
-35.00000000,
-15.00000000,
9.00000000,
2.00000000,
32.00000000,
2.00000000,
37.99999619,
40.00000000,
23.00000000,
-24.00000000,
25.00000000,
-21.99999809,
-10.99999905,
8.00000000,
5.00000000,
12.00000000,
13.00000000,
21.00000000,
-33.00000000,
2.00000000,
-14.00000000,
-1.00000000,
-42.00000000,
-32.00000000,
21.99999809,
-13.00000000,
10.00000000,
-3.00000000,
-18.00000000,
33.00000000,
5.00000000,
36.00000000,
21.00000000,
6.00000000,
18.00000000,
-10.99999905,
-1.00000000,
1.00000000,
1.00000000,
-37.00000000,
-54.00000000,
-5.00000000,
-25.00000000,
-49.00000000,
5.00000000,
-14.00000000,
-23.00000000,
-64.00000000,
-85.00000000,
-36.00000000,
15.00000000,
37.00000000,
-30.00000000,
2.00000000,
31.00000000,
-18.00000000,
26.00000000,
-15.00000000,
-41.00000000,
36.00000000,
-23.00000000,
15.00000000,
29.00000000,
21.99999809,
-65.00000000,
-42.00000000,
-98.99999237,
-29.00000000,
-25.00000000,
-21.00000000,
3.00000000,
14.00000000,
-18.99999809,
26.00000000,
-15.00000000,
-30.00000000,
8.00000000,
12.00000000,
-18.00000000,
-41.00000000,
-9.00000000,
16.00000000,
-2.00000000,
34.00000000,
-31.00000000,
2.00000000,
-28.00000000,
1.00000000,
-23.00000000,
-28.00000000,
-2.00000000,
-4.00000000,
-15.00000000,
43.00000000,
17.00000000,
-51.00000000,
-14.00000000,
-16.00000000,
8.00000000,
1.00000000,
36.00000000,
20.00000000,
-23.00000000,
-36.00000000,
-109.00000000,
36.00000000,
-49.00000000,
-46.00000000,
45.00000000,
-5.00000000,
-3.00000000,
33.00000000,
-20.00000000,
8.00000000,
4.00000000,
8.00000000,
-18.00000000,
25.00000000,
13.00000000,
-25.00000000,
23.00000000,
10.00000000,
-18.99999809,
10.99999905,
33.00000000,
6.00000000,
4.00000000,
-18.99999809,
9.00000000,
49.00000000,
-25.00000000,
55.00000381,
-2.00000000,
-9.00000000,
-8.00000000,
-5.00000000,
23.00000000,
32.00000000,
-69.00000000,
20.00000000,
3.00000000,
18.00000000,
17.00000000,
10.00000000,
7.00000000,
45.00000000,
3.00000000,
-21.99999809,
15.00000000,
49.00000000,
3.00000000,
-40.00000000,
2.00000000,
-1.00000000,
-20.00000000,
-4.00000000,
10.00000000,
27.00000000,
-27.00000000,
-6.00000000,
39.00000000,
18.99999809,
8.00000000,
2.00000000,
5.00000000,
-23.00000000,
-10.99999905,
-15.00000000,
15.00000000,
-26.00000000,
25.00000000,
7.00000000,
-16.00000000,
40.00000000,
26.00000000,
-30.00000000,
-47.00000000,
23.00000000,
-5.00000000,
-42.00000000,
18.99999809,
-37.99999619,
-21.00000000,
32.00000000,
-17.00000000,
10.00000000,
-93.00000000,
-21.00000000,
53.00000000,
-87.00000763,
-25.00000000,
80.00000000,
-60.00000000,
45.00000000,
10.99999905,
24.00000000,
0.00000000,
-16.00000000,
15.00000000,
-12.00000000,
-27.00000000,
-14.00000000,
32.00000000,
60.00000000,
43.00000000,
-43.99999619,
-41.00000000,
-26.00000000,
8.00000000,
7.00000000,
-4.00000000,
-12.00000000,
-4.00000000,
6.00000000,
10.99999905,
37.00000000,
-14.00000000,
-8.00000000,
31.00000000,
21.99999809,
-31.00000000,
-3.00000000,
10.00000000,
-1.00000000,
-2.00000000,
-9.00000000,
24.00000000,
15.00000000,
8.00000000,
37.99999619,
-15.00000000,
-4.00000000,
28.00000000,
4.00000000,
-18.00000000,
20.00000000,
-13.00000000,
-21.99999809,
10.00000000,
7.00000000,
9.00000000,
-2.00000000,
-1.00000000,
-15.00000000,
-21.00000000,
-30.00000000,
-10.00000000,
-13.00000000,
-24.00000000,
13.00000000,
-10.99999905,
-18.99999809,
15.00000000,
24.00000000,
-23.00000000,
-8.00000000,
13.00000000,
0.00000000,
8.00000000,
-1.00000000,
-15.00000000,
-4.00000000,
12.00000000,
-25.00000000,
12.00000000,
9.00000000,
2.00000000,
-34.00000000,
-20.00000000,
-2.00000000,
25.00000000,
-12.00000000,
-4.00000000,
-30.00000000,
-9.00000000,
-27.00000000,
-28.00000000,
9.00000000,
15.00000000,
-23.00000000,
15.00000000,
37.99999619,
-21.99999809,
-4.00000000,
21.00000000,
16.00000000,
-2.00000000,
-24.00000000,
-5.00000000,
-18.99999809,
-8.00000000,
-6.00000000,
25.00000000,
-1.00000000,
10.99999905,
29.00000000,
-1.00000000,
10.99999905,
-8.00000000,
14.00000000,
-8.00000000,
-16.00000000,
-10.00000000,
-43.99999619,
12.00000000,
27.00000000,
-14.00000000,
21.00000000,
1.00000000,
-18.99999809,
-13.00000000,
-13.00000000,
-5.00000000,
-2.00000000,
1.00000000,
-4.00000000,
5.00000000,
18.00000000,
-18.99999809,
31.00000000,
17.00000000,
-5.00000000,
9.00000000,
-40.00000000,
15.00000000,
18.00000000,
-20.00000000,
2.00000000,
47.00000000,
20.00000000,
-93.00000000,
-31.00000000,
98.00000000,
74.00000000,
-33.00000000,
-48.00000000,
33.00000000,
15.00000000,
14.00000000,
-12.00000000,
-10.00000000,
28.00000000,
18.00000000,
-25.00000000,
-86.00000000,
-21.99999809,
45.00000000,
-16.00000000,
-73.00000000,
-18.99999809,
58.00000000,
33.00000000,
3.00000000,
-18.99999809,
56.00000000,
15.00000000,
20.00000000,
-2.00000000,
-18.99999809,
20.00000000,
2.00000000,
5.00000000,
-42.00000000,
-30.00000000,
36.00000000,
-34.00000000,
-47.00000000,
4.00000000,
10.99999905,
21.99999809,
5.00000000,
13.00000000,
-39.00000000,
-25.00000000,
-20.00000000,
5.00000000,
-50.00000000,
57.00000000,
12.00000000,
-23.00000000,
69.00000000,
51.00000000,
2.00000000,
7.00000000,
-12.00000000,
7.00000000,
3.00000000,
-24.00000000,
40.00000000,
-9.00000000,
-4.00000000,
-29.00000000,
-55.00000381,
59.00000000,
-21.00000000,
-28.00000000,
-40.00000000,
13.00000000,
21.99999809,
-51.00000000,
2.00000000,
14.00000000,
-12.00000000,
-72.00000000,
54.00000000,
-2.00000000,
-74.00000000,
49.00000000,
15.00000000,
-23.00000000,
-8.00000000,
26.00000000,
-33.00000000,
3.00000000,
-7.00000000,
-4.00000000,
74.00000000,
-9.00000000,
37.00000000,
-26.00000000,
-54.00000000,
-2.00000000,
31.00000000,
-5.00000000,
-3.00000000,
-26.00000000,
1.00000000,
-6.00000000,
80.00000000,
47.00000000,
4.00000000,
-29.00000000,
-10.99999905,
41.00000000,
-10.99999905,
-1.00000000,
5.00000000,
14.00000000,
-20.00000000,
-9.00000000,
-24.00000000,
-35.00000000,
46.00000000,
-2.00000000,
27.00000000,
-43.00000000,
-29.00000000,
20.00000000,
-2.00000000,
3.00000000,
-65.00000000,
-30.00000000,
26.00000000,
18.99999809,
-12.00000000,
37.00000000,
8.00000000,
-23.00000000,
-42.00000000,
-10.99999905,
21.00000000,
-51.00000000,
10.99999905,
-63.00000000,
-35.00000000,
-10.00000000,
-49.00000000,
-12.00000000,
-6.00000000,
7.00000000,
49.00000000,
20.00000000,
16.00000000,
2.00000000,
-63.00000000,
1.00000000,
-64.00000000,
-90.00000000,
-17.00000000,
-26.00000000,
-56.00000000,
-3.00000000,
12.00000000,
13.00000000,
7.00000000,
-4.00000000,
-33.00000000,
25.00000000,
3.00000000,
15.00000000,
21.99999809,
32.00000000,
21.00000000,
-8.00000000,
37.00000000,
25.00000000,
-28.00000000,
-18.99999809,
-46.00000000,
30.00000000,
5.00000000,
2.00000000,
28.00000000,
10.99999905,
-18.00000000,
12.00000000,
-36.00000000,
-10.99999905,
30.00000000,
28.00000000,
-18.00000000,
-39.00000000,
15.00000000,
-13.00000000,
7.00000000,
15.00000000,
-7.00000000,
-34.00000000,
13.00000000,
-17.00000000,
29.00000000,
20.00000000,
41.00000000,
-23.00000000,
28.00000000,
16.00000000,
27.00000000,
-2.00000000,
-8.00000000,
-27.00000000,
10.99999905,
-18.00000000,
-3.00000000,
16.00000000,
-35.00000000,
0.00000000,
3.00000000,
5.00000000,
3.00000000,
8.00000000,
-34.00000000,
-6.00000000,
-27.00000000,
-18.00000000,
-31.00000000,
-29.00000000,
28.00000000,
-29.00000000,
7.00000000,
40.00000000,
24.00000000,
-21.99999809,
37.99999619,
-31.00000000,
-20.00000000,
-32.00000000,
-35.00000000,
4.00000000,
-15.00000000,
-29.00000000,
36.00000000,
6.00000000,
46.00000000,
37.99999619,
4.00000000,
-2.00000000,
3.00000000,
21.99999809,
-15.00000000,
-10.00000000,
-5.00000000,
47.00000000,
16.00000000,
1.00000000,
-14.00000000,
-43.99999619,
-27.00000000,
-3.00000000,
14.00000000,
35.00000000,
-25.00000000,
-1.00000000,
-10.00000000,
-26.00000000,
-8.00000000,
-54.00000000,
-2.00000000,
5.00000000,
14.00000000,
-3.00000000,
3.00000000,
13.00000000,
9.00000000,
-6.00000000,
-3.00000000,
0.00000000,
7.00000000,
29.00000000,
-3.00000000,
18.00000000,
6.00000000,
6.00000000,
-2.00000000,
-37.99999619,
18.00000000,
-25.00000000,
-13.00000000,
9.00000000,
-28.00000000,
8.00000000,
10.99999905,
-18.00000000,
20.00000000,
12.00000000,
6.00000000,
4.00000000,
-65.00000000,
110.99999237,
-46.00000000,
-3.00000000,
-53.00000000,
94.00000000,
71.00000000,
-50.00000000,
-43.99999619,
-32.00000000,
-10.00000000,
13.00000000,
-3.00000000,
-59.00000000,
28.00000000,
-5.00000000,
3.00000000,
-40.00000000,
-6.00000000,
56.00000000,
-37.00000000,
-55.00000381,
-40.00000000,
83.00000000,
10.99999905,
17.00000000,
-31.00000000,
26.00000000,
-8.00000000,
5.00000000,
-14.00000000,
-26.00000000,
-10.00000000,
-18.99999809,
31.00000000,
-33.00000000,
-9.00000000,
0.00000000,
18.00000000,
-13.00000000,
-31.00000000,
16.00000000,
31.00000000,
-20.00000000,
-15.00000000,
45.00000000,
-29.00000000,
-26.00000000,
-28.00000000,
5.00000000,
9.00000000,
-63.00000000,
37.00000000,
47.00000000,
-17.00000000,
13.00000000,
6.00000000,
9.00000000,
28.00000000,
16.00000000,
-20.00000000,
-6.00000000,
-29.00000000,
71.00000000,
-124.00000000,
4.00000000,
-36.00000000,
64.00000000,
7.00000000,
-62.00000000,
70.00000000,
-10.00000000,
16.00000000,
41.00000000,
-69.00000000,
-39.00000000,
16.00000000,
35.00000000,
-17.00000000,
-29.00000000,
23.00000000,
7.00000000,
40.00000000,
-43.00000000,
36.00000000,
0.00000000,
-13.00000000,
-30.00000000,
-15.00000000,
61.00000381,
-34.00000000,
-12.00000000,
10.99999905,
-42.00000000,
28.00000000,
32.00000000,
30.00000000,
-1.00000000,
-47.00000000,
32.00000000,
-66.00000000,
39.00000000,
-29.00000000,
35.00000000,
-16.00000000,
2.00000000,
25.00000000,
3.00000000,
-2.00000000,
43.99999619,
-43.99999619,
21.00000000,
-41.00000000,
-43.99999619,
-30.00000000,
-29.00000000,
63.00000000,
16.00000000,
-39.00000000,
5.00000000,
-56.00000000,
74.00000000,
-43.00000000,
49.00000000,
-49.00000000,
2.00000000,
3.00000000,
20.00000000,
18.99999809,
-4.00000000,
-28.00000000,
36.00000000,
4.00000000,
34.00000000,
-7.00000000,
37.99999619,
-36.00000000,
-34.00000000,
55.00000381,
1.00000000,
-17.00000000,
-45.00000000,
21.00000000,
35.00000000,
-30.00000000,
-47.00000000,
-12.00000000,
-28.00000000,
-18.99999809,
0.00000000,
-28.00000000,
-12.00000000,
-35.00000000,
1.00000000,
-10.99999905,
-29.00000000,
-12.00000000,
-39.00000000,
13.00000000,
18.00000000,
2.00000000,
33.00000000,
-33.00000000,
-20.00000000,
-18.00000000,
-8.00000000,
-33.00000000,
-52.00000000,
10.99999905,
-41.00000000,
-50.00000000,
-40.00000000,
-32.00000000,
-43.99999619,
13.00000000,
-9.00000000,
17.00000000,
-24.00000000,
-16.00000000,
2.00000000,
-32.00000000,
-39.00000000,
-2.00000000,
6.00000000,
-24.00000000,
14.00000000,
-18.00000000,
2.00000000,
24.00000000,
-33.00000000,
10.00000000,
10.99999905,
37.99999619,
5.00000000,
-15.00000000,
9.00000000,
-31.00000000,
24.00000000,
-32.00000000,
14.00000000,
-7.00000000,
32.00000000,
7.00000000,
-29.00000000,
-15.00000000,
2.00000000,
43.00000000,
13.00000000,
40.00000000,
-57.00000000,
-37.99999619,
45.00000000,
-15.00000000,
-56.00000000,
1.00000000,
-16.00000000,
-13.00000000,
28.00000000,
9.00000000,
13.00000000,
3.00000000,
-15.00000000,
16.00000000,
7.00000000,
14.00000000,
7.00000000,
-25.00000000,
-4.00000000,
16.00000000,
-21.00000000,
51.00000000,
37.99999619,
37.99999619,
-29.00000000,
-36.00000000,
29.00000000,
-10.99999905,
-18.99999809,
25.00000000,
29.00000000,
18.99999809,
43.00000000,
33.00000000,
24.00000000,
2.00000000,
14.00000000,
-8.00000000,
-2.00000000,
-25.00000000,
9.00000000,
-7.00000000,
40.00000000,
-13.00000000,
9.00000000,
2.00000000,
2.00000000,
-6.00000000,
26.00000000,
16.00000000,
33.00000000,
0.00000000,
0.00000000,
-20.00000000,
-37.99999619,
2.00000000,
24.00000000,
-5.00000000,
-39.00000000,
17.00000000,
-24.00000000,
-35.00000000,
-8.00000000,
-39.00000000,
-13.00000000,
-30.00000000,
-28.00000000,
-18.00000000,
36.00000000,
-18.99999809,
-6.00000000,
31.00000000,
-27.00000000,
-5.00000000,
-18.99999809,
18.00000000,
-12.00000000,
14.00000000,
26.00000000,
12.00000000,
-20.00000000,
-20.00000000,
28.00000000,
20.00000000,
-43.00000000,
21.99999809,
2.00000000,
12.00000000,
6.00000000,
-3.00000000,
-14.00000000,
31.00000000,
25.00000000,
-59.00000000,
-17.00000000,
52.00000000,
-10.00000000,
-13.00000000,
2.00000000,
-49.00000000,
43.99999619,
14.00000000,
-77.00000000,
21.99999809,
26.00000000,
-66.00000000,
18.00000000,
-15.00000000,
-31.00000000,
37.00000000,
-8.00000000,
-50.00000000,
-17.00000000,
49.00000000,
17.00000000,
-18.99999809,
6.00000000,
-20.00000000,
-6.00000000,
-26.00000000,
-32.00000000,
-7.00000000,
23.00000000,
-36.00000000,
-3.00000000,
-16.00000000,
-1.00000000,
32.00000000,
-28.00000000,
52.00000000,
-21.99999809,
-37.99999619,
12.00000000,
9.00000000,
-27.00000000,
16.00000000,
18.99999809,
10.99999905,
7.00000000,
9.00000000,
-15.00000000,
-1.00000000,
-4.00000000,
21.99999809,
2.00000000,
-110.00000763,
36.00000000,
82.00000000,
-67.00000000,
-30.00000000,
74.00000000,
-20.00000000,
7.00000000,
2.00000000,
32.00000000,
-18.00000000,
-2.00000000,
10.99999905,
-45.00000000,
12.00000000,
-4.00000000,
-35.00000000,
7.00000000,
2.00000000,
18.00000000,
5.00000000,
27.00000000,
-7.00000000,
-18.00000000,
-18.99999809,
-35.00000000,
-10.00000000,
9.00000000,
-10.00000000,
-5.00000000,
2.00000000,
52.00000000,
-43.99999619,
21.99999809,
3.00000000,
28.00000000,
-21.99999809,
12.00000000,
-10.99999905,
-28.00000000,
-8.00000000,
6.00000000,
36.00000000,
-51.00000000,
10.99999905,
28.00000000,
-37.99999619,
25.00000000,
-8.00000000,
12.00000000,
-14.00000000,
28.00000000,
39.00000000,
59.00000000,
-6.00000000,
1.00000000,
54.00000000,
4.00000000,
-46.00000000,
-10.00000000,
32.00000000,
34.00000000,
9.00000000,
-13.00000000,
-7.00000000,
-17.00000000,
2.00000000,
43.00000000,
-2.00000000,
-2.00000000,
10.99999905,
16.00000000,
-27.00000000,
-12.00000000,
23.00000000,
26.00000000,
-28.00000000,
30.00000000,
-31.00000000,
17.00000000,
28.00000000,
24.00000000,
23.00000000,
37.99999619,
-13.00000000,
-7.00000000,
20.00000000,
-26.00000000,
-28.00000000,
20.00000000,
-5.00000000,
28.00000000,
-3.00000000,
21.00000000,
-27.00000000,
0.00000000,
6.00000000,
18.00000000,
-2.00000000,
15.00000000,
-18.99999809,
3.00000000,
26.00000000,
-7.00000000,
-9.00000000,
12.00000000,
21.99999809,
15.00000000,
-18.00000000,
5.00000000,
4.00000000,
18.00000000,
-37.99999619,
-36.00000000,
25.00000000,
21.00000000,
-14.00000000,
21.99999809,
-12.00000000,
-35.00000000,
-18.00000000,
16.00000000,
10.99999905,
-18.99999809,
25.00000000,
-28.00000000,
3.00000000,
-14.00000000,
43.99999619,
-32.00000000,
18.99999809,
27.00000000,
-18.99999809,
-10.00000000,
-20.00000000,
-33.00000000,
17.00000000,
-9.00000000,
29.00000000,
-14.00000000,
-29.00000000,
13.00000000,
36.00000000,
-2.00000000,
18.99999809,
-18.00000000,
61.00000381,
-5.00000000,
0.00000000,
13.00000000,
-47.00000000,
16.00000000,
18.99999809,
-28.00000000,
-21.00000000,
10.00000000,
-26.00000000,
-4.00000000,
34.00000000,
-29.00000000,
-18.99999809,
12.00000000,
-24.00000000,
40.00000000,
24.00000000,
-5.00000000,
37.99999619,
-13.00000000,
4.00000000,
-15.00000000,
-12.00000000,
-55.00000381,
9.00000000,
-14.00000000,
-37.99999619,
-3.00000000,
-18.00000000,
13.00000000,
-56.00000000,
14.00000000,
-37.00000000,
-43.99999619,
-8.00000000,
-30.00000000,
-34.00000000,
4.00000000,
-40.00000000,
20.00000000,
8.00000000,
29.00000000,
14.00000000,
37.99999619,
1.00000000,
-1.00000000,
21.99999809,
-32.00000000,
-5.00000000,
-18.00000000,
16.00000000,
-24.00000000,
53.00000000,
-31.00000000,
-10.99999905,
34.00000000,
-16.00000000,
-21.00000000,
-2.00000000,
-25.00000000,
-23.00000000,
-15.00000000,
-9.00000000,
10.99999905,
-31.00000000,
-28.00000000,
28.00000000,
21.00000000,
-41.00000000,
12.00000000,
41.00000000,
-5.00000000,
37.00000000,
5.00000000,
15.00000000,
14.00000000,
13.00000000,
-20.00000000,
16.00000000,
42.00000000,
6.00000000,
-60.00000000,
-25.00000000,
-21.00000000,
17.00000000,
-6.00000000,
-13.00000000,
10.00000000,
17.00000000,
18.00000000,
4.00000000,
-1.00000000,
27.00000000,
30.00000000,
-3.00000000,
10.00000000,
8.00000000,
15.00000000,
-45.00000000,
-24.00000000,
-16.00000000,
7.00000000,
13.00000000,
-14.00000000,
1.00000000,
-32.00000000,
-28.00000000,
9.00000000,
-24.00000000,
-8.00000000,
-35.00000000,
-7.00000000,
16.00000000,
-21.99999809,
14.00000000,
21.99999809,
-6.00000000,
-24.00000000,
17.00000000,
10.00000000,
37.00000000,
43.99999619,
33.00000000,
6.00000000,
37.99999619,
-23.00000000,
14.00000000,
18.00000000,
-13.00000000,
13.00000000,
21.99999809,
-32.00000000,
-7.00000000,
-4.00000000,
-4.00000000,
20.00000000,
-29.00000000,
-15.00000000,
-20.00000000,
-8.00000000,
3.00000000,
-18.99999809,
-8.00000000,
43.99999619,
23.00000000,
21.00000000,
-1.00000000,
46.00000000,
31.00000000,
16.00000000,
17.00000000,
33.00000000,
-35.00000000,
-25.00000000,
-23.00000000,
18.00000000,
-3.00000000,
8.00000000,
20.00000000,
14.00000000,
10.99999905,
-23.00000000,
43.00000000,
6.00000000,
-16.00000000,
-4.00000000,
6.00000000,
-29.00000000,
5.00000000,
-18.00000000,
16.00000000,
-37.99999619,
-28.00000000,
-28.00000000,
-37.00000000,
-5.00000000,
17.00000000,
-32.00000000,
4.00000000,
17.00000000,
0.00000000,
10.99999905,
-17.00000000,
-15.00000000,
-16.00000000,
-7.00000000,
7.00000000,
-36.00000000,
14.00000000,
55.00000381,
23.00000000,
-25.00000000,
-4.00000000,
-7.00000000,
16.00000000,
5.00000000,
-34.00000000,
8.00000000,
-9.00000000,
8.00000000,
-26.00000000,
1.00000000,
-17.00000000,
29.00000000,
17.00000000,
-10.00000000,
28.00000000,
13.00000000,
-25.00000000,
24.00000000,
9.00000000,
-12.00000000,
0.00000000,
21.00000000,
3.00000000,
-18.00000000,
-13.00000000,
-20.00000000,
18.99999809,
32.00000000,
3.00000000,
10.00000000,
30.00000000,
-12.00000000,
9.00000000,
32.00000000,
17.00000000,
-29.00000000,
-27.00000000,
-3.00000000,
14.00000000,
-3.00000000,
25.00000000,
13.00000000,
-20.00000000,
-1.00000000,
21.00000000,
27.00000000,
-18.99999809,
57.00000000,
62.00000000,
10.99999905,
21.00000000,
62.00000000,
20.00000000,
7.00000000,
-18.99999809,
35.00000000,
-20.00000000,
-15.00000000,
10.99999905,
-21.99999809,
-10.00000000,
-16.00000000,
10.00000000,
39.00000000,
3.00000000,
-21.00000000,
-36.00000000,
-18.99999809,
-3.00000000,
-6.00000000,
-6.00000000,
9.00000000,
-45.00000000,
-18.00000000,
43.99999619,
28.00000000,
-20.00000000,
35.00000000,
46.00000000,
-2.00000000,
-31.00000000,
7.00000000,
53.00000000,
-1.00000000,
-3.00000000,
32.00000000,
6.00000000,
-17.00000000,
35.00000000,
-21.00000000,
-25.00000000,
-7.00000000,
10.00000000,
-109.00000000,
-34.00000000,
29.00000000,
-18.00000000,
-35.00000000,
27.00000000,
-57.00000000,
-41.00000000,
61.00000381,
1.00000000,
-33.00000000,
10.00000000,
33.00000000,
46.00000000,
-20.00000000,
-60.00000000,
-40.00000000,
48.00000000,
-60.00000000,
-21.99999809,
63.00000000,
48.00000000,
23.00000000,
-45.00000000,
2.00000000,
14.00000000,
-16.00000000,
-60.00000000,
-13.00000000,
-37.99999619,
-25.00000000,
-31.00000000,
-25.00000000,
-15.00000000,
8.00000000,
-8.00000000,
-17.00000000,
-17.00000000,
28.00000000,
-14.00000000,
-9.00000000,
-20.00000000,
-21.99999809,
-33.00000000,
5.00000000,
-37.99999619,
-21.00000000,
46.00000000,
15.00000000,
0.00000000,
-37.00000000,
-62.00000000,
-18.00000000,
-4.00000000,
-33.00000000,
-14.00000000,
67.00000000,
-15.00000000,
25.00000000,
32.00000000,
-3.00000000,
25.00000000,
12.00000000,
-12.00000000,
-16.00000000,
4.00000000,
28.00000000,
37.00000000,
-1.00000000,
-42.00000000,
-10.00000000,
26.00000000,
-28.00000000,
-54.00000000,
45.00000000,
1.00000000,
13.00000000,
-42.00000000,
-59.00000000,
-20.00000000,
-53.00000000,
-61.00000381,
-50.00000000,
16.00000000,
-59.00000000,
3.00000000,
-10.00000000,
-18.00000000,
31.00000000,
9.00000000,
-1.00000000,
21.99999809,
-21.00000000,
-27.00000000,
35.00000000,
0.00000000,
-36.00000000,
-15.00000000,
-33.00000000,
-34.00000000,
35.00000000,
21.99999809,
-9.00000000,
24.00000000,
17.00000000,
1.00000000,
16.00000000,
27.00000000,
-27.00000000,
10.99999905,
18.99999809,
-18.99999809,
-2.00000000,
-13.00000000,
8.00000000,
-18.00000000,
29.00000000,
21.00000000,
17.00000000,
-24.00000000,
9.00000000,
18.99999809,
8.00000000,
3.00000000,
-17.00000000,
12.00000000,
12.00000000,
-23.00000000,
-21.00000000,
-24.00000000,
4.00000000,
21.99999809,
-37.99999619,
-7.00000000,
-21.00000000,
5.00000000,
-2.00000000,
-6.00000000,
-7.00000000,
-9.00000000,
-3.00000000,
-3.00000000,
-37.00000000,
-15.00000000,
-2.00000000,
1.00000000,
-5.00000000,
18.00000000,
-8.00000000,
-26.00000000,
14.00000000,
-12.00000000,
2.00000000,
-17.00000000,
-12.00000000,
3.00000000,
14.00000000,
-12.00000000,
-6.00000000,
23.00000000,
-12.00000000,
-8.00000000,
8.00000000,
-13.00000000,
-21.00000000,
21.00000000,
-18.99999809,
-4.00000000,
-8.00000000,
-9.00000000,
-14.00000000,
-15.00000000,
-26.00000000,
-9.00000000,
18.00000000,
-4.00000000,
-10.00000000,
16.00000000,
-26.00000000,
25.00000000,
10.99999905,
31.00000000,
7.00000000,
-20.00000000,
-10.99999905,
-14.00000000,
-12.00000000,
-1.00000000,
-18.99999809,
18.99999809,
4.00000000,
-10.00000000,
-20.00000000,
1.00000000,
8.00000000,
13.00000000,
6.00000000,
-28.00000000,
-28.00000000,
-8.00000000,
-4.00000000,
-10.00000000,
-14.00000000,
9.00000000,
-8.00000000,
2.00000000,
-8.00000000,
-6.00000000,
-18.00000000,
-25.00000000,
-23.00000000,
-4.00000000,
-27.00000000,
21.99999809,
6.00000000,
20.00000000,
3.00000000,
0.00000000,
-30.00000000,
-10.99999905,
6.00000000,
0.00000000,
34.00000000,
-10.00000000,
33.00000000,
56.00000000,
-34.00000000,
24.00000000,
-34.00000000,
-50.00000000,
-18.99999809,
2.00000000,
4.00000000,
-15.00000000,
12.00000000,
10.00000000,
-21.99999809,
34.00000000,
5.00000000,
10.99999905,
-85.00000000,
23.00000000,
-18.99999809,
-47.00000000,
50.00000000,
-17.00000000,
34.00000000,
1.00000000,
-42.00000000,
28.00000000,
31.00000000,
1.00000000,
10.00000000,
14.00000000,
-20.00000000,
30.00000000,
-18.00000000,
-18.99999809,
31.00000000,
41.00000000,
15.00000000,
31.00000000,
27.00000000,
-8.00000000,
10.00000000,
-20.00000000,
35.00000000,
10.00000000,
10.00000000,
2.00000000,
-45.00000000,
-27.00000000,
-21.99999809,
18.00000000,
10.00000000,
-30.00000000,
-16.00000000,
-27.00000000,
-8.00000000,
-24.00000000,
18.00000000,
-15.00000000,
25.00000000,
16.00000000,
21.99999809,
-72.00000000,
30.00000000,
-30.00000000,
-43.00000000,
48.00000000,
-26.00000000,
56.00000000,
43.99999619,
30.00000000,
-24.00000000,
-10.99999905,
5.00000000,
-14.00000000,
-5.00000000,
17.00000000,
-25.00000000,
-21.00000000,
28.00000000,
40.00000000,
-55.00000381,
0.00000000,
-8.00000000,
-42.00000000,
10.99999905,
-25.00000000,
29.00000000,
-40.00000000,
10.00000000,
2.00000000,
-28.00000000,
6.00000000,
-17.00000000,
-40.00000000,
-47.00000000,
-9.00000000,
-16.00000000,
4.00000000,
3.00000000,
-68.00000000,
18.99999809,
46.00000000,
-37.00000000,
48.00000000,
-55.00000381,
-5.00000000,
67.00000000,
-35.00000000,
45.00000000,
9.00000000,
-37.00000000,
85.00000000,
-58.00000000,
-20.00000000,
20.00000000,
-43.00000000,
46.00000000,
-30.00000000,
18.99999809,
17.00000000,
16.00000000,
87.00000763,
-15.00000000,
-25.00000000,
-16.00000000,
37.00000000,
10.00000000,
26.00000000,
52.00000000,
-20.00000000,
-4.00000000,
25.00000000,
21.99999809,
-10.99999905,
-9.00000000,
12.00000000,
-50.00000000,
27.00000000,
5.00000000,
-27.00000000,
55.00000381,
-36.00000000,
1.00000000,
5.00000000,
-3.00000000,
-2.00000000,
-8.00000000,
-20.00000000,
-13.00000000,
-18.00000000,
10.00000000,
4.00000000,
-25.00000000,
-39.00000000,
-29.00000000,
9.00000000,
-7.00000000,
58.00000000,
55.00000381,
-15.00000000,
15.00000000,
-2.00000000,
-73.00000000,
-62.00000000,
-51.00000000,
69.00000000,
123.00000000,
87.99999237,
-17.00000000,
-43.99999619,
2.00000000,
27.00000000,
31.00000000,
21.99999809,
-2.00000000,
34.00000000,
37.00000000,
-37.99999619,
-15.00000000,
-3.00000000,
1.00000000,
0.00000000,
-13.00000000,
21.99999809,
47.00000000,
21.99999809,
24.00000000,
43.00000000,
53.00000000,
-23.00000000,
8.00000000,
-47.00000000,
-36.00000000,
-40.00000000,
-35.00000000,
5.00000000,
10.00000000,
-30.00000000,
-33.00000000,
-23.00000000,
-15.00000000,
-4.00000000,
24.00000000,
21.99999809,
4.00000000,
21.99999809,
5.00000000,
0.00000000,
-8.00000000,
-4.00000000,
-10.00000000,
-3.00000000,
21.99999809,
45.00000000,
42.00000000,
18.99999809,
-10.00000000,
18.00000000,
0.00000000,
-41.00000000,
-1.00000000,
-17.00000000,
21.99999809,
21.99999809,
47.00000000,
-9.00000000,
33.00000000,
24.00000000,
-43.00000000,
-26.00000000,
-61.00000381,
-9.00000000,
-47.00000000,
-37.00000000,
1.00000000,
2.00000000,
-20.00000000,
-6.00000000,
17.00000000,
47.00000000,
6.00000000,
-27.00000000,
-21.99999809,
-18.00000000,
15.00000000,
-23.00000000,
5.00000000,
45.00000000,
39.00000000,
4.00000000,
-15.00000000,
10.00000000,
7.00000000,
48.00000000,
-17.00000000,
1.00000000,
-66.00000000,
-14.00000000,
0.00000000,
10.00000000,
2.00000000,
-10.00000000,
10.00000000,
15.00000000,
3.00000000,
-3.00000000,
-21.99999809,
-32.00000000,
-1.00000000,
-23.00000000,
5.00000000,
-12.00000000,
-14.00000000,
1.00000000,
21.99999809,
8.00000000,
-6.00000000,
24.00000000,
35.00000000,
20.00000000,
4.00000000,
24.00000000,
-31.00000000,
-18.00000000,
-47.00000000,
-41.00000000,
2.00000000,
-5.00000000,
-61.00000381,
-34.00000000,
-9.00000000,
-68.00000000,
34.00000000,
-6.00000000,
10.99999905,
21.00000000,
32.00000000,
18.00000000,
-6.00000000,
1.00000000,
-12.00000000,
-21.00000000,
-6.00000000,
-33.00000000,
14.00000000,
-59.00000000,
-34.00000000,
48.00000000,
-43.99999619,
8.00000000,
23.00000000,
10.00000000,
-28.00000000,
35.00000000,
10.00000000,
20.00000000,
-26.00000000,
-30.00000000,
-13.00000000,
16.00000000,
-32.00000000,
-6.00000000,
-36.00000000,
0.00000000,
-26.00000000,
-3.00000000,
-17.00000000,
1.00000000,
-8.00000000,
25.00000000,
29.00000000,
8.00000000,
-39.00000000,
23.00000000,
21.00000000,
-34.00000000,
27.00000000,
-14.00000000,
15.00000000,
37.99999619,
3.00000000,
-24.00000000,
3.00000000,
-31.00000000,
-16.00000000,
-15.00000000,
1.00000000,
-23.00000000,
21.99999809,
-32.00000000,
8.00000000,
41.00000000,
-53.00000000,
-23.00000000,
7.00000000,
-21.99999809,
60.00000000,
-4.00000000,
0.00000000,
15.00000000,
-18.99999809,
35.00000000,
37.00000000,
-15.00000000,
30.00000000,
34.00000000,
21.99999809,
15.00000000,
41.00000000,
-14.00000000,
48.00000000,
-6.00000000,
-63.00000000,
32.00000000,
-20.00000000,
1.00000000,
21.00000000,
35.00000000,
-18.00000000,
-57.00000000,
43.99999619,
18.00000000,
9.00000000,
31.00000000,
17.00000000,
-37.00000000,
-6.00000000,
-31.00000000,
-25.00000000,
-57.00000000,
37.00000000,
-47.00000000,
12.00000000,
5.00000000,
43.00000000,
13.00000000,
-69.00000000,
84.00000000,
-18.00000000,
-14.00000000,
12.00000000,
-29.00000000,
43.99999619,
29.00000000,
14.00000000,
52.00000000,
33.00000000,
15.00000000,
23.00000000,
43.99999619,
58.00000000,
27.00000000,
-29.00000000,
30.00000000,
14.00000000,
-7.00000000,
-20.00000000,
41.00000000,
21.99999809,
-18.00000000,
-16.00000000,
-1.00000000,
-25.00000000,
-41.00000000,
-3.00000000,
9.00000000,
23.00000000,
-26.00000000,
18.00000000,
-31.00000000,
10.99999905,
-103.00000000,
3.00000000,
-13.00000000,
60.00000000,
24.00000000,
-39.00000000,
118.00000000,
18.99999809,
28.00000000,
10.99999905,
-30.00000000,
-75.00000763,
-18.99999809,
21.99999809,
-26.00000000,
16.00000000,
-7.00000000,
47.00000000,
-81.00000000,
-21.00000000,
-56.00000000,
28.00000000,
-96.00000000,
15.00000000,
106.00000000,
7.00000000,
8.00000000,
-13.00000000,
-4.00000000,
23.00000000,
64.00000000,
-36.00000000,
-43.99999619,
-18.99999809,
-18.00000000,
31.00000000,
-39.00000000,
42.00000000,
34.00000000,
47.00000000,
-37.00000000,
-5.00000000,
-15.00000000,
-13.00000000,
-9.00000000,
40.00000000,
23.00000000,
-37.00000000,
-48.00000000,
2.00000000,
-15.00000000,
5.00000000,
9.00000000,
69.00000000,
13.00000000,
-47.00000000,
-30.00000000,
61.00000381,
6.00000000,
28.00000000,
31.00000000,
-30.00000000,
-25.00000000,
-5.00000000,
-31.00000000,
33.00000000,
-1.00000000,
3.00000000,
15.00000000,
59.00000000,
-2.00000000,
10.00000000,
-27.00000000,
-29.00000000,
-18.00000000,
9.00000000,
30.00000000,
29.00000000,
51.00000000,
-5.00000000,
-16.00000000,
39.00000000,
-1.00000000,
60.00000000,
-23.00000000,
37.99999619,
-4.00000000,
-45.00000000,
37.00000000,
36.00000000,
-6.00000000,
-21.99999809,
10.99999905,
32.00000000,
-49.00000000,
-91.00000000,
-18.99999809,
18.99999809,
1.00000000,
21.00000000,
1.00000000,
35.00000000,
20.00000000,
-51.00000000,
-56.00000000,
27.00000000,
-34.00000000,
-2.00000000,
78.00000000,
-7.00000000,
10.99999905,
-2.00000000,
26.00000000,
1.00000000,
-5.00000000,
25.00000000,
32.00000000,
-28.00000000,
17.00000000,
-13.00000000,
8.00000000,
-5.00000000,
12.00000000,
92.00000000,
-8.00000000,
-21.00000000,
3.00000000,
42.00000000,
54.00000000,
27.00000000,
27.00000000,
39.00000000,
4.00000000,
-10.99999905,
-13.00000000,
51.00000000,
-7.00000000,
-34.00000000,
-43.99999619,
16.00000000,
31.00000000,
-46.00000000,
