# stem.conv.weight (shape [16, 1, 3, 3], dtype float32),
-52.00000000,
52.00000000,
-2.00000000,
-81.00000000,
9.00000000,
89.00000000,
-58.00000000,
-68.00000000,
113.00000763,
-52.00000000,
-31.00000000,
-35.00000000,
115.00000000,
74.00000000,
99.00000000,
-65.00000000,
-90.00000000,
-9.00000000,
-12.00000095,
81.00000000,
52.00000000,
42.00000000,
7.00000000,
48.00000381,
-68.00000000,
-111.00000000,
-43.00000000,
8.00000000,
21.00000000,
-8.00000000,
3.00000024,
-4.00000000,
3.00000024,
-5.00000000,
16.00000000,
16.00000000,
4.00000000,
-4.00000000,
7.00000000,
5.00000000,
7.00000000,
10.00000000,
6.00000048,
10.00000000,
6.00000048,
9.00000000,
1.00000000,
-14.00000000,
-3.00000024,
-18.00000000,
-7.00000000,
4.00000000,
-17.00000000,
-17.00000000,
13.00000000,
-10.00000000,
10.00000000,
21.00000000,
7.00000000,
5.00000000,
16.00000000,
-4.00000000,
-6.00000048,
24.00000191,
-26.00000000,
-6.00000048,
100.00000763,
21.00000000,
-89.00000000,
74.00000000,
-37.00000000,
-65.00000000,
-14.00000000,
30.00000000,
-9.00000000,
-21.00000000,
-24.00000191,
11.00000000,
-13.00000000,
2.00000000,
-19.00000000,
-16.00000000,
-31.00000000,
-13.00000000,
-1.00000000,
-55.00000000,
24.00000191,
-7.00000000,
49.00000000,
-8.00000000,
1.00000000,
48.00000381,
34.00000000,
-44.00000000,
-16.00000000,
35.00000000,
-49.00000000,
49.00000000,
-27.00000000,
-51.00000000,
3.00000024,
7.00000000,
64.00000000,
22.99999809,
-20.00000000,
32.00000000,
36.00000000,
-51.00000000,
-12.00000095,
-45.99999619,
-45.00000000,
29.00000000,
-108.00000000,
91.99999237,
5.00000000,
-28.00000000,
86.00000000,
-27.00000000,
15.00000000,
62.99999619,
-117.00000000,
125.00000000,
-118.00000000,
5.00000000,
137.00000000,
-94.00000000,
6.00000048,
10.00000000,
3.00000024,
5.00000000,
11.00000000,
0.00000000,
4.00000000,
8.00000000,
7.00000000,
11.00000000,
-28.00000000,
-15.00000000,
31.00000000,
-12.00000095,
-31.00000000,
5.00000000,
-30.00000000,
14.00000000,
