# output_head.weight (shape [11, 48], dtype float32),
-5.00000000,
26.99999809,
-4.00000000,
-33.00000000,
-2.00000000,
38.00000000,
47.00000000,
-6.00000048,
64.00000000,
7.00000000,
-31.00000000,
21.00000000,
-40.00000000,
12.00000095,
-42.00000000,
14.00000000,
19.00000000,
-4.00000000,
-44.00000000,
-47.00000000,
-41.00000000,
-52.00000000,
-42.00000000,
6.00000048,
-44.00000000,
7.00000000,
78.00000000,
-3.00000024,
-53.00000000,
-33.00000000,
34.00000000,
3.00000024,
9.00000000,
-55.00000381,
-18.00000000,
-26.00000000,
-56.00000000,
-13.00000000,
-42.00000000,
-42.00000000,
-58.00000000,
29.99999809,
-31.00000000,
83.00000000,
-59.99999619,
63.00000000,
69.00000000,
-8.00000000,
-4.00000000,
37.00000000,
3.00000024,
63.00000000,
-2.00000000,
58.00000000,
-45.00000000,
26.99999809,
-67.00000000,
24.00000191,
13.00000000,
71.00000000,
-59.00000000,
-13.00000000,
-29.99999809,
-41.00000000,
13.00000000,
-50.00000000,
-25.00000000,
20.00000000,
-2.00000000,
-65.00000000,
-59.00000000,
1.00000000,
-12.00000095,
-74.00000000,
99.00000000,
35.00000000,
26.99999809,
7.00000000,
-22.00000000,
-13.00000000,
63.00000000,
-43.00000000,
26.99999809,
-53.99999619,
-7.00000000,
64.00000000,
-40.00000000,
13.00000000,
43.00000000,
-46.00000000,
11.00000000,
65.00000000,
-59.99999619,
12.00000095,
9.00000000,
-21.00000000,
-45.00000000,
48.00000381,
-3.00000024,
78.00000000,
-1.00000000,
-5.00000000,
-67.00000000,
-22.00000000,
-68.00000000,
13.00000000,
25.00000000,
5.00000000,
-29.99999809,
24.00000191,
-33.00000000,
-16.00000000,
1.00000000,
16.00000000,
26.00000000,
68.00000000,
-14.00000000,
34.00000000,
-13.00000000,
0.00000000,
22.00000000,
36.00000000,
-38.00000000,
-86.00000000,
91.00000000,
-68.00000000,
-38.00000000,
5.00000000,
20.00000000,
-42.00000000,
34.00000000,
-58.00000000,
10.00000000,
21.00000000,
42.00000000,
81.00000000,
76.00000000,
59.00000000,
13.00000000,
19.00000000,
-53.99999619,
-23.00000000,
37.00000000,
-23.00000000,
-17.00000000,
-53.99999619,
6.00000048,
21.00000000,
-35.00000000,
-100.99999237,
75.00000000,
-24.00000191,
-51.00000000,
7.00000000,
-34.00000000,
34.00000000,
-37.00000000,
77.00000000,
5.00000000,
26.00000000,
33.00000000,
11.00000000,
-12.00000095,
18.00000000,
-18.00000000,
12.00000095,
-23.00000000,
50.00000000,
34.00000000,
104.00000000,
-75.00000000,
-68.00000000,
-48.00000381,
53.99999619,
-31.00000000,
43.00000000,
7.00000000,
-11.00000000,
31.00000000,
23.00000000,
-25.00000000,
11.00000000,
84.00000000,
70.00000000,
47.00000000,
86.00000000,
9.00000000,
-22.00000000,
21.00000000,
12.00000095,
12.00000095,
-52.00000000,
91.00000000,
-63.00000000,
-44.00000000,
-68.00000000,
1.00000000,
-19.00000000,
39.00000000,
11.00000000,
46.00000000,
26.99999809,
58.00000000,
45.00000000,
-89.00000000,
14.99999905,
-11.00000000,
45.00000000,
29.00000000,
44.00000000,
53.00000000,
-32.00000000,
52.00000000,
-3.00000024,
1.00000000,
26.00000000,
107.99999237,
-8.00000000,
14.99999905,
-31.00000000,
-22.00000000,
83.00000000,
44.00000000,
-37.00000000,
-53.00000000,
82.00000000,
22.00000000,
40.00000000,
-84.00000000,
39.00000000,
59.99999619,
7.00000000,
3.00000024,
-23.00000000,
-71.00000000,
-7.00000000,
87.00000000,
-21.00000000,
-13.00000000,
78.00000000,
47.00000000,
64.00000000,
-107.99999237,
-22.00000000,
-38.00000000,
-1.00000000,
-25.00000000,
45.00000000,
97.00000000,
-35.00000000,
73.00000000,
-56.00000000,
35.00000000,
-29.99999809,
66.00000000,
-45.00000000,
29.99999809,
-24.00000191,
16.00000000,
43.00000000,
45.00000000,
-20.00000000,
64.00000000,
43.00000000,
34.00000000,
-61.00000381,
14.99999905,
21.00000000,
-9.00000000,
55.00000381,
26.99999809,
67.00000000,
-17.00000000,
61.00000381,
1.00000000,
72.00000000,
-47.00000000,
-43.00000000,
36.00000000,
-61.00000381,
13.00000000,
-71.00000000,
37.00000000,
-72.00000000,
37.00000000,
0.00000000,
-66.00000000,
-19.00000000,
6.00000048,
36.00000000,
6.00000048,
-24.00000191,
18.00000000,
28.00000000,
29.00000000,
42.00000000,
-24.00000191,
-59.00000000,
28.00000000,
-57.00000000,
91.00000000,
-41.00000000,
76.00000000,
43.00000000,
35.00000000,
-6.00000048,
42.00000000,
32.00000000,
56.00000000,
74.00000000,
-3.00000024,
-72.00000000,
-61.00000381,
-12.00000095,
-46.00000000,
67.00000000,
10.00000000,
-40.00000000,
-11.00000000,
65.00000000,
-41.00000000,
-65.00000000,
23.00000000,
48.00000381,
19.00000000,
-29.99999809,
-23.00000000,
-13.00000000,
-43.00000000,
-41.00000000,
88.00000000,
-19.00000000,
-37.00000000,
-53.99999619,
-31.00000000,
-14.00000000,
-37.00000000,
-74.00000000,
119.00000000,
-24.00000191,
59.00000000,
5.00000000,
-25.00000000,
19.00000000,
-6.00000048,
-20.00000000,
-82.00000000,
-26.00000000,
84.00000000,
4.00000000,
-1.00000000,
14.00000000,
-46.00000000,
33.00000000,
47.00000000,
-29.00000000,
23.00000000,
44.00000000,
-14.99999905,
-39.00000000,
-34.00000000,
48.00000381,
-14.99999905,
55.00000381,
-26.99999809,
-9.00000000,
-16.00000000,
-91.00000000,
70.00000000,
2.00000000,
-47.00000000,
-39.00000000,
100.00000000,
-17.00000000,
-40.00000000,
-25.00000000,
-40.00000000,
21.00000000,
26.00000000,
-23.00000000,
18.00000000,
-35.00000000,
-34.00000000,
19.00000000,
-16.00000000,
-20.00000000,
40.00000000,
-11.00000000,
-19.00000000,
19.00000000,
-17.00000000,
-44.00000000,
3.00000024,
64.00000000,
-26.99999809,
-47.00000000,
52.00000000,
-19.00000000,
-44.00000000,
-26.00000000,
-63.00000000,
-36.00000000,
-40.00000000,
-58.00000000,
-11.00000000,
-64.00000000,
48.00000381,
-28.00000000,
-26.00000000,
19.00000000,
-24.00000191,
34.00000000,
-2.00000000,
12.00000095,
8.00000000,
-75.00000000,
-36.00000000,
26.99999809,
-64.00000000,
-49.00000000,
76.00000000,
-19.00000000,
-13.00000000,
-4.00000000,
-42.00000000,
31.00000000,
-32.00000000,
-42.00000000,
45.00000000,
78.00000000,
40.00000000,
35.00000000,
-16.00000000,
-16.00000000,
3.00000024,
4.00000000,
-136.00000000,
-45.00000000,
64.00000000,
44.00000000,
8.00000000,
-114.00000000,
13.00000000,
50.00000000,
29.00000000,
-73.00000000,
-20.00000000,
-86.00000000,
32.00000000,
76.00000000,
55.00000381,
66.00000000,
45.00000000,
63.00000000,
85.00000000,
2.00000000,
-40.00000000,
19.00000000,
29.99999809,
55.00000381,
-23.00000000,
32.00000000,
-78.00000000,
-21.00000000,
79.00000000,
6.00000048,
63.00000000,
40.00000000,
41.00000000,
76.00000000,
57.00000000,
12.00000095,
52.00000000,
4.00000000,
-68.00000000,
-11.00000000,
-1.00000000,
-90.00000000,
68.00000000,
56.00000000,
2.00000000,
-37.00000000,
-22.00000000,
0.00000000,
-24.00000191,
-52.00000000,
-25.00000000,
31.00000000,
-23.00000000,
-59.99999619,
10.00000000,
39.00000000,
20.00000000,
24.00000191,
22.00000000,
-9.00000000,
-32.00000000,
-1.00000000,
29.99999809,
33.00000000,
7.00000000,
-1.00000000,
-29.00000000,
-40.00000000,
31.00000000,
18.00000000,
3.00000024,
13.00000000,
26.99999809,
-6.00000048,
-2.00000000,
-21.00000000,
13.00000000,
33.00000000,
34.00000000,
51.00000000,
-21.00000000,
-3.00000024,
12.00000095,
47.00000000,
12.00000095,
-43.00000000,
29.00000000,
-5.00000000,
-10.00000000,
-33.00000000,
-23.00000000,
33.00000000,
