# stage1.downsample.conv.weight (shape [24, 16, 3, 3], dtype float32),
2.00000000,
5.00000000,
-30.00000000,
56.00000000,
-11.00000000,
-7.00000000,
36.00000000,
-26.00000000,
-35.00000000,
12.00000095,
32.00000000,
60.00000000,
-44.00000000,
-38.99999619,
-18.00000000,
-10.00000000,
-11.00000000,
-14.00000000,
22.00000000,
-7.00000000,
-10.00000000,
-2.00000000,
-26.00000000,
-13.00000000,
96.00000763,
34.00000000,
18.00000000,
-18.00000000,
13.00000000,
52.00000000,
-36.00000000,
-47.00000000,
-16.00000000,
35.00000000,
-31.00000000,
-33.00000000,
-7.00000000,
-7.00000000,
-20.00000000,
25.00000000,
-13.00000000,
10.00000000,
11.00000000,
-4.00000000,
33.00000000,
-29.00000000,
22.00000000,
-5.00000000,
-17.00000000,
3.00000024,
-29.00000000,
-3.00000024,
-3.00000024,
-6.00000048,
-13.00000000,
33.00000000,
19.00000000,
-1.00000000,
-35.00000000,
0.00000000,
24.00000191,
38.99999619,
-34.00000000,
-31.00000000,
-11.00000000,
17.00000000,
-53.00000000,
6.00000048,
32.00000000,
19.00000000,
73.00000000,
53.00000000,
-19.00000000,
11.00000000,
24.00000191,
-8.00000000,
-38.99999619,
12.00000095,
-26.00000000,
-21.00000000,
19.00000000,
-36.00000000,
-48.00000381,
-38.00000000,
93.00000000,
43.00000000,
-24.00000191,
60.00000000,
46.00000000,
-41.00000000,
17.00000000,
17.00000000,
-13.00000000,
37.00000000,
-11.00000000,
-10.00000000,
43.00000000,
29.00000000,
-18.00000000,
-24.00000191,
-47.00000000,
-51.00000000,
-34.00000000,
-23.00000000,
-10.00000000,
102.00000000,
57.00000381,
-16.00000000,
19.00000000,
44.00000000,
-22.00000000,
14.00000000,
-21.00000000,
-22.00000000,
15.00000000,
23.00000000,
17.00000000,
-62.00000000,
5.00000000,
25.00000000,
-70.00000000,
-55.00000000,
-5.00000000,
15.00000000,
10.00000000,
-22.00000000,
-63.00000000,
-28.00000000,
-4.00000000,
-86.00000000,
-30.00000000,
-6.00000048,
-30.00000000,
-17.00000000,
-30.00000000,
-15.00000000,
52.00000000,
43.00000000,
-1.00000000,
-31.00000000,
-26.00000000,
-1.00000000,
7.00000000,
6.00000048,
-5.00000000,
-23.00000000,
-23.00000000,
-21.00000000,
5.00000000,
-2.00000000,
-14.00000000,
-31.00000000,
1.00000000,
57.00000381,
46.00000000,
15.00000000,
30.00000000,
28.00000000,
-6.00000048,
-50.00000000,
-7.00000000,
-25.00000000,
42.00000000,
-19.00000000,
-16.00000000,
-21.00000000,
-23.00000000,
-12.00000095,
-5.00000000,
-45.00000000,
-31.00000000,
25.00000000,
-5.00000000,
-28.00000000,
30.00000000,
9.00000000,
-43.00000000,
42.00000000,
-42.00000000,
-31.00000000,
35.00000000,
-3.00000024,
-15.00000000,
-26.00000000,
-15.00000000,
-2.00000000,
4.00000000,
-11.00000000,
-33.00000000,
20.00000000,
22.00000000,
16.00000000,
29.00000000,
-1.00000000,
-20.00000000,
-66.00000000,
-22.00000000,
-49.00000000,
61.00000000,
-2.00000000,
-25.00000000,
-29.00000000,
-42.00000000,
-74.00000000,
-34.00000000,
-34.00000000,
-31.00000000,
35.00000000,
6.00000048,
-25.00000000,
12.00000095,
-6.00000048,
-45.00000000,
-28.00000000,
-41.00000000,
-42.00000000,
20.00000000,
-4.00000000,
-28.00000000,
26.00000000,
42.00000000,
-6.00000048,
-35.00000000,
-8.00000000,
13.00000000,
33.00000000,
32.00000000,
23.00000000,
3.00000024,
22.00000000,
6.00000048,
17.00000000,
-19.00000000,
24.00000191,
-37.00000000,
26.00000000,
24.00000191,
-27.00000000,
5.00000000,
6.00000048,
0.00000000,
-24.00000191,
-17.00000000,
8.00000000,
22.00000000,
-20.00000000,
-51.00000000,
-72.00000000,
-35.00000000,
-27.00000000,
-13.00000000,
-7.00000000,
19.00000000,
32.00000000,
-6.00000048,
22.00000000,
24.00000191,
-9.00000000,
-5.00000000,
-31.00000000,
-7.00000000,
52.00000000,
22.00000000,
2.00000000,
-5.00000000,
-19.00000000,
-3.00000024,
-7.00000000,
-44.00000000,
-12.00000095,
-17.00000000,
10.00000000,
23.00000000,
25.00000000,
53.00000000,
33.00000000,
15.00000000,
63.00000000,
6.00000048,
-12.00000095,
-15.00000000,
-5.00000000,
23.00000000,
-14.00000000,
4.00000000,
10.00000000,
-11.00000000,
24.00000191,
20.00000000,
28.00000000,
10.00000000,
5.00000000,
-3.00000024,
19.00000000,
10.00000000,
-11.00000000,
-1.00000000,
-20.00000000,
-22.00000000,
-3.00000024,
-26.00000000,
7.00000000,
-9.00000000,
-38.00000000,
3.00000024,
8.00000000,
-9.00000000,
-16.00000000,
8.00000000,
-3.00000024,
33.00000000,
8.00000000,
22.00000000,
11.00000000,
21.00000000,
21.00000000,
32.00000000,
12.00000095,
5.00000000,
35.00000000,
8.00000000,
9.00000000,
-16.00000000,
7.00000000,
-16.00000000,
-6.00000048,
-18.00000000,
-3.00000024,
-1.00000000,
-35.00000000,
11.00000000,
26.00000000,
12.00000095,
23.00000000,
-14.00000000,
-16.00000000,
-27.00000000,
-23.00000000,
-18.00000000,
-23.00000000,
21.00000000,
-18.00000000,
-3.00000024,
-33.00000000,
-14.00000000,
-8.00000000,
9.00000000,
-56.00000000,
-3.00000024,
22.00000000,
-16.00000000,
-13.00000000,
-38.00000000,
-31.00000000,
-37.00000000,
16.00000000,
-23.00000000,
-40.00000000,
-28.00000000,
-63.00000000,
-53.00000000,
-38.99999619,
-4.00000000,
2.00000000,
-3.00000024,
28.00000000,
-2.00000000,
16.00000000,
25.00000000,
35.00000000,
19.00000000,
21.00000000,
19.00000000,
-37.00000000,
-38.00000000,
-4.00000000,
-24.00000191,
9.00000000,
-27.00000000,
41.00000000,
26.00000000,
33.00000000,
18.00000000,
4.00000000,
18.00000000,
-24.00000191,
-5.00000000,
38.00000000,
-22.00000000,
-2.00000000,
28.00000000,
61.00000000,
-24.00000191,
-16.00000000,
-2.00000000,
4.00000000,
27.00000000,
-14.00000000,
-15.00000000,
-14.00000000,
-24.00000191,
36.00000000,
-16.00000000,
-36.00000000,
-26.00000000,
30.00000000,
-34.00000000,
-53.00000000,
-24.00000191,
38.99999619,
-12.00000095,
-13.00000000,
21.00000000,
8.00000000,
-28.00000000,
26.00000000,
52.00000000,
-10.00000000,
34.00000000,
22.00000000,
8.00000000,
29.00000000,
2.00000000,
-28.00000000,
-5.00000000,
21.00000000,
-35.00000000,
-5.00000000,
29.00000000,
10.00000000,
3.00000024,
-30.00000000,
13.00000000,
-1.00000000,
-5.00000000,
-16.00000000,
23.00000000,
22.00000000,
-11.00000000,
32.00000000,
7.00000000,
-35.00000000,
12.00000095,
5.00000000,
-1.00000000,
23.00000000,
3.00000024,
-22.00000000,
26.00000000,
31.00000000,
0.00000000,
-12.00000095,
1.00000000,
-33.00000000,
5.00000000,
-7.00000000,
-26.00000000,
-40.00000000,
-5.00000000,
-35.00000000,
8.00000000,
-19.00000000,
-11.00000000,
-2.00000000,
-37.00000000,
-31.00000000,
-7.00000000,
-22.00000000,
8.00000000,
-27.00000000,
10.00000000,
-10.00000000,
-10.00000000,
-6.00000048,
-12.00000095,
14.00000000,
-6.00000048,
-6.00000048,
24.00000191,
6.00000048,
-18.00000000,
10.00000000,
18.00000000,
-17.00000000,
29.00000000,
11.00000000,
3.00000024,
18.00000000,
-9.00000000,
-19.00000000,
-10.00000000,
-9.00000000,
-2.00000000,
17.00000000,
-4.00000000,
19.00000000,
-17.00000000,
-16.00000000,
-2.00000000,
4.00000000,
-1.00000000,
-20.00000000,
11.00000000,
30.00000000,
14.00000000,
19.00000000,
-31.00000000,
21.00000000,
22.00000000,
-32.00000000,
-2.00000000,
4.00000000,
3.00000024,
-6.00000048,
-2.00000000,
-15.00000000,
18.00000000,
20.00000000,
11.00000000,
7.00000000,
15.00000000,
-1.00000000,
-48.00000381,
9.00000000,
-11.00000000,
-16.00000000,
-13.00000000,
3.00000024,
-2.00000000,
0.00000000,
-7.00000000,
-12.00000095,
-19.00000000,
-11.00000000,
-13.00000000,
1.00000000,
-6.00000048,
-14.00000000,
4.00000000,
-13.00000000,
5.00000000,
10.00000000,
-10.00000000,
-24.00000191,
-6.00000048,
14.00000000,
19.00000000,
-3.00000024,
1.00000000,
-84.00000000,
-9.00000000,
35.00000000,
-90.00000000,
16.00000000,
42.00000000,
-33.00000000,
-30.00000000,
12.00000095,
42.00000000,
37.00000000,
-19.00000000,
63.00000000,
64.00000000,
22.00000000,
44.00000000,
13.00000000,
27.00000000,
26.00000000,
18.00000000,
-7.00000000,
30.00000000,
30.00000000,
-8.00000000,
20.00000000,
52.00000000,
12.00000095,
-53.00000000,
-11.00000000,
28.00000000,
-67.00000000,
-35.00000000,
36.00000000,
-36.00000000,
-9.00000000,
55.00000000,
3.00000024,
-42.00000000,
-71.00000000,
50.00000000,
11.00000000,
-35.00000000,
47.00000000,
-2.00000000,
-45.00000000,
-9.00000000,
-32.00000000,
15.00000000,
-31.00000000,
-40.00000000,
13.00000000,
-28.00000000,
-47.00000000,
-8.00000000,
-18.00000000,
-19.00000000,
8.00000000,
-30.00000000,
-19.00000000,
16.00000000,
-15.00000000,
-1.00000000,
-14.00000000,
-51.00000000,
9.00000000,
21.00000000,
-26.00000000,
22.00000000,
57.00000381,
-42.00000000,
18.00000000,
53.00000000,
7.00000000,
-17.00000000,
-73.00000000,
35.00000000,
6.00000048,
-10.00000000,
73.00000000,
19.00000000,
-25.00000000,
-6.00000048,
-28.00000000,
-20.00000000,
8.00000000,
-45.00000000,
-50.00000000,
38.00000000,
-2.00000000,
-38.99999619,
21.00000000,
25.00000000,
-4.00000000,
12.00000095,
3.00000024,
18.00000000,
-21.00000000,
-34.00000000,
25.00000000,
-8.00000000,
9.00000000,
20.00000000,
22.00000000,
11.00000000,
6.00000048,
-3.00000024,
1.00000000,
-6.00000048,
-21.00000000,
15.00000000,
10.00000000,
8.00000000,
-26.00000000,
7.00000000,
6.00000048,
11.00000000,
-14.00000000,
-20.00000000,
-29.00000000,
-5.00000000,
-52.00000000,
-34.00000000,
22.00000000,
2.00000000,
-22.00000000,
-4.00000000,
-23.00000000,
18.00000000,
26.00000000,
-28.00000000,
34.00000000,
57.00000381,
-27.00000000,
18.00000000,
25.00000000,
-8.00000000,
-25.00000000,
11.00000000,
-34.00000000,
-6.00000048,
24.00000191,
-22.00000000,
-30.00000000,
-14.00000000,
60.00000000,
13.00000000,
-22.00000000,
41.00000000,
26.00000000,
20.00000000,
36.00000000,
56.00000000,
48.00000381,
8.00000000,
1.00000000,
32.00000000,
12.00000095,
-29.00000000,
22.00000000,
13.00000000,
12.00000095,
36.00000000,
-25.00000000,
-8.00000000,
-6.00000048,
5.00000000,
-82.00000000,
-38.00000000,
6.00000048,
-73.00000000,
-77.99999237,
-7.00000000,
17.00000000,
-12.00000095,
0.00000000,
-23.00000000,
25.00000000,
-36.00000000,
15.00000000,
-1.00000000,
-37.00000000,
30.00000000,
33.00000000,
-24.00000191,
-3.00000024,
30.00000000,
8.00000000,
-57.00000381,
40.00000000,
5.00000000,
9.00000000,
-10.00000000,
-43.00000000,
-35.00000000,
-3.00000024,
-6.00000048,
-54.00000000,
-16.00000000,
-27.00000000,
44.00000000,
-22.00000000,
-16.00000000,
-1.00000000,
1.00000000,
17.00000000,
-70.00000000,
33.00000000,
-2.00000000,
-14.00000000,
7.00000000,
5.00000000,
-1.00000000,
10.00000000,
-22.00000000,
-27.00000000,
-9.00000000,
-7.00000000,
68.00000000,
-36.00000000,
-21.00000000,
15.00000000,
-17.00000000,
17.00000000,
-57.00000381,
-7.00000000,
-14.00000000,
17.00000000,
-56.00000000,
18.00000000,
-25.00000000,
-11.00000000,
29.00000000,
-44.00000000,
42.00000000,
-16.00000000,
13.00000000,
-31.00000000,
-17.00000000,
5.00000000,
-9.00000000,
38.99999619,
0.00000000,
24.00000191,
-28.00000000,
19.00000000,
19.00000000,
66.00000000,
-1.00000000,
29.00000000,
-23.00000000,
4.00000000,
-21.00000000,
-19.00000000,
40.00000000,
-18.00000000,
-17.00000000,
41.00000000,
-48.00000381,
-17.00000000,
-19.00000000,
58.00000000,
6.00000048,
-17.00000000,
-17.00000000,
12.00000095,
53.00000000,
-33.00000000,
22.00000000,
-34.00000000,
33.00000000,
30.00000000,
-42.00000000,
40.00000000,
30.00000000,
5.00000000,
-48.00000381,
-1.00000000,
8.00000000,
-46.00000000,
-19.00000000,
11.00000000,
-63.00000000,
-15.00000000,
12.00000095,
-54.00000000,
-66.00000000,
-20.00000000,
2.00000000,
-7.00000000,
-93.00000000,
107.00000000,
16.00000000,
-12.00000095,
-1.00000000,
2.00000000,
109.00000000,
-132.00000000,
-53.00000000,
-27.00000000,
-79.00000000,
13.00000000,
24.00000191,
26.00000000,
31.00000000,
-36.00000000,
90.00000000,
-9.00000000,
94.00000000,
-131.00000000,
-3.00000024,
10.00000000,
-14.00000000,
29.00000000,
-62.00000000,
88.00000000,
-1.00000000,
-11.00000000,
-20.00000000,
-55.00000000,
-19.00000000,
-5.00000000,
-15.00000000,
40.00000000,
-3.00000024,
-57.00000381,
-2.00000000,
-28.00000000,
0.00000000,
55.00000000,
42.00000000,
19.00000000,
13.00000000,
31.00000000,
16.00000000,
-57.00000381,
23.00000000,
-7.00000000,
-17.00000000,
35.00000000,
-54.00000000,
22.00000000,
20.00000000,
-79.00000000,
0.00000000,
23.00000000,
40.00000000,
38.00000000,
41.00000000,
47.00000000,
4.00000000,
-29.00000000,
-15.00000000,
3.00000024,
7.00000000,
-19.00000000,
-4.00000000,
38.00000000,
13.00000000,
25.00000000,
15.00000000,
-41.00000000,
-62.00000000,
-23.00000000,
-36.00000000,
32.00000000,
73.00000000,
-68.00000000,
9.00000000,
44.00000000,
29.00000000,
-97.00000000,
33.00000000,
-49.00000000,
0.00000000,
52.00000000,
-11.00000000,
35.00000000,
20.00000000,
-8.00000000,
-20.00000000,
-7.00000000,
-38.00000000,
17.00000000,
-23.00000000,
20.00000000,
-29.00000000,
-5.00000000,
7.00000000,
-24.00000191,
-29.00000000,
11.00000000,
-29.00000000,
-48.00000381,
5.00000000,
35.00000000,
27.00000000,
-20.00000000,
50.00000000,
-58.00000000,
79.00000000,
1.00000000,
-26.00000000,
1.00000000,
-6.00000048,
11.00000000,
-29.00000000,
-11.00000000,
1.00000000,
-37.00000000,
-31.00000000,
-12.00000095,
7.00000000,
-13.00000000,
4.00000000,
-50.00000000,
-47.00000000,
42.00000000,
-40.00000000,
6.00000048,
1.00000000,
-42.00000000,
32.00000000,
-36.00000000,
-9.00000000,
1.00000000,
15.00000000,
21.00000000,
-5.00000000,
13.00000000,
-57.00000381,
-38.99999619,
27.00000000,
-9.00000000,
7.00000000,
-55.00000000,
40.00000000,
-64.00000000,
14.00000000,
-10.00000000,
-12.00000095,
44.00000000,
43.00000000,
-61.00000000,
-15.00000000,
-54.00000000,
60.00000000,
-3.00000024,
62.00000000,
57.00000381,
-72.00000000,
19.00000000,
-111.00000000,
-12.00000095,
-42.00000000,
43.00000000,
82.00000000,
-43.00000000,
27.00000000,
12.00000095,
49.00000000,
8.00000000,
4.00000000,
6.00000048,
27.00000000,
-33.00000000,
0.00000000,
41.00000000,
-27.00000000,
109.00000000,
-26.00000000,
-59.00000000,
84.00000000,
25.00000000,
-82.00000000,
33.00000000,
34.00000000,
-3.00000024,
36.00000000,
-42.00000000,
-21.00000000,
20.00000000,
2.00000000,
-23.00000000,
-40.00000000,
5.00000000,
17.00000000,
-33.00000000,
-1.00000000,
-19.00000000,
6.00000048,
-3.00000024,
-28.00000000,
18.00000000,
-22.00000000,
-45.00000000,
-47.00000000,
-17.00000000,
-54.00000000,
-32.00000000,
-61.00000000,
-9.00000000,
60.00000000,
19.00000000,
-38.99999619,
55.00000000,
-31.00000000,
-48.00000381,
80.00000000,
-24.00000191,
-90.00000000,
50.00000000,
-19.00000000,
-32.00000000,
30.00000000,
-48.00000381,
-53.00000000,
26.00000000,
-13.00000000,
-35.00000000,
19.00000000,
6.00000048,
-10.00000000,
-23.00000000,
63.00000000,
36.00000000,
60.00000000,
40.00000000,
-59.00000000,
42.00000000,
-68.00000000,
58.00000000,
46.00000000,
-77.00000000,
-16.00000000,
0.00000000,
33.00000000,
-38.99999619,
-44.00000000,
68.00000000,
27.00000000,
53.00000000,
-89.00000000,
-26.00000000,
38.99999619,
14.00000000,
-76.00000000,
-10.00000000,
48.00000381,
-43.00000000,
55.00000000,
-22.00000000,
-77.00000000,
28.00000000,
108.00000000,
0.00000000,
-58.00000000,
18.00000000,
49.00000000,
-16.00000000,
38.00000000,
19.00000000,
-66.00000000,
47.00000000,
-7.00000000,
-23.00000000,
-75.00000000,
51.00000000,
12.00000095,
-65.00000000,
28.00000000,
9.00000000,
-54.00000000,
-2.00000000,
-38.99999619,
27.00000000,
-36.00000000,
-7.00000000,
28.00000000,
-20.00000000,
-15.00000000,
14.00000000,
9.00000000,
48.00000381,
-2.00000000,
0.00000000,
-22.00000000,
-106.00000000,
-18.00000000,
2.00000000,
95.00000000,
29.00000000,
-52.00000000,
57.00000381,
22.00000000,
-15.00000000,
-18.00000000,
21.00000000,
79.00000000,
-89.00000000,
-33.00000000,
73.00000000,
-16.00000000,
-44.00000000,
-2.00000000,
-21.00000000,
1.00000000,
12.00000095,
17.00000000,
-14.00000000,
-10.00000000,
1.00000000,
26.00000000,
13.00000000,
-2.00000000,
40.00000000,
18.00000000,
-49.00000000,
22.00000000,
40.00000000,
40.00000000,
-48.00000381,
-2.00000000,
0.00000000,
25.00000000,
35.00000000,
-5.00000000,
-27.00000000,
-49.00000000,
30.00000000,
35.00000000,
-20.00000000,
2.00000000,
28.00000000,
-11.00000000,
-44.00000000,
24.00000191,
30.00000000,
-1.00000000,
-38.99999619,
-9.00000000,
-36.00000000,
20.00000000,
3.00000024,
-2.00000000,
8.00000000,
9.00000000,
-5.00000000,
-28.00000000,
-23.00000000,
17.00000000,
7.00000000,
16.00000000,
-19.00000000,
-15.00000000,
-22.00000000,
-18.00000000,
3.00000024,
11.00000000,
1.00000000,
32.00000000,
35.00000000,
-12.00000095,
-61.00000000,
-52.00000000,
33.00000000,
22.00000000,
-46.00000000,
22.00000000,
8.00000000,
31.00000000,
8.00000000,
-83.00000000,
0.00000000,
-18.00000000,
50.00000000,
64.00000000,
-95.00000000,
37.00000000,
-28.00000000,
31.00000000,
-2.00000000,
-45.00000000,
54.00000000,
-52.00000000,
10.00000000,
-22.00000000,
12.00000095,
-123.00000000,
34.00000000,
73.00000000,
48.00000381,
12.00000095,
-111.00000000,
-5.00000000,
-20.00000000,
-35.00000000,
24.00000191,
-38.99999619,
27.00000000,
-26.00000000,
65.00000000,
20.00000000,
-30.00000000,
0.00000000,
-20.00000000,
65.00000000,
-15.00000000,
-76.00000000,
-102.00000000,
53.00000000,
34.00000000,
17.00000000,
10.00000000,
-47.00000000,
27.00000000,
-6.00000048,
-8.00000000,
17.00000000,
-17.00000000,
20.00000000,
-18.00000000,
-69.00000000,
13.00000000,
64.00000000,
42.00000000,
-72.00000000,
-48.00000381,
-5.00000000,
57.00000381,
7.00000000,
-5.00000000,
-34.00000000,
-2.00000000,
-38.99999619,
44.00000000,
-17.00000000,
58.00000000,
-16.00000000,
-22.00000000,
44.00000000,
27.00000000,
23.00000000,
-8.00000000,
-34.00000000,
2.00000000,
-61.00000000,
20.00000000,
2.00000000,
-5.00000000,
-9.00000000,
14.00000000,
-10.00000000,
14.00000000,
10.00000000,
23.00000000,
18.00000000,
1.00000000,
3.00000024,
25.00000000,
13.00000000,
-38.99999619,
-8.00000000,
-5.00000000,
-31.00000000,
8.00000000,
-30.00000000,
12.00000095,
20.00000000,
-44.00000000,
-2.00000000,
43.00000000,
-42.00000000,
9.00000000,
21.00000000,
0.00000000,
3.00000024,
-20.00000000,
61.00000000,
4.00000000,
-38.00000000,
53.00000000,
-14.00000000,
-44.00000000,
-12.00000095,
-4.00000000,
-8.00000000,
-32.00000000,
33.00000000,
-34.00000000,
14.00000000,
-16.00000000,
-16.00000000,
16.00000000,
18.00000000,
2.00000000,
15.00000000,
-8.00000000,
-4.00000000,
-8.00000000,
-16.00000000,
0.00000000,
-26.00000000,
-24.00000191,
74.00000000,
-70.00000000,
-50.00000000,
96.00000763,
-20.00000000,
-38.99999619,
79.00000000,
32.00000000,
-17.00000000,
-77.99999237,
96.00000763,
12.00000095,
-75.00000000,
86.00000000,
5.00000000,
-64.00000000,
-25.00000000,
-16.00000000,
17.00000000,
-15.00000000,
27.00000000,
46.00000000,
-36.00000000,
23.00000000,
32.00000000,
-41.00000000,
12.00000095,
-7.00000000,
-44.00000000,
0.00000000,
2.00000000,
-6.00000048,
0.00000000,
7.00000000,
-16.00000000,
7.00000000,
-19.00000000,
-7.00000000,
-1.00000000,
-37.00000000,
-4.00000000,
11.00000000,
5.00000000,
4.00000000,
22.00000000,
-31.00000000,
43.00000000,
4.00000000,
-43.00000000,
26.00000000,
19.00000000,
-28.00000000,
14.00000000,
-13.00000000,
5.00000000,
10.00000000,
26.00000000,
34.00000000,
-15.00000000,
0.00000000,
6.00000048,
-58.00000000,
33.00000000,
-7.00000000,
-31.00000000,
62.00000000,
-10.00000000,
-33.00000000,
38.99999619,
-26.00000000,
-1.00000000,
-45.00000000,
-20.00000000,
-11.00000000,
-80.00000000,
6.00000048,
28.00000000,
-43.00000000,
12.00000095,
19.00000000,
-29.00000000,
35.00000000,
40.00000000,
-43.00000000,
9.00000000,
51.00000000,
-37.00000000,
6.00000048,
30.00000000,
3.00000024,
-3.00000024,
-19.00000000,
-2.00000000,
17.00000000,
-16.00000000,
10.00000000,
-37.00000000,
-30.00000000,
-59.00000000,
-14.00000000,
-9.00000000,
38.99999619,
24.00000191,
-5.00000000,
-15.00000000,
8.00000000,
15.00000000,
15.00000000,
9.00000000,
28.00000000,
18.00000000,
-12.00000095,
44.00000000,
-8.00000000,
-25.00000000,
32.00000000,
85.00000000,
8.00000000,
68.00000000,
81.00000000,
-60.00000000,
27.00000000,
-13.00000000,
-24.00000191,
-32.00000000,
18.00000000,
-3.00000024,
-27.00000000,
-9.00000000,
-23.00000000,
-26.00000000,
31.00000000,
9.00000000,
-49.00000000,
1.00000000,
21.00000000,
8.00000000,
45.00000000,
54.00000000,
41.00000000,
24.00000191,
25.00000000,
-60.00000000,
51.00000000,
54.00000000,
11.00000000,
20.00000000,
-24.00000191,
33.00000000,
2.00000000,
-46.00000000,
10.00000000,
7.00000000,
32.00000000,
20.00000000,
-23.00000000,
2.00000000,
4.00000000,
-36.00000000,
-30.00000000,
-3.00000024,
28.00000000,
8.00000000,
-11.00000000,
28.00000000,
14.00000000,
-30.00000000,
-7.00000000,
13.00000000,
16.00000000,
-20.00000000,
-28.00000000,
38.00000000,
-13.00000000,
10.00000000,
16.00000000,
-9.00000000,
-1.00000000,
-7.00000000,
-43.00000000,
-21.00000000,
-8.00000000,
-50.00000000,
18.00000000,
-57.00000381,
-19.00000000,
-23.00000000,
-3.00000024,
16.00000000,
6.00000048,
33.00000000,
7.00000000,
-12.00000095,
17.00000000,
-10.00000000,
-24.00000191,
-18.00000000,
-19.00000000,
-13.00000000,
-4.00000000,
-22.00000000,
-10.00000000,
-38.99999619,
-16.00000000,
14.00000000,
-16.00000000,
7.00000000,
-21.00000000,
-49.00000000,
3.00000024,
5.00000000,
-44.00000000,
30.00000000,
-6.00000048,
45.00000000,
23.00000000,
-5.00000000,
32.00000000,
27.00000000,
-49.00000000,
-19.00000000,
-65.00000000,
-38.00000000,
-41.00000000,
48.00000381,
33.00000000,
33.00000000,
46.00000000,
-1.00000000,
14.00000000,
-32.00000000,
-17.00000000,
-33.00000000,
13.00000000,
11.00000000,
-41.00000000,
-23.00000000,
-47.00000000,
-10.00000000,
1.00000000,
41.00000000,
-64.00000000,
-49.00000000,
-20.00000000,
-42.00000000,
53.00000000,
76.00000000,
-20.00000000,
6.00000048,
57.00000381,
-57.00000381,
-26.00000000,
10.00000000,
-67.00000000,
-25.00000000,
-19.00000000,
-62.00000000,
-12.00000095,
-5.00000000,
-41.00000000,
-23.00000000,
9.00000000,
-58.00000000,
-23.00000000,
1.00000000,
-41.00000000,
-27.00000000,
-2.00000000,
47.00000000,
-21.00000000,
-30.00000000,
-11.00000000,
-54.00000000,
8.00000000,
8.00000000,
-25.00000000,
13.00000000,
-77.99999237,
-38.00000000,
-36.00000000,
-53.00000000,
21.00000000,
48.00000381,
-40.00000000,
8.00000000,
43.00000000,
-108.00000000,
-13.00000000,
-6.00000048,
-79.00000000,
1.00000000,
29.00000000,
-35.00000000,
29.00000000,
49.00000000,
-23.00000000,
26.00000000,
33.00000000,
-17.00000000,
31.00000000,
-3.00000024,
17.00000000,
52.00000000,
-10.00000000,
-50.00000000,
17.00000000,
5.00000000,
-6.00000048,
5.00000000,
-23.00000000,
-1.00000000,
26.00000000,
-59.00000000,
-95.00000000,
-118.00000000,
-10.00000000,
-61.00000000,
-102.00000000,
4.00000000,
34.00000000,
24.00000191,
27.00000000,
-17.00000000,
-37.00000000,
-36.00000000,
-17.00000000,
-44.00000000,
-28.00000000,
26.00000000,
25.00000000,
37.00000000,
25.00000000,
12.00000095,
-16.00000000,
-45.00000000,
-38.99999619,
-19.00000000,
15.00000000,
-4.00000000,
14.00000000,
-11.00000000,
-64.00000000,
56.00000000,
33.00000000,
-35.00000000,
36.00000000,
22.00000000,
9.00000000,
-11.00000000,
-2.00000000,
20.00000000,
41.00000000,
-10.00000000,
10.00000000,
4.00000000,
-4.00000000,
43.00000000,
29.00000000,
14.00000000,
38.99999619,
24.00000191,
4.00000000,
28.00000000,
13.00000000,
54.00000000,
18.00000000,
-19.00000000,
-67.00000000,
32.00000000,
40.00000000,
9.00000000,
-12.00000095,
20.00000000,
-12.00000095,
-7.00000000,
-51.00000000,
-47.00000000,
-44.00000000,
-28.00000000,
-21.00000000,
25.00000000,
45.00000000,
0.00000000,
-17.00000000,
77.00000000,
11.00000000,
10.00000000,
-23.00000000,
-20.00000000,
8.00000000,
-55.00000000,
34.00000000,
23.00000000,
-21.00000000,
24.00000191,
-29.00000000,
-23.00000000,
50.00000000,
-25.00000000,
9.00000000,
12.00000095,
20.00000000,
26.00000000,
-72.00000000,
-116.00000000,
10.00000000,
-62.00000000,
-52.00000000,
83.00000000,
-25.00000000,
109.00000000,
123.00000000,
32.00000000,
29.00000000,
-26.00000000,
-32.00000000,
-16.00000000,
-27.00000000,
-16.00000000,
18.00000000,
57.00000381,
-11.00000000,
41.00000000,
-1.00000000,
-19.00000000,
45.00000000,
-6.00000048,
50.00000000,
36.00000000,
-50.00000000,
22.00000000,
17.00000000,
-21.00000000,
32.00000000,
-3.00000024,
-9.00000000,
-4.00000000,
1.00000000,
-42.00000000,
13.00000000,
4.00000000,
10.00000000,
-29.00000000,
-23.00000000,
-24.00000191,
8.00000000,
31.00000000,
-38.00000000,
-58.00000000,
-35.00000000,
14.00000000,
-59.00000000,
-6.00000048,
-2.00000000,
5.00000000,
43.00000000,
48.00000381,
-51.00000000,
-38.00000000,
32.00000000,
-55.00000000,
24.00000191,
88.00000000,
-50.00000000,
56.00000000,
86.00000000,
-29.00000000,
-41.00000000,
6.00000048,
-50.00000000,
-26.00000000,
13.00000000,
-21.00000000,
27.00000000,
42.00000000,
32.00000000,
6.00000048,
-29.00000000,
-12.00000095,
-70.00000000,
-55.00000000,
7.00000000,
-42.00000000,
-14.00000000,
21.00000000,
-36.00000000,
-20.00000000,
-52.00000000,
-44.00000000,
-1.00000000,
-42.00000000,
-10.00000000,
44.00000000,
-10.00000000,
-29.00000000,
4.00000000,
-58.00000000,
36.00000000,
9.00000000,
-38.99999619,
40.00000000,
8.00000000,
-35.00000000,
-21.00000000,
-21.00000000,
-18.00000000,
-29.00000000,
-4.00000000,
-22.00000000,
22.00000000,
0.00000000,
-11.00000000,
-32.00000000,
-15.00000000,
45.00000000,
22.00000000,
-17.00000000,
28.00000000,
12.00000095,
-20.00000000,
-34.00000000,
3.00000024,
2.00000000,
-6.00000048,
17.00000000,
30.00000000,
4.00000000,
9.00000000,
-25.00000000,
30.00000000,
-8.00000000,
22.00000000,
-11.00000000,
12.00000095,
6.00000048,
-28.00000000,
-7.00000000,
-2.00000000,
-11.00000000,
17.00000000,
6.00000048,
-3.00000024,
-4.00000000,
-27.00000000,
0.00000000,
7.00000000,
20.00000000,
-6.00000048,
11.00000000,
-1.00000000,
-14.00000000,
20.00000000,
0.00000000,
4.00000000,
24.00000191,
-18.00000000,
-25.00000000,
-1.00000000,
13.00000000,
0.00000000,
25.00000000,
12.00000095,
24.00000191,
-5.00000000,
-15.00000000,
30.00000000,
26.00000000,
14.00000000,
-20.00000000,
-8.00000000,
-18.00000000,
-17.00000000,
-12.00000095,
7.00000000,
12.00000095,
46.00000000,
0.00000000,
-66.00000000,
-81.00000000,
-32.00000000,
-1.00000000,
32.00000000,
27.00000000,
3.00000024,
8.00000000,
5.00000000,
-10.00000000,
-18.00000000,
6.00000048,
-31.00000000,
-9.00000000,
17.00000000,
11.00000000,
-6.00000048,
-19.00000000,
16.00000000,
-22.00000000,
7.00000000,
-2.00000000,
-37.00000000,
-27.00000000,
-21.00000000,
-7.00000000,
31.00000000,
47.00000000,
31.00000000,
13.00000000,
-76.00000000,
-88.00000000,
-77.00000000,
-5.00000000,
-8.00000000,
-17.00000000,
-21.00000000,
14.00000000,
13.00000000,
-1.00000000,
-21.00000000,
-11.00000000,
-22.00000000,
10.00000000,
-12.00000095,
-52.00000000,
-51.00000000,
-43.00000000,
4.00000000,
47.00000000,
36.00000000,
7.00000000,
14.00000000,
-5.00000000,
0.00000000,
2.00000000,
-23.00000000,
13.00000000,
14.00000000,
-22.00000000,
31.00000000,
9.00000000,
11.00000000,
-15.00000000,
-36.00000000,
-9.00000000,
13.00000000,
6.00000048,
26.00000000,
-2.00000000,
1.00000000,
-17.00000000,
-1.00000000,
-10.00000000,
18.00000000,
15.00000000,
2.00000000,
19.00000000,
20.00000000,
-7.00000000,
-9.00000000,
-4.00000000,
-17.00000000,
-26.00000000,
14.00000000,
-2.00000000,
8.00000000,
-28.00000000,
15.00000000,
2.00000000,
-21.00000000,
-21.00000000,
-6.00000048,
-18.00000000,
-43.00000000,
25.00000000,
19.00000000,
-14.00000000,
2.00000000,
6.00000048,
-41.00000000,
-32.00000000,
-19.00000000,
-31.00000000,
-23.00000000,
6.00000048,
-12.00000095,
9.00000000,
-38.00000000,
-19.00000000,
-19.00000000,
-40.00000000,
-21.00000000,
-31.00000000,
44.00000000,
30.00000000,
-1.00000000,
36.00000000,
4.00000000,
13.00000000,
3.00000024,
-26.00000000,
-11.00000000,
-20.00000000,
9.00000000,
38.00000000,
-36.00000000,
18.00000000,
41.00000000,
-19.00000000,
3.00000024,
17.00000000,
1.00000000,
13.00000000,
-20.00000000,
12.00000095,
-11.00000000,
2.00000000,
30.00000000,
-25.00000000,
-6.00000048,
13.00000000,
-4.00000000,
-13.00000000,
16.00000000,
-8.00000000,
-19.00000000,
5.00000000,
-22.00000000,
-2.00000000,
-4.00000000,
-7.00000000,
-1.00000000,
-4.00000000,
-8.00000000,
-6.00000048,
-19.00000000,
1.00000000,
-16.00000000,
37.00000000,
7.00000000,
33.00000000,
13.00000000,
8.00000000,
31.00000000,
8.00000000,
17.00000000,
-5.00000000,
4.00000000,
-55.00000000,
-40.00000000,
-24.00000191,
-64.00000000,
-15.00000000,
-45.00000000,
-56.00000000,
-32.00000000,
3.00000024,
4.00000000,
-2.00000000,
5.00000000,
-17.00000000,
16.00000000,
-15.00000000,
-40.00000000,
-20.00000000,
-16.00000000,
-12.00000095,
-8.00000000,
-40.00000000,
-35.00000000,
-18.00000000,
-57.00000381,
-50.00000000,
1.00000000,
-47.00000000,
-57.00000381,
-7.00000000,
-82.00000000,
-77.99999237,
-45.00000000,
-72.00000000,
-81.00000000,
-37.00000000,
3.00000024,
-22.00000000,
-26.00000000,
11.00000000,
-4.00000000,
7.00000000,
-1.00000000,
-3.00000024,
-4.00000000,
6.00000048,
49.00000000,
25.00000000,
35.00000000,
34.00000000,
2.00000000,
5.00000000,
7.00000000,
-1.00000000,
22.00000000,
2.00000000,
-11.00000000,
-15.00000000,
-7.00000000,
1.00000000,
27.00000000,
-8.00000000,
15.00000000,
17.00000000,
-2.00000000,
23.00000000,
20.00000000,
12.00000095,
24.00000191,
19.00000000,
31.00000000,
36.00000000,
3.00000024,
36.00000000,
2.00000000,
12.00000095,
38.99999619,
6.00000048,
63.00000000,
27.00000000,
30.00000000,
-3.00000024,
-8.00000000,
-4.00000000,
24.00000191,
17.00000000,
9.00000000,
18.00000000,
10.00000000,
-9.00000000,
-12.00000095,
-28.00000000,
13.00000000,
28.00000000,
5.00000000,
-9.00000000,
33.00000000,
-32.00000000,
-16.00000000,
-25.00000000,
5.00000000,
-24.00000191,
2.00000000,
-23.00000000,
-6.00000048,
29.00000000,
42.00000000,
36.00000000,
30.00000000,
-6.00000048,
-9.00000000,
8.00000000,
31.00000000,
-11.00000000,
23.00000000,
36.00000000,
25.00000000,
2.00000000,
15.00000000,
-28.00000000,
-4.00000000,
50.00000000,
15.00000000,
29.00000000,
38.00000000,
1.00000000,
-4.00000000,
7.00000000,
6.00000048,
-5.00000000,
-10.00000000,
15.00000000,
-20.00000000,
12.00000095,
18.00000000,
-43.00000000,
-28.00000000,
-21.00000000,
-7.00000000,
-11.00000000,
-3.00000024,
56.00000000,
-22.00000000,
8.00000000,
4.00000000,
35.00000000,
-13.00000000,
2.00000000,
5.00000000,
21.00000000,
29.00000000,
15.00000000,
25.00000000,
-27.00000000,
5.00000000,
8.00000000,
-14.00000000,
28.00000000,
-2.00000000,
11.00000000,
12.00000095,
31.00000000,
-2.00000000,
-13.00000000,
8.00000000,
51.00000000,
20.00000000,
10.00000000,
32.00000000,
36.00000000,
21.00000000,
-8.00000000,
29.00000000,
-8.00000000,
26.00000000,
14.00000000,
-4.00000000,
42.00000000,
35.00000000,
-21.00000000,
1.00000000,
-2.00000000,
17.00000000,
-20.00000000,
32.00000000,
16.00000000,
37.00000000,
42.00000000,
-7.00000000,
-28.00000000,
-52.00000000,
-20.00000000,
12.00000095,
-18.00000000,
29.00000000,
40.00000000,
24.00000191,
-8.00000000,
-25.00000000,
1.00000000,
-9.00000000,
20.00000000,
-9.00000000,
-14.00000000,
-17.00000000,
35.00000000,
-35.00000000,
-33.00000000,
20.00000000,
1.00000000,
-9.00000000,
-8.00000000,
-9.00000000,
-10.00000000,
-17.00000000,
-46.00000000,
24.00000191,
43.00000000,
57.00000381,
5.00000000,
-41.00000000,
49.00000000,
-15.00000000,
6.00000048,
17.00000000,
13.00000000,
14.00000000,
11.00000000,
-3.00000024,
28.00000000,
64.00000000,
-53.00000000,
-18.00000000,
30.00000000,
-6.00000048,
-29.00000000,
19.00000000,
-42.00000000,
-55.00000000,
-18.00000000,
-109.00000000,
-89.00000000,
-70.00000000,
6.00000048,
3.00000024,
25.00000000,
-7.00000000,
10.00000000,
35.00000000,
-30.00000000,
-12.00000095,
-57.00000381,
-13.00000000,
16.00000000,
-4.00000000,
-50.00000000,
-7.00000000,
33.00000000,
-52.00000000,
-48.00000381,
-7.00000000,
-48.00000381,
12.00000095,
8.00000000,
-48.00000381,
-4.00000000,
34.00000000,
-12.00000095,
-12.00000095,
60.00000000,
-30.00000000,
-30.00000000,
5.00000000,
-12.00000095,
-2.00000000,
4.00000000,
-47.00000000,
-57.00000381,
7.00000000,
-19.00000000,
-37.00000000,
46.00000000,
-55.00000000,
-114.00000763,
-87.00000000,
-92.00000000,
-104.00000000,
-80.00000000,
-5.00000000,
5.00000000,
6.00000048,
-21.00000000,
12.00000095,
34.00000000,
-22.00000000,
-1.00000000,
6.00000048,
17.00000000,
1.00000000,
7.00000000,
17.00000000,
-10.00000000,
-43.00000000,
-2.00000000,
-28.00000000,
-28.00000000,
-17.00000000,
8.00000000,
55.00000000,
42.00000000,
-6.00000048,
58.00000000,
-1.00000000,
11.00000000,
-38.00000000,
13.00000000,
41.00000000,
1.00000000,
2.00000000,
32.00000000,
26.00000000,
-24.00000191,
4.00000000,
40.00000000,
-38.00000000,
10.00000000,
28.00000000,
-8.00000000,
-38.00000000,
-38.00000000,
7.00000000,
-1.00000000,
-37.00000000,
28.00000000,
7.00000000,
-1.00000000,
-30.00000000,
-48.00000381,
-59.00000000,
11.00000000,
-14.00000000,
-65.00000000,
4.00000000,
26.00000000,
2.00000000,
-23.00000000,
2.00000000,
9.00000000,
6.00000048,
16.00000000,
38.99999619,
17.00000000,
8.00000000,
8.00000000,
8.00000000,
-2.00000000,
-29.00000000,
-5.00000000,
2.00000000,
-17.00000000,
-18.00000000,
28.00000000,
3.00000024,
-28.00000000,
30.00000000,
28.00000000,
-48.00000381,
25.00000000,
2.00000000,
-9.00000000,
-25.00000000,
-12.00000095,
5.00000000,
-8.00000000,
-27.00000000,
11.00000000,
1.00000000,
-4.00000000,
-12.00000095,
-4.00000000,
-7.00000000,
-10.00000000,
8.00000000,
-25.00000000,
8.00000000,
32.00000000,
-23.00000000,
9.00000000,
-1.00000000,
7.00000000,
33.00000000,
-10.00000000,
-38.99999619,
22.00000000,
8.00000000,
-38.00000000,
-58.00000000,
-13.00000000,
-6.00000048,
-41.00000000,
16.00000000,
2.00000000,
-12.00000095,
17.00000000,
19.00000000,
-15.00000000,
6.00000048,
-27.00000000,
20.00000000,
10.00000000,
-13.00000000,
-13.00000000,
3.00000024,
14.00000000,
-42.00000000,
34.00000000,
-4.00000000,
-35.00000000,
64.00000000,
13.00000000,
-38.00000000,
26.00000000,
12.00000095,
-9.00000000,
46.00000000,
-30.00000000,
32.00000000,
117.00000000,
8.00000000,
20.00000000,
89.00000000,
-5.00000000,
4.00000000,
-20.00000000,
12.00000095,
3.00000024,
-26.00000000,
-14.00000000,
14.00000000,
11.00000000,
-4.00000000,
-14.00000000,
-15.00000000,
9.00000000,
-48.00000381,
2.00000000,
-4.00000000,
-31.00000000,
-28.00000000,
-5.00000000,
43.00000000,
-12.00000095,
13.00000000,
9.00000000,
-22.00000000,
-6.00000048,
4.00000000,
-21.00000000,
5.00000000,
11.00000000,
-27.00000000,
4.00000000,
-7.00000000,
-30.00000000,
10.00000000,
-1.00000000,
8.00000000,
4.00000000,
14.00000000,
-79.00000000,
24.00000191,
50.00000000,
-73.00000000,
16.00000000,
59.00000000,
-63.00000000,
26.00000000,
-13.00000000,
1.00000000,
-51.00000000,
-33.00000000,
37.00000000,
-34.00000000,
-27.00000000,
23.00000000,
-42.00000000,
-37.00000000,
22.00000000,
-11.00000000,
-66.00000000,
68.00000000,
-11.00000000,
-28.00000000,
74.00000000,
-5.00000000,
-21.00000000,
9.00000000,
-19.00000000,
23.00000000,
-11.00000000,
-19.00000000,
11.00000000,
-6.00000048,
4.00000000,
14.00000000,
-15.00000000,
20.00000000,
5.00000000,
7.00000000,
20.00000000,
-15.00000000,
-4.00000000,
3.00000024,
54.00000000,
-25.00000000,
-18.00000000,
10.00000000,
15.00000000,
3.00000024,
-18.00000000,
-16.00000000,
-6.00000048,
-22.00000000,
-12.00000095,
-20.00000000,
-5.00000000,
16.00000000,
6.00000048,
19.00000000,
29.00000000,
28.00000000,
-12.00000095,
27.00000000,
13.00000000,
16.00000000,
18.00000000,
-17.00000000,
-8.00000000,
8.00000000,
2.00000000,
-12.00000095,
-15.00000000,
20.00000000,
-8.00000000,
-20.00000000,
12.00000095,
-22.00000000,
-3.00000024,
18.00000000,
-40.00000000,
-47.00000000,
-35.00000000,
59.00000000,
26.00000000,
41.00000000,
-2.00000000,
-12.00000095,
-4.00000000,
29.00000000,
25.00000000,
2.00000000,
1.00000000,
-10.00000000,
5.00000000,
-29.00000000,
-43.00000000,
-28.00000000,
10.00000000,
23.00000000,
9.00000000,
5.00000000,
-9.00000000,
-5.00000000,
14.00000000,
-14.00000000,
-13.00000000,
38.00000000,
46.00000000,
3.00000024,
-52.00000000,
-52.00000000,
-77.00000000,
-6.00000048,
14.00000000,
-9.00000000,
36.00000000,
-17.00000000,
20.00000000,
-8.00000000,
-24.00000191,
-8.00000000,
1.00000000,
-21.00000000,
0.00000000,
-73.00000000,
-82.00000000,
-52.00000000,
49.00000000,
72.00000000,
35.00000000,
-16.00000000,
-29.00000000,
-27.00000000,
-26.00000000,
-34.00000000,
-40.00000000,
21.00000000,
14.00000000,
16.00000000,
55.00000000,
32.00000000,
16.00000000,
-7.00000000,
-37.00000000,
29.00000000,
-11.00000000,
25.00000000,
13.00000000,
-19.00000000,
-17.00000000,
19.00000000,
-2.00000000,
26.00000000,
15.00000000,
-21.00000000,
-21.00000000,
-18.00000000,
-10.00000000,
4.00000000,
-10.00000000,
2.00000000,
14.00000000,
11.00000000,
1.00000000,
17.00000000,
22.00000000,
-26.00000000,
-26.00000000,
-12.00000095,
31.00000000,
0.00000000,
-17.00000000,
-21.00000000,
5.00000000,
-14.00000000,
-49.00000000,
-15.00000000,
-6.00000048,
4.00000000,
4.00000000,
20.00000000,
88.00000000,
-10.00000000,
-27.00000000,
40.00000000,
-31.00000000,
-16.00000000,
-21.00000000,
8.00000000,
6.00000048,
-2.00000000,
-12.00000095,
-46.00000000,
16.00000000,
-29.00000000,
0.00000000,
33.00000000,
19.00000000,
1.00000000,
4.00000000,
-25.00000000,
18.00000000,
4.00000000,
-12.00000095,
-4.00000000,
8.00000000,
-25.00000000,
8.00000000,
12.00000095,
-37.00000000,
37.00000000,
-22.00000000,
-41.00000000,
-13.00000000,
43.00000000,
29.00000000,
-5.00000000,
25.00000000,
27.00000000,
-10.00000000,
-26.00000000,
-23.00000000,
-28.00000000,
38.00000000,
1.00000000,
14.00000000,
-18.00000000,
2.00000000,
-43.00000000,
-27.00000000,
-59.00000000,
-25.00000000,
38.99999619,
-17.00000000,
-14.00000000,
-5.00000000,
9.00000000,
-4.00000000,
17.00000000,
-25.00000000,
-22.00000000,
-29.00000000,
-42.00000000,
-25.00000000,
47.00000000,
18.00000000,
-32.00000000,
26.00000000,
-11.00000000,
-13.00000000,
2.00000000,
16.00000000,
22.00000000,
-4.00000000,
55.00000000,
31.00000000,
-6.00000048,
53.00000000,
-18.00000000,
-18.00000000,
34.00000000,
0.00000000,
-33.00000000,
-12.00000095,
-48.00000381,
-5.00000000,
-7.00000000,
-52.00000000,
-24.00000191,
-42.00000000,
-35.00000000,
-28.00000000,
-53.00000000,
-16.00000000,
-29.00000000,
-33.00000000,
-8.00000000,
-26.00000000,
-6.00000048,
1.00000000,
-34.00000000,
-1.00000000,
-9.00000000,
23.00000000,
15.00000000,
-22.00000000,
-27.00000000,
52.00000000,
35.00000000,
0.00000000,
59.00000000,
21.00000000,
-5.00000000,
18.00000000,
-23.00000000,
48.00000381,
52.00000000,
-36.00000000,
25.00000000,
-22.00000000,
-11.00000000,
18.00000000,
-9.00000000,
-4.00000000,
51.00000000,
6.00000048,
-18.00000000,
7.00000000,
-30.00000000,
-22.00000000,
4.00000000,
-28.00000000,
-14.00000000,
-59.00000000,
-17.00000000,
-21.00000000,
-17.00000000,
17.00000000,
37.00000000,
-47.00000000,
-1.00000000,
28.00000000,
19.00000000,
13.00000000,
12.00000095,
-10.00000000,
19.00000000,
-28.00000000,
-23.00000000,
5.00000000,
0.00000000,
-15.00000000,
-30.00000000,
-27.00000000,
-11.00000000,
-47.00000000,
-16.00000000,
6.00000048,
17.00000000,
-11.00000000,
6.00000048,
24.00000191,
40.00000000,
0.00000000,
29.00000000,
61.00000000,
38.00000000,
87.00000000,
18.00000000,
-62.00000000,
6.00000048,
-27.00000000,
6.00000048,
5.00000000,
7.00000000,
9.00000000,
-7.00000000,
25.00000000,
6.00000048,
9.00000000,
30.00000000,
16.00000000,
15.00000000,
-17.00000000,
19.00000000,
5.00000000,
10.00000000,
23.00000000,
-9.00000000,
-3.00000024,
-17.00000000,
-15.00000000,
-62.00000000,
6.00000048,
-7.00000000,
-17.00000000,
23.00000000,
-11.00000000,
-8.00000000,
13.00000000,
-9.00000000,
5.00000000,
-5.00000000,
13.00000000,
0.00000000,
46.00000000,
47.00000000,
18.00000000,
-13.00000000,
29.00000000,
27.00000000,
27.00000000,
13.00000000,
22.00000000,
-15.00000000,
6.00000048,
-17.00000000,
-18.00000000,
-1.00000000,
-23.00000000,
-7.00000000,
-11.00000000,
-5.00000000,
-35.00000000,
-12.00000095,
14.00000000,
2.00000000,
8.00000000,
48.00000381,
-18.00000000,
21.00000000,
35.00000000,
-49.00000000,
-102.00000000,
-42.00000000,
-65.00000000,
-55.00000000,
-56.00000000,
-2.00000000,
-25.00000000,
-27.00000000,
-42.00000000,
-74.00000000,
-61.00000000,
-60.00000000,
-67.00000000,
-55.00000000,
-61.00000000,
-46.00000000,
-6.00000048,
-8.00000000,
2.00000000,
18.00000000,
1.00000000,
-9.00000000,
-27.00000000,
13.00000000,
-21.00000000,
-9.00000000,
25.00000000,
-11.00000000,
18.00000000,
5.00000000,
44.00000000,
56.00000000,
17.00000000,
37.00000000,
26.00000000,
20.00000000,
-6.00000048,
1.00000000,
8.00000000,
1.00000000,
-21.00000000,
4.00000000,
-14.00000000,
-13.00000000,
-21.00000000,
-29.00000000,
14.00000000,
-23.00000000,
-2.00000000,
3.00000024,
-2.00000000,
16.00000000,
-19.00000000,
38.00000000,
18.00000000,
9.00000000,
25.00000000,
-1.00000000,
-19.00000000,
-11.00000000,
-32.00000000,
-30.00000000,
52.00000000,
7.00000000,
-31.00000000,
41.00000000,
-14.00000000,
-28.00000000,
10.00000000,
-18.00000000,
-35.00000000,
1.00000000,
30.00000000,
1.00000000,
-4.00000000,
-19.00000000,
-23.00000000,
-32.00000000,
-42.00000000,
-19.00000000,
-6.00000048,
-20.00000000,
32.00000000,
1.00000000,
21.00000000,
49.00000000,
9.00000000,
-20.00000000,
0.00000000,
13.00000000,
-26.00000000,
-35.00000000,
23.00000000,
-13.00000000,
-10.00000000,
22.00000000,
-61.00000000,
-33.00000000,
18.00000000,
-25.00000000,
-14.00000000,
15.00000000,
-18.00000000,
-10.00000000,
-24.00000191,
11.00000000,
3.00000024,
1.00000000,
-23.00000000,
-10.00000000,
29.00000000,
-3.00000024,
-51.00000000,
-6.00000048,
-13.00000000,
4.00000000,
-9.00000000,
-2.00000000,
4.00000000,
-38.99999619,
-54.00000000,
-58.00000000,
-40.00000000,
-84.00000000,
-54.00000000,
-28.00000000,
27.00000000,
22.00000000,
14.00000000,
0.00000000,
-13.00000000,
26.00000000,
-8.00000000,
8.00000000,
8.00000000,
-29.00000000,
-20.00000000,
-1.00000000,
-41.00000000,
-34.00000000,
-1.00000000,
-32.00000000,
7.00000000,
24.00000191,
25.00000000,
-21.00000000,
-26.00000000,
13.00000000,
-4.00000000,
-25.00000000,
-43.00000000,
-11.00000000,
15.00000000,
2.00000000,
-4.00000000,
36.00000000,
15.00000000,
2.00000000,
22.00000000,
-4.00000000,
6.00000048,
19.00000000,
9.00000000,
25.00000000,
45.00000000,
22.00000000,
-24.00000191,
20.00000000,
-9.00000000,
-16.00000000,
3.00000024,
-23.00000000,
-66.00000000,
-32.00000000,
-90.00000000,
-94.00000000,
-47.00000000,
-67.00000000,
-42.00000000,
5.00000000,
8.00000000,
9.00000000,
21.00000000,
-43.00000000,
-33.00000000,
-19.00000000,
-52.00000000,
-13.00000000,
7.00000000,
19.00000000,
-3.00000024,
21.00000000,
-11.00000000,
-2.00000000,
6.00000048,
6.00000048,
-17.00000000,
-19.00000000,
-26.00000000,
-52.00000000,
-14.00000000,
-27.00000000,
-27.00000000,
-1.00000000,
29.00000000,
15.00000000,
-4.00000000,
-15.00000000,
-1.00000000,
-15.00000000,
4.00000000,
17.00000000,
25.00000000,
35.00000000,
-17.00000000,
11.00000000,
-12.00000095,
-23.00000000,
-17.00000000,
-23.00000000,
-45.00000000,
-1.00000000,
-13.00000000,
7.00000000,
8.00000000,
16.00000000,
-7.00000000,
16.00000000,
-15.00000000,
-18.00000000,
-9.00000000,
-13.00000000,
-10.00000000,
-34.00000000,
-46.00000000,
-7.00000000,
-11.00000000,
26.00000000,
6.00000048,
13.00000000,
68.00000000,
31.00000000,
-14.00000000,
-45.00000000,
-7.00000000,
-8.00000000,
41.00000000,
20.00000000,
24.00000191,
63.00000000,
16.00000000,
-16.00000000,
-24.00000191,
-4.00000000,
-43.00000000,
-11.00000000,
4.00000000,
28.00000000,
25.00000000,
-1.00000000,
-8.00000000,
-26.00000000,
10.00000000,
-20.00000000,
-33.00000000,
-36.00000000,
-19.00000000,
-4.00000000,
12.00000095,
30.00000000,
-24.00000191,
-56.00000000,
-54.00000000,
-79.00000000,
-11.00000000,
-18.00000000,
26.00000000,
23.00000000,
-13.00000000,
7.00000000,
-27.00000000,
-3.00000024,
-16.00000000,
-30.00000000,
13.00000000,
4.00000000,
-6.00000048,
14.00000000,
-2.00000000,
23.00000000,
27.00000000,
8.00000000,
31.00000000,
42.00000000,
22.00000000,
-18.00000000,
10.00000000,
-3.00000024,
-40.00000000,
-18.00000000,
-29.00000000,
-19.00000000,
21.00000000,
6.00000048,
7.00000000,
4.00000000,
-24.00000191,
-27.00000000,
-15.00000000,
24.00000191,
2.00000000,
-7.00000000,
28.00000000,
16.00000000,
5.00000000,
15.00000000,
22.00000000,
-17.00000000,
14.00000000,
-10.00000000,
38.99999619,
16.00000000,
-2.00000000,
-22.00000000,
-36.00000000,
13.00000000,
-6.00000048,
4.00000000,
5.00000000,
20.00000000,
16.00000000,
6.00000048,
42.00000000,
5.00000000,
51.00000000,
12.00000095,
25.00000000,
23.00000000,
-12.00000095,
14.00000000,
-18.00000000,
-16.00000000,
-1.00000000,
3.00000024,
-20.00000000,
-10.00000000,
20.00000000,
14.00000000,
11.00000000,
26.00000000,
41.00000000,
12.00000095,
8.00000000,
2.00000000,
-18.00000000,
-19.00000000,
-18.00000000,
-24.00000191,
-14.00000000,
23.00000000,
6.00000048,
0.00000000,
-7.00000000,
-62.00000000,
-21.00000000,
-15.00000000,
-31.00000000,
-2.00000000,
11.00000000,
1.00000000,
9.00000000,
17.00000000,
41.00000000,
-1.00000000,
-14.00000000,
17.00000000,
8.00000000,
-22.00000000,
13.00000000,
-10.00000000,
6.00000048,
27.00000000,
4.00000000,
13.00000000,
70.00000000,
50.00000000,
-21.00000000,
1.00000000,
-18.00000000,
22.00000000,
3.00000024,
4.00000000,
0.00000000,
42.00000000,
0.00000000,
-7.00000000,
-21.00000000,
10.00000000,
9.00000000,
-14.00000000,
29.00000000,
4.00000000,
31.00000000,
2.00000000,
22.00000000,
-33.00000000,
10.00000000,
34.00000000,
-49.00000000,
-19.00000000,
12.00000095,
7.00000000,
40.00000000,
-33.00000000,
-55.00000000,
-6.00000048,
-29.00000000,
-9.00000000,
2.00000000,
-32.00000000,
-21.00000000,
3.00000024,
8.00000000,
10.00000000,
9.00000000,
20.00000000,
11.00000000,
-10.00000000,
-32.00000000,
-24.00000191,
1.00000000,
43.00000000,
2.00000000,
-6.00000048,
19.00000000,
12.00000095,
-6.00000048,
-55.00000000,
-59.00000000,
-13.00000000,
-26.00000000,
9.00000000,
47.00000000,
-25.00000000,
-56.00000000,
-24.00000191,
-35.00000000,
-34.00000000,
-1.00000000,
-35.00000000,
-20.00000000,
18.00000000,
-2.00000000,
-7.00000000,
30.00000000,
-35.00000000,
5.00000000,
38.00000000,
20.00000000,
-20.00000000,
38.00000000,
-15.00000000,
-77.99999237,
-8.00000000,
21.00000000,
-38.00000000,
-28.00000000,
-23.00000000,
-9.00000000,
31.00000000,
-16.00000000,
-31.00000000,
-15.00000000,
21.00000000,
30.00000000,
-4.00000000,
