# stage1.refine.conv.weight (shape [24, 24, 3, 3], dtype float32),
8.00000000,
8.00000000,
-4.00000000,
7.00000000,
14.00000000,
-15.00000095,
-12.00000000,
21.00000000,
10.00000000,
-45.00000000,
-12.00000000,
12.00000000,
-4.00000000,
-46.00000000,
3.00000000,
-20.00000000,
-38.00000000,
-16.00000000,
-6.00000000,
21.00000000,
4.00000000,
-30.00000191,
28.00000000,
41.00000000,
-10.00000000,
-7.00000000,
18.00000000,
15.00000095,
21.00000000,
64.00000000,
9.00000000,
27.00000000,
17.00000000,
3.00000000,
23.00000000,
16.00000000,
-1.00000000,
46.00000000,
2.00000000,
42.00000000,
53.00000000,
0.00000000,
20.00000000,
25.00000000,
0.00000000,
16.00000000,
-24.00000000,
9.00000000,
-1.00000000,
-10.00000000,
19.00000000,
-3.00000000,
-5.00000000,
-26.00000000,
-11.00000000,
-31.00000000,
43.00000000,
-21.00000000,
-26.00000000,
-5.00000000,
-65.00000000,
-55.00000000,
-13.00000000,
-6.00000000,
-10.00000000,
29.00000000,
30.00000191,
-15.00000095,
-3.00000000,
42.00000000,
4.00000000,
1.00000000,
-40.00000000,
-2.00000000,
27.00000000,
-9.00000000,
5.00000000,
18.00000000,
-9.00000000,
2.00000000,
29.00000000,
10.00000000,
-8.00000000,
0.00000000,
-28.00000000,
-53.00000000,
-66.00000000,
-24.00000000,
-87.00000000,
-31.00000000,
13.00000000,
1.00000000,
0.00000000,
-9.00000000,
-8.00000000,
16.00000000,
-36.00000000,
-17.00000000,
18.00000000,
26.00000000,
-16.00000000,
2.00000000,
5.00000000,
18.00000000,
-12.00000000,
22.00000000,
3.00000000,
-29.00000000,
-19.00000000,
-10.00000000,
-14.00000000,
-1.00000000,
-6.00000000,
-18.00000000,
-30.00000191,
-38.00000000,
-18.00000000,
-4.00000000,
16.00000000,
-7.00000000,
-40.00000000,
-26.00000000,
28.00000000,
-35.00000000,
0.00000000,
10.00000000,
37.00000000,
5.00000000,
13.00000000,
33.00000000,
-44.00000000,
-27.00000000,
0.00000000,
-42.00000000,
-39.00000000,
-34.00000000,
38.00000000,
36.00000000,
-43.00000000,
5.00000000,
24.00000000,
2.00000000,
22.00000000,
15.00000095,
20.00000000,
9.00000000,
-4.00000000,
17.00000000,
44.00000000,
12.00000000,
56.00000000,
43.00000000,
8.00000000,
15.00000095,
-11.00000000,
-1.00000000,
-13.00000000,
-52.00000000,
-27.00000000,
11.00000000,
-41.00000000,
-75.00000000,
-12.00000000,
25.00000000,
1.00000000,
-51.00000000,
-5.00000000,
-15.00000095,
-16.00000000,
6.00000000,
-31.00000000,
-12.00000000,
-18.00000000,
5.00000000,
-22.00000000,
-11.00000000,
2.00000000,
5.00000000,
-14.00000000,
-18.00000000,
54.00000000,
-9.00000000,
-4.00000000,
4.00000000,
-40.00000000,
6.00000000,
-23.00000000,
-32.00000000,
-12.00000000,
-19.00000000,
-10.00000000,
1.00000000,
-6.00000000,
17.00000000,
27.00000000,
-22.00000000,
22.00000000,
42.00000000,
-24.00000000,
-20.00000000,
-13.00000000,
-16.00000000,
-9.00000000,
27.00000000,
-21.00000000,
1.00000000,
67.00000000,
13.00000000,
-4.00000000,
-4.00000000,
4.00000000,
9.00000000,
25.00000000,
-1.00000000,
7.00000000,
1.00000000,
3.00000000,
-26.00000000,
-27.00000000,
41.00000000,
-8.00000000,
-7.00000000,
25.00000000,
47.00000000,
-27.00000000,
26.00000000,
-13.00000000,
2.00000000,
22.00000000,
-46.00000000,
7.00000000,
-10.00000000,
-47.00000000,
1.00000000,
-16.00000000,
-52.00000000,
0.00000000,
39.00000000,
-21.00000000,
6.00000000,
8.00000000,
-19.00000000,
-25.00000000,
1.00000000,
20.00000000,
-9.00000000,
28.00000000,
6.00000000,
30.00000191,
10.00000000,
-9.00000000,
44.00000000,
-45.00000000,
-15.00000095,
10.00000000,
-32.00000000,
39.00000000,
42.00000000,
-56.00000000,
3.00000000,
27.00000000,
-24.00000000,
-48.00000000,
-22.00000000,
-44.00000000,
-73.00000000,
-23.00000000,
-9.00000000,
-45.00000000,
-41.00000000,
3.00000000,
-37.00000000,
16.00000000,
17.00000000,
-6.00000000,
20.00000000,
-22.00000000,
17.00000000,
-24.00000000,
-67.00000000,
-12.00000000,
-13.00000000,
-5.00000000,
34.00000000,
-16.00000000,
-37.00000000,
45.00000000,
3.00000000,
-37.00000000,
-63.00000000,
-35.00000000,
-16.00000000,
-48.00000000,
0.00000000,
-24.00000000,
-38.00000000,
-7.00000000,
40.00000000,
5.00000000,
1.00000000,
28.00000000,
22.00000000,
-5.00000000,
16.00000000,
19.00000000,
36.00000000,
2.00000000,
-6.00000000,
12.00000000,
3.00000000,
-8.00000000,
14.00000000,
24.00000000,
-5.00000000,
12.00000000,
30.00000191,
-41.00000000,
10.00000000,
1.00000000,
-31.00000000,
14.00000000,
19.00000000,
6.00000000,
34.00000000,
-26.00000000,
28.00000000,
24.00000000,
-8.00000000,
5.00000000,
14.00000000,
-7.00000000,
6.00000000,
-24.00000000,
24.00000000,
17.00000000,
38.00000000,
33.00000000,
17.00000000,
43.00000000,
15.00000095,
44.00000000,
29.00000000,
-27.00000000,
46.00000000,
14.00000000,
-1.00000000,
26.00000000,
13.00000000,
-11.00000000,
5.00000000,
-15.00000095,
-18.00000000,
27.00000000,
-7.00000000,
0.00000000,
6.00000000,
25.00000000,
2.00000000,
-26.00000000,
-32.00000000,
10.00000000,
36.00000000,
-9.00000000,
11.00000000,
-9.00000000,
-47.00000000,
55.00000000,
-27.00000000,
-15.00000095,
20.00000000,
8.00000000,
0.00000000,
23.00000000,
6.00000000,
40.00000000,
-11.00000000,
-1.00000000,
-26.00000000,
42.00000000,
50.00000000,
36.00000000,
35.00000000,
-33.00000000,
45.00000000,
47.00000000,
-8.00000000,
11.00000000,
-16.00000000,
44.00000000,
-26.00000000,
-37.00000000,
57.00000000,
9.00000000,
3.00000000,
14.00000000,
16.00000000,
-26.00000000,
-13.00000000,
-1.00000000,
22.00000000,
64.00000000,
13.00000000,
-23.00000000,
0.00000000,
13.00000000,
50.00000000,
17.00000000,
-2.00000000,
33.00000000,
-5.00000000,
-16.00000000,
41.00000000,
2.00000000,
-41.00000000,
11.00000000,
-29.00000000,
22.00000000,
16.00000000,
-48.00000000,
7.00000000,
-4.00000000,
-29.00000000,
-47.00000000,
-25.00000000,
20.00000000,
-27.00000000,
14.00000000,
41.00000000,
13.00000000,
-1.00000000,
3.00000000,
-5.00000000,
21.00000000,
8.00000000,
-15.00000095,
-3.00000000,
-24.00000000,
-27.00000000,
0.00000000,
-12.00000000,
22.00000000,
4.00000000,
37.00000000,
29.00000000,
34.00000000,
16.00000000,
28.00000000,
-44.00000000,
-8.00000000,
-11.00000000,
-3.00000000,
23.00000000,
13.00000000,
0.00000000,
-7.00000000,
-16.00000000,
14.00000000,
-16.00000000,
8.00000000,
1.00000000,
41.00000000,
63.00000000,
20.00000000,
23.00000000,
50.00000000,
-74.00000000,
-39.00000000,
-39.00000000,
2.00000000,
43.00000000,
31.00000000,
-36.00000000,
-8.00000000,
-1.00000000,
-52.00000000,
-25.00000000,
-17.00000000,
15.00000095,
9.00000000,
25.00000000,
-34.00000000,
25.00000000,
42.00000000,
-43.00000000,
-10.00000000,
-1.00000000,
25.00000000,
-29.00000000,
-18.00000000,
7.00000000,
12.00000000,
-16.00000000,
-2.00000000,
40.00000000,
-22.00000000,
-7.00000000,
7.00000000,
45.00000000,
-50.00000000,
-22.00000000,
47.00000000,
-64.00000000,
-18.00000000,
-3.00000000,
10.00000000,
-28.00000000,
-14.00000000,
-22.00000000,
-55.00000000,
-17.00000000,
-31.00000000,
-2.00000000,
1.00000000,
-65.00000000,
-14.00000000,
27.00000000,
-44.00000000,
16.00000000,
-7.00000000,
-57.00000000,
0.00000000,
-35.00000000,
20.00000000,
-7.00000000,
-21.00000000,
7.00000000,
24.00000000,
18.00000000,
-13.00000000,
33.00000000,
-30.00000191,
-22.00000000,
-11.00000000,
-27.00000000,
-23.00000000,
-13.00000000,
34.00000000,
-22.00000000,
19.00000000,
26.00000000,
5.00000000,
-5.00000000,
-40.00000000,
-25.00000000,
13.00000000,
23.00000000,
7.00000000,
4.00000000,
0.00000000,
1.00000000,
-54.00000000,
-56.00000000,
13.00000000,
-9.00000000,
-69.00000000,
-1.00000000,
-9.00000000,
-26.00000000,
-15.00000095,
-31.00000000,
-53.00000000,
-23.00000000,
29.00000000,
34.00000000,
26.00000000,
71.00000000,
24.00000000,
-47.00000000,
4.00000000,
11.00000000,
-8.00000000,
7.00000000,
33.00000000,
-34.00000000,
-36.00000000,
12.00000000,
-22.00000000,
-29.00000000,
-32.00000000,
44.00000000,
-4.00000000,
-34.00000000,
23.00000000,
-13.00000000,
12.00000000,
-7.00000000,
38.00000000,
-25.00000000,
-48.00000000,
29.00000000,
29.00000000,
-33.00000000,
-20.00000000,
-4.00000000,
32.00000000,
-14.00000000,
-39.00000000,
25.00000000,
-30.00000191,
-54.00000000,
-21.00000000,
-15.00000095,
-50.00000000,
-25.00000000,
19.00000000,
-10.00000000,
50.00000000,
43.00000000,
30.00000191,
1.00000000,
3.00000000,
-9.00000000,
-19.00000000,
-7.00000000,
21.00000000,
8.00000000,
3.00000000,
13.00000000,
-9.00000000,
26.00000000,
32.00000000,
-24.00000000,
-7.00000000,
-18.00000000,
-4.00000000,
4.00000000,
14.00000000,
20.00000000,
19.00000000,
14.00000000,
18.00000000,
-28.00000000,
-30.00000191,
14.00000000,
8.00000000,
-34.00000000,
26.00000000,
51.00000000,
21.00000000,
-7.00000000,
21.00000000,
67.00000000,
-12.00000000,
21.00000000,
17.00000000,
-53.00000000,
-31.00000000,
2.00000000,
-47.00000000,
-13.00000000,
27.00000000,
-60.00000381,
-16.00000000,
18.00000000,
-25.00000000,
4.00000000,
24.00000000,
3.00000000,
35.00000000,
-32.00000000,
64.00000000,
-25.00000000,
-4.00000000,
36.00000000,
20.00000000,
-1.00000000,
-25.00000000,
-33.00000000,
36.00000000,
-53.00000000,
11.00000000,
21.00000000,
-31.00000000,
25.00000000,
3.00000000,
-2.00000000,
1.00000000,
-25.00000000,
14.00000000,
-12.00000000,
-9.00000000,
-38.00000000,
-30.00000191,
-32.00000000,
16.00000000,
32.00000000,
34.00000000,
35.00000000,
38.00000000,
46.00000000,
54.00000000,
14.00000000,
-10.00000000,
-9.00000000,
17.00000000,
-21.00000000,
22.00000000,
-8.00000000,
-13.00000000,
-24.00000000,
9.00000000,
-8.00000000,
7.00000000,
16.00000000,
6.00000000,
1.00000000,
-1.00000000,
-2.00000000,
11.00000000,
-33.00000000,
7.00000000,
17.00000000,
16.00000000,
-24.00000000,
33.00000000,
3.00000000,
-6.00000000,
-8.00000000,
11.00000000,
18.00000000,
12.00000000,
-5.00000000,
3.00000000,
-42.00000000,
-4.00000000,
1.00000000,
-10.00000000,
8.00000000,
-1.00000000,
-30.00000191,
-41.00000000,
-7.00000000,
9.00000000,
-21.00000000,
9.00000000,
-29.00000000,
-12.00000000,
8.00000000,
45.00000000,
1.00000000,
14.00000000,
-7.00000000,
5.00000000,
-41.00000000,
-36.00000000,
-13.00000000,
-53.00000000,
5.00000000,
-29.00000000,
-44.00000000,
15.00000095,
-7.00000000,
-48.00000000,
12.00000000,
-9.00000000,
-46.00000000,
37.00000000,
12.00000000,
-9.00000000,
38.00000000,
2.00000000,
32.00000000,
15.00000095,
43.00000000,
0.00000000,
-8.00000000,
14.00000000,
25.00000000,
-43.00000000,
23.00000000,
39.00000000,
7.00000000,
1.00000000,
40.00000000,
36.00000000,
0.00000000,
-6.00000000,
-5.00000000,
9.00000000,
13.00000000,
5.00000000,
-26.00000000,
-48.00000000,
18.00000000,
8.00000000,
-10.00000000,
10.00000000,
-4.00000000,
-35.00000000,
-11.00000000,
-10.00000000,
-16.00000000,
14.00000000,
-7.00000000,
-10.00000000,
2.00000000,
17.00000000,
-28.00000000,
32.00000000,
-19.00000000,
-27.00000000,
2.00000000,
-44.00000000,
15.00000095,
15.00000095,
-38.00000000,
-8.00000000,
2.00000000,
-21.00000000,
-10.00000000,
6.00000000,
0.00000000,
33.00000000,
-42.00000000,
-11.00000000,
13.00000000,
5.00000000,
22.00000000,
67.00000000,
76.00000000,
28.00000000,
31.00000000,
33.00000000,
28.00000000,
2.00000000,
28.00000000,
1.00000000,
-38.00000000,
23.00000000,
-9.00000000,
10.00000000,
0.00000000,
4.00000000,
4.00000000,
-12.00000000,
4.00000000,
-33.00000000,
44.00000000,
24.00000000,
28.00000000,
28.00000000,
25.00000000,
20.00000000,
12.00000000,
0.00000000,
7.00000000,
-18.00000000,
-15.00000095,
4.00000000,
-8.00000000,
10.00000000,
-37.00000000,
10.00000000,
4.00000000,
-26.00000000,
12.00000000,
13.00000000,
-20.00000000,
14.00000000,
-18.00000000,
-43.00000000,
-16.00000000,
-20.00000000,
-6.00000000,
40.00000000,
-14.00000000,
4.00000000,
34.00000000,
-7.00000000,
-11.00000000,
24.00000000,
17.00000000,
-2.00000000,
3.00000000,
40.00000000,
-3.00000000,
-19.00000000,
-7.00000000,
-29.00000000,
-16.00000000,
4.00000000,
-30.00000191,
-36.00000000,
-12.00000000,
14.00000000,
5.00000000,
-13.00000000,
18.00000000,
52.00000000,
-10.00000000,
-7.00000000,
-18.00000000,
13.00000000,
-15.00000095,
13.00000000,
-4.00000000,
-41.00000000,
15.00000095,
4.00000000,
-55.00000000,
-26.00000000,
-13.00000000,
-29.00000000,
-34.00000000,
-73.00000000,
3.00000000,
-2.00000000,
-71.00000000,
-33.00000000,
-10.00000000,
-32.00000000,
-34.00000000,
25.00000000,
-17.00000000,
-33.00000000,
5.00000000,
-24.00000000,
-27.00000000,
13.00000000,
44.00000000,
8.00000000,
17.00000000,
5.00000000,
-21.00000000,
33.00000000,
9.00000000,
-9.00000000,
-22.00000000,
-5.00000000,
-38.00000000,
-8.00000000,
-2.00000000,
-35.00000000,
13.00000000,
13.00000000,
-3.00000000,
37.00000000,
19.00000000,
11.00000000,
12.00000000,
2.00000000,
-2.00000000,
28.00000000,
11.00000000,
-4.00000000,
16.00000000,
-11.00000000,
-52.00000000,
-9.00000000,
4.00000000,
-60.00000381,
11.00000000,
0.00000000,
-55.00000000,
0.00000000,
20.00000000,
-3.00000000,
11.00000000,
-4.00000000,
9.00000000,
-10.00000000,
5.00000000,
14.00000000,
-8.00000000,
17.00000000,
30.00000191,
-17.00000000,
-27.00000000,
20.00000000,
-24.00000000,
-18.00000000,
-4.00000000,
7.00000000,
-5.00000000,
-21.00000000,
13.00000000,
-24.00000000,
-7.00000000,
12.00000000,
-12.00000000,
12.00000000,
23.00000000,
32.00000000,
-14.00000000,
11.00000000,
16.00000000,
-25.00000000,
14.00000000,
-13.00000000,
-17.00000000,
-18.00000000,
13.00000000,
5.00000000,
-9.00000000,
1.00000000,
47.00000000,
-45.00000000,
-9.00000000,
47.00000000,
-21.00000000,
-13.00000000,
26.00000000,
-3.00000000,
-33.00000000,
-9.00000000,
-4.00000000,
29.00000000,
-26.00000000,
-13.00000000,
-7.00000000,
35.00000000,
-28.00000000,
6.00000000,
50.00000000,
-33.00000000,
0.00000000,
-17.00000000,
-12.00000000,
21.00000000,
-55.00000000,
-6.00000000,
9.00000000,
-48.00000000,
-4.00000000,
14.00000000,
-41.00000000,
25.00000000,
25.00000000,
9.00000000,
16.00000000,
1.00000000,
-6.00000000,
-3.00000000,
6.00000000,
5.00000000,
-6.00000000,
27.00000000,
20.00000000,
-14.00000000,
27.00000000,
11.00000000,
-4.00000000,
11.00000000,
-19.00000000,
-20.00000000,
-17.00000000,
-20.00000000,
19.00000000,
-12.00000000,
-4.00000000,
28.00000000,
3.00000000,
8.00000000,
5.00000000,
21.00000000,
52.00000000,
-8.00000000,
12.00000000,
49.00000000,
-22.00000000,
-4.00000000,
-12.00000000,
-9.00000000,
24.00000000,
14.00000000,
13.00000000,
-29.00000000,
23.00000000,
-10.00000000,
-19.00000000,
-26.00000000,
-22.00000000,
-12.00000000,
14.00000000,
-19.00000000,
-3.00000000,
5.00000000,
6.00000000,
18.00000000,
-2.00000000,
26.00000000,
-3.00000000,
7.00000000,
40.00000000,
-46.00000000,
-23.00000000,
8.00000000,
-32.00000000,
-23.00000000,
-7.00000000,
9.00000000,
23.00000000,
-1.00000000,
-11.00000000,
-14.00000000,
5.00000000,
30.00000191,
15.00000095,
30.00000191,
14.00000000,
-9.00000000,
-24.00000000,
48.00000000,
15.00000095,
16.00000000,
-13.00000000,
-22.00000000,
-11.00000000,
31.00000000,
12.00000000,
-11.00000000,
-1.00000000,
-24.00000000,
14.00000000,
-25.00000000,
-22.00000000,
21.00000000,
3.00000000,
-34.00000000,
-20.00000000,
10.00000000,
7.00000000,
-15.00000095,
-30.00000191,
19.00000000,
-20.00000000,
41.00000000,
23.00000000,
-22.00000000,
-28.00000000,
3.00000000,
-9.00000000,
-7.00000000,
23.00000000,
-55.00000000,
22.00000000,
31.00000000,
6.00000000,
5.00000000,
-38.00000000,
-27.00000000,
11.00000000,
43.00000000,
-9.00000000,
16.00000000,
32.00000000,
5.00000000,
-16.00000000,
-5.00000000,
-1.00000000,
17.00000000,
-11.00000000,
0.00000000,
58.00000000,
39.00000000,
-12.00000000,
-36.00000000,
4.00000000,
-1.00000000,
31.00000000,
19.00000000,
-9.00000000,
13.00000000,
-16.00000000,
-6.00000000,
-32.00000000,
-5.00000000,
-12.00000000,
16.00000000,
14.00000000,
30.00000191,
15.00000095,
57.00000000,
-20.00000000,
11.00000000,
-28.00000000,
-21.00000000,
-16.00000000,
1.00000000,
-12.00000000,
-8.00000000,
-9.00000000,
28.00000000,
35.00000000,
10.00000000,
3.00000000,
-1.00000000,
31.00000000,
-24.00000000,
24.00000000,
2.00000000,
-9.00000000,
-10.00000000,
22.00000000,
-14.00000000,
18.00000000,
-6.00000000,
13.00000000,
28.00000000,
36.00000000,
2.00000000,
-58.00000000,
-24.00000000,
3.00000000,
8.00000000,
-16.00000000,
-40.00000000,
-76.00000000,
-60.00000381,
45.00000000,
77.00000000,
72.00000000,
-6.00000000,
-11.00000000,
19.00000000,
-7.00000000,
-12.00000000,
11.00000000,
-1.00000000,
-8.00000000,
3.00000000,
10.00000000,
36.00000000,
32.00000000,
1.00000000,
-36.00000000,
-17.00000000,
22.00000000,
80.00000000,
62.00000000,
-3.00000000,
-56.00000000,
-15.00000095,
4.00000000,
12.00000000,
-11.00000000,
-16.00000000,
-25.00000000,
-49.00000000,
6.00000000,
9.00000000,
-2.00000000,
9.00000000,
28.00000000,
38.00000000,
0.00000000,
8.00000000,
30.00000191,
15.00000095,
-14.00000000,
-7.00000000,
-12.00000000,
19.00000000,
21.00000000,
-15.00000095,
-20.00000000,
-50.00000000,
-12.00000000,
2.00000000,
-24.00000000,
-2.00000000,
32.00000000,
9.00000000,
-10.00000000,
-112.00000000,
-114.00000000,
23.00000000,
95.00000000,
34.00000000,
-31.00000000,
-58.00000000,
-57.00000000,
41.00000000,
96.00000000,
8.00000000,
19.00000000,
-15.00000095,
19.00000000,
2.00000000,
2.00000000,
6.00000000,
-14.00000000,
9.00000000,
12.00000000,
-27.00000000,
8.00000000,
-11.00000000,
12.00000000,
-42.00000000,
-2.00000000,
-20.00000000,
69.00000000,
74.00000000,
19.00000000,
-20.00000000,
-24.00000000,
-13.00000000,
19.00000000,
8.00000000,
-9.00000000,
1.00000000,
-28.00000000,
-6.00000000,
-2.00000000,
27.00000000,
6.00000000,
-12.00000000,
4.00000000,
47.00000000,
-4.00000000,
1.00000000,
13.00000000,
40.00000000,
6.00000000,
-23.00000000,
-33.00000000,
3.00000000,
-21.00000000,
-44.00000000,
-40.00000000,
-30.00000191,
-30.00000191,
-56.00000000,
-32.00000000,
10.00000000,
1.00000000,
53.00000000,
36.00000000,
-2.00000000,
31.00000000,
31.00000000,
-25.00000000,
13.00000000,
35.00000000,
18.00000000,
23.00000000,
39.00000000,
27.00000000,
8.00000000,
-23.00000000,
11.00000000,
-75.00000000,
-50.00000000,
-8.00000000,
-100.00000000,
-113.00000000,
-72.00000000,
-49.00000000,
-67.00000000,
-50.00000000,
9.00000000,
15.00000095,
-5.00000000,
-56.00000000,
-44.00000000,
-76.00000000,
-22.00000000,
-51.00000000,
-69.00000000,
-20.00000000,
-30.00000191,
-21.00000000,
22.00000000,
-40.00000000,
-19.00000000,
13.00000000,
-37.00000000,
2.00000000,
-37.00000000,
-21.00000000,
-38.00000000,
-70.00000000,
-55.00000000,
-35.00000000,
-31.00000000,
-22.00000000,
-9.00000000,
-13.00000000,
-18.00000000,
14.00000000,
36.00000000,
40.00000000,
51.00000000,
-14.00000000,
30.00000191,
17.00000000,
-45.00000000,
-57.00000000,
-35.00000000,
-19.00000000,
-61.00000381,
-3.00000000,
13.00000000,
-31.00000000,
0.00000000,
-8.00000000,
-7.00000000,
5.00000000,
-1.00000000,
-20.00000000,
1.00000000,
-10.00000000,
16.00000000,
30.00000191,
6.00000000,
12.00000000,
-11.00000000,
-4.00000000,
14.00000000,
-35.00000000,
-11.00000000,
-5.00000000,
24.00000000,
-3.00000000,
8.00000000,
3.00000000,
-17.00000000,
-30.00000191,
-41.00000000,
-4.00000000,
-3.00000000,
-32.00000000,
-24.00000000,
-4.00000000,
-15.00000095,
32.00000000,
-1.00000000,
23.00000000,
-9.00000000,
-13.00000000,
-23.00000000,
-15.00000095,
7.00000000,
24.00000000,
-26.00000000,
4.00000000,
-2.00000000,
16.00000000,
-26.00000000,
-12.00000000,
-14.00000000,
-16.00000000,
-65.00000000,
-33.00000000,
-26.00000000,
-19.00000000,
-6.00000000,
28.00000000,
-15.00000095,
-3.00000000,
27.00000000,
32.00000000,
13.00000000,
17.00000000,
26.00000000,
-30.00000191,
-21.00000000,
-8.00000000,
25.00000000,
-11.00000000,
-21.00000000,
-13.00000000,
-2.00000000,
-26.00000000,
11.00000000,
25.00000000,
18.00000000,
-47.00000000,
-24.00000000,
-8.00000000,
12.00000000,
8.00000000,
4.00000000,
14.00000000,
16.00000000,
4.00000000,
16.00000000,
-27.00000000,
-16.00000000,
7.00000000,
5.00000000,
7.00000000,
-21.00000000,
5.00000000,
-38.00000000,
-25.00000000,
-34.00000000,
-24.00000000,
-57.00000000,
-15.00000095,
-35.00000000,
-37.00000000,
3.00000000,
-57.00000000,
-2.00000000,
20.00000000,
0.00000000,
0.00000000,
34.00000000,
38.00000000,
-5.00000000,
-2.00000000,
-5.00000000,
-3.00000000,
-41.00000000,
-7.00000000,
-11.00000000,
1.00000000,
18.00000000,
-38.00000000,
-20.00000000,
5.00000000,
-22.00000000,
3.00000000,
-18.00000000,
-6.00000000,
-46.00000000,
-23.00000000,
-22.00000000,
-60.00000381,
-40.00000000,
22.00000000,
-13.00000000,
32.00000000,
6.00000000,
9.00000000,
12.00000000,
-19.00000000,
2.00000000,
-6.00000000,
41.00000000,
-34.00000000,
-8.00000000,
21.00000000,
19.00000000,
16.00000000,
-22.00000000,
-12.00000000,
8.00000000,
-16.00000000,
17.00000000,
18.00000000,
18.00000000,
-5.00000000,
-8.00000000,
37.00000000,
-23.00000000,
-14.00000000,
-46.00000000,
-1.00000000,
-9.00000000,
-22.00000000,
1.00000000,
-2.00000000,
36.00000000,
32.00000000,
18.00000000,
-29.00000000,
16.00000000,
11.00000000,
11.00000000,
17.00000000,
-8.00000000,
27.00000000,
20.00000000,
7.00000000,
47.00000000,
-44.00000000,
-12.00000000,
9.00000000,
76.00000000,
-24.00000000,
-22.00000000,
35.00000000,
5.00000000,
-1.00000000,
-24.00000000,
11.00000000,
-5.00000000,
17.00000000,
11.00000000,
-19.00000000,
-3.00000000,
15.00000095,
-2.00000000,
-13.00000000,
21.00000000,
-18.00000000,
26.00000000,
-1.00000000,
-6.00000000,
7.00000000,
13.00000000,
-7.00000000,
-17.00000000,
-7.00000000,
-18.00000000,
16.00000000,
-2.00000000,
-28.00000000,
3.00000000,
-28.00000000,
38.00000000,
8.00000000,
12.00000000,
83.00000000,
-35.00000000,
-20.00000000,
-16.00000000,
6.00000000,
-43.00000000,
18.00000000,
17.00000000,
1.00000000,
59.00000381,
-44.00000000,
-24.00000000,
-37.00000000,
-11.00000000,
11.00000000,
-46.00000000,
95.00000000,
12.00000000,
37.00000000,
35.00000000,
17.00000000,
67.00000000,
-14.00000000,
-2.00000000,
5.00000000,
-22.00000000,
14.00000000,
-41.00000000,
23.00000000,
5.00000000,
5.00000000,
2.00000000,
-19.00000000,
49.00000000,
-7.00000000,
-23.00000000,
76.00000000,
-39.00000000,
-7.00000000,
0.00000000,
3.00000000,
-2.00000000,
-28.00000000,
27.00000000,
20.00000000,
3.00000000,
-34.00000000,
7.00000000,
0.00000000,
-10.00000000,
-43.00000000,
17.00000000,
16.00000000,
4.00000000,
4.00000000,
-29.00000000,
-24.00000000,
-31.00000000,
-30.00000191,
-3.00000000,
10.00000000,
-2.00000000,
-11.00000000,
2.00000000,
11.00000000,
-19.00000000,
-33.00000000,
4.00000000,
4.00000000,
-7.00000000,
-11.00000000,
11.00000000,
-27.00000000,
7.00000000,
-44.00000000,
-11.00000000,
-34.00000000,
-13.00000000,
-24.00000000,
43.00000000,
12.00000000,
-27.00000000,
30.00000191,
28.00000000,
18.00000000,
-16.00000000,
-31.00000000,
-40.00000000,
5.00000000,
2.00000000,
-74.00000000,
52.00000000,
5.00000000,
-5.00000000,
15.00000095,
-40.00000000,
-26.00000000,
0.00000000,
-9.00000000,
-26.00000000,
36.00000000,
-21.00000000,
19.00000000,
-9.00000000,
-2.00000000,
9.00000000,
-24.00000000,
18.00000000,
55.00000000,
-6.00000000,
-24.00000000,
-20.00000000,
93.00000000,
-6.00000000,
13.00000000,
30.00000191,
-8.00000000,
14.00000000,
-8.00000000,
24.00000000,
47.00000000,
-74.00000000,
-22.00000000,
-40.00000000,
-32.00000000,
-11.00000000,
-26.00000000,
-26.00000000,
-19.00000000,
29.00000000,
-13.00000000,
-40.00000000,
-5.00000000,
-2.00000000,
-1.00000000,
-44.00000000,
-55.00000000,
23.00000000,
7.00000000,
26.00000000,
59.00000381,
-22.00000000,
-13.00000000,
10.00000000,
-36.00000000,
-63.00000000,
-18.00000000,
-42.00000000,
-37.00000000,
-14.00000000,
-33.00000000,
-37.00000000,
-20.00000000,
5.00000000,
24.00000000,
2.00000000,
46.00000000,
25.00000000,
30.00000191,
11.00000000,
-8.00000000,
35.00000000,
26.00000000,
31.00000000,
9.00000000,
-5.00000000,
-9.00000000,
7.00000000,
-6.00000000,
-26.00000000,
4.00000000,
-17.00000000,
-33.00000000,
-9.00000000,
0.00000000,
-1.00000000,
13.00000000,
13.00000000,
-8.00000000,
-22.00000000,
8.00000000,
21.00000000,
-15.00000095,
1.00000000,
-9.00000000,
-24.00000000,
-13.00000000,
-30.00000191,
-33.00000000,
-18.00000000,
-22.00000000,
-24.00000000,
6.00000000,
37.00000000,
34.00000000,
-29.00000000,
-41.00000000,
-29.00000000,
-5.00000000,
-2.00000000,
2.00000000,
-1.00000000,
13.00000000,
-14.00000000,
-2.00000000,
4.00000000,
16.00000000,
12.00000000,
-1.00000000,
-3.00000000,
25.00000000,
29.00000000,
18.00000000,
22.00000000,
-19.00000000,
-33.00000000,
-19.00000000,
34.00000000,
25.00000000,
17.00000000,
43.00000000,
-11.00000000,
-8.00000000,
46.00000000,
15.00000095,
25.00000000,
41.00000000,
-3.00000000,
-15.00000095,
-20.00000000,
-33.00000000,
-33.00000000,
-33.00000000,
10.00000000,
9.00000000,
32.00000000,
-3.00000000,
27.00000000,
-14.00000000,
-16.00000000,
-3.00000000,
0.00000000,
-2.00000000,
-17.00000000,
-9.00000000,
43.00000000,
-1.00000000,
-12.00000000,
19.00000000,
64.00000000,
51.00000000,
17.00000000,
39.00000000,
10.00000000,
-30.00000191,
-3.00000000,
-39.00000000,
-65.00000000,
-15.00000095,
-26.00000000,
-13.00000000,
0.00000000,
16.00000000,
14.00000000,
28.00000000,
-6.00000000,
31.00000000,
-23.00000000,
19.00000000,
27.00000000,
29.00000000,
6.00000000,
-7.00000000,
-13.00000000,
-15.00000095,
-2.00000000,
-47.00000000,
-22.00000000,
26.00000000,
10.00000000,
-15.00000095,
-8.00000000,
41.00000000,
44.00000000,
-2.00000000,
-21.00000000,
-24.00000000,
12.00000000,
-22.00000000,
4.00000000,
13.00000000,
3.00000000,
7.00000000,
23.00000000,
-45.00000000,
-54.00000000,
-44.00000000,
-37.00000000,
-9.00000000,
6.00000000,
25.00000000,
39.00000000,
33.00000000,
-5.00000000,
-25.00000000,
21.00000000,
-22.00000000,
-17.00000000,
-20.00000000,
23.00000000,
36.00000000,
8.00000000,
-55.00000000,
-53.00000000,
6.00000000,
-26.00000000,
8.00000000,
29.00000000,
-22.00000000,
2.00000000,
11.00000000,
35.00000000,
38.00000000,
47.00000000,
23.00000000,
54.00000000,
43.00000000,
37.00000000,
20.00000000,
-14.00000000,
-50.00000000,
-5.00000000,
-14.00000000,
-3.00000000,
12.00000000,
29.00000000,
33.00000000,
21.00000000,
63.00000000,
-11.00000000,
0.00000000,
-5.00000000,
38.00000000,
-15.00000095,
-79.00000000,
11.00000000,
7.00000000,
-9.00000000,
13.00000000,
28.00000000,
26.00000000,
11.00000000,
32.00000000,
-18.00000000,
19.00000000,
2.00000000,
-17.00000000,
-12.00000000,
-3.00000000,
-27.00000000,
-7.00000000,
22.00000000,
21.00000000,
11.00000000,
-7.00000000,
-5.00000000,
-1.00000000,
11.00000000,
12.00000000,
-46.00000000,
-12.00000000,
42.00000000,
-38.00000000,
-43.00000000,
22.00000000,
70.00000000,
9.00000000,
-55.00000000,
34.00000000,
54.00000000,
50.00000000,
-86.00000000,
-5.00000000,
39.00000000,
7.00000000,
5.00000000,
-8.00000000,
1.00000000,
8.00000000,
37.00000000,
-8.00000000,
-7.00000000,
-12.00000000,
-31.00000000,
-5.00000000,
-13.00000000,
-3.00000000,
-8.00000000,
-21.00000000,
8.00000000,
35.00000000,
22.00000000,
32.00000000,
10.00000000,
-47.00000000,
18.00000000,
41.00000000,
44.00000000,
-35.00000000,
-1.00000000,
31.00000000,
-5.00000000,
-4.00000000,
-42.00000000,
49.00000000,
-15.00000095,
-37.00000000,
21.00000000,
17.00000000,
-5.00000000,
2.00000000,
17.00000000,
1.00000000,
4.00000000,
2.00000000,
-37.00000000,
3.00000000,
-8.00000000,
24.00000000,
-9.00000000,
-14.00000000,
-72.00000000,
30.00000191,
-25.00000000,
-62.00000000,
22.00000000,
-13.00000000,
6.00000000,
-20.00000000,
36.00000000,
-8.00000000,
-60.00000381,
-20.00000000,
48.00000000,
-85.00000000,
18.00000000,
45.00000000,
5.00000000,
28.00000000,
-49.00000000,
23.00000000,
34.00000000,
-36.00000000,
41.00000000,
6.00000000,
8.00000000,
28.00000000,
-14.00000000,
-19.00000000,
33.00000000,
-37.00000000,
-54.00000000,
41.00000000,
-14.00000000,
-19.00000000,
-46.00000000,
23.00000000,
39.00000000,
-105.00000000,
12.00000000,
112.00000000,
-99.00000000,
16.00000000,
78.00000000,
51.00000000,
29.00000000,
-3.00000000,
67.00000000,
-29.00000000,
-102.00000000,
46.00000000,
-26.00000000,
-87.00000000,
-65.00000000,
8.00000000,
77.00000000,
-81.00000000,
-24.00000000,
104.00000000,
-37.00000000,
-20.00000000,
40.00000000,
33.00000000,
8.00000000,
-26.00000000,
9.00000000,
4.00000000,
-19.00000000,
-20.00000000,
0.00000000,
1.00000000,
26.00000000,
-14.00000000,
-20.00000000,
20.00000000,
-16.00000000,
-93.00000000,
41.00000000,
-11.00000000,
-69.00000000,
-51.00000000,
19.00000000,
-16.00000000,
23.00000000,
0.00000000,
-28.00000000,
3.00000000,
-24.00000000,
2.00000000,
-21.00000000,
15.00000095,
6.00000000,
27.00000000,
-5.00000000,
-20.00000000,
-9.00000000,
14.00000000,
-3.00000000,
-33.00000000,
-32.00000000,
-13.00000000,
-46.00000000,
49.00000000,
38.00000000,
-46.00000000,
23.00000000,
52.00000000,
-9.00000000,
15.00000095,
-21.00000000,
8.00000000,
14.00000000,
17.00000000,
49.00000000,
23.00000000,
8.00000000,
22.00000000,
-1.00000000,
-35.00000000,
45.00000000,
10.00000000,
-8.00000000,
16.00000000,
28.00000000,
-17.00000000,
7.00000000,
22.00000000,
-10.00000000,
-4.00000000,
-42.00000000,
-48.00000000,
-24.00000000,
-38.00000000,
-44.00000000,
34.00000000,
-43.00000000,
80.00000000,
11.00000000,
7.00000000,
-64.00000000,
23.00000000,
28.00000000,
7.00000000,
-26.00000000,
39.00000000,
17.00000000,
-22.00000000,
-40.00000000,
-5.00000000,
15.00000095,
-19.00000000,
-9.00000000,
-16.00000000,
-65.00000000,
-19.00000000,
28.00000000,
18.00000000,
-2.00000000,
31.00000000,
43.00000000,
-1.00000000,
-43.00000000,
34.00000000,
4.00000000,
-23.00000000,
3.00000000,
63.00000000,
23.00000000,
-17.00000000,
39.00000000,
-1.00000000,
-30.00000191,
37.00000000,
15.00000095,
-21.00000000,
36.00000000,
-1.00000000,
12.00000000,
7.00000000,
23.00000000,
-3.00000000,
-18.00000000,
31.00000000,
-2.00000000,
-27.00000000,
-5.00000000,
-9.00000000,
-6.00000000,
-8.00000000,
30.00000191,
-40.00000000,
-14.00000000,
13.00000000,
43.00000000,
-10.00000000,
-33.00000000,
28.00000000,
13.00000000,
46.00000000,
11.00000000,
-10.00000000,
-27.00000000,
25.00000000,
36.00000000,
0.00000000,
32.00000000,
14.00000000,
-8.00000000,
3.00000000,
30.00000191,
-11.00000000,
-20.00000000,
-32.00000000,
-3.00000000,
-17.00000000,
24.00000000,
-6.00000000,
-32.00000000,
-2.00000000,
-31.00000000,
-31.00000000,
-38.00000000,
-21.00000000,
-34.00000000,
26.00000000,
4.00000000,
17.00000000,
-27.00000000,
2.00000000,
35.00000000,
-1.00000000,
31.00000000,
-20.00000000,
5.00000000,
-10.00000000,
-11.00000000,
17.00000000,
-44.00000000,
-11.00000000,
23.00000000,
-16.00000000,
9.00000000,
-3.00000000,
19.00000000,
-26.00000000,
19.00000000,
-6.00000000,
-50.00000000,
11.00000000,
-34.00000000,
-28.00000000,
-32.00000000,
18.00000000,
11.00000000,
-35.00000000,
-28.00000000,
17.00000000,
-6.00000000,
-11.00000000,
-3.00000000,
-12.00000000,
33.00000000,
-9.00000000,
-23.00000000,
28.00000000,
-31.00000000,
-37.00000000,
-19.00000000,
18.00000000,
-2.00000000,
-28.00000000,
80.00000000,
44.00000000,
-4.00000000,
-30.00000191,
4.00000000,
54.00000000,
-53.00000000,
4.00000000,
-92.00000000,
-25.00000000,
-1.00000000,
-7.00000000,
16.00000000,
0.00000000,
13.00000000,
2.00000000,
27.00000000,
-10.00000000,
-13.00000000,
-26.00000000,
-50.00000000,
-56.00000000,
-30.00000191,
-22.00000000,
-9.00000000,
37.00000000,
29.00000000,
-53.00000000,
-1.00000000,
28.00000000,
-23.00000000,
-27.00000000,
-5.00000000,
8.00000000,
25.00000000,
-11.00000000,
-1.00000000,
58.00000000,
-30.00000191,
-55.00000000,
6.00000000,
26.00000000,
-54.00000000,
22.00000000,
81.00000000,
-26.00000000,
7.00000000,
-71.00000000,
-15.00000095,
0.00000000,
-143.00000000,
29.00000000,
-31.00000000,
37.00000000,
6.00000000,
-34.00000000,
20.00000000,
19.00000000,
44.00000000,
20.00000000,
-25.00000000,
-42.00000000,
20.00000000,
53.00000000,
-11.00000000,
2.00000000,
19.00000000,
-34.00000000,
-30.00000191,
29.00000000,
-18.00000000,
2.00000000,
-1.00000000,
-63.00000000,
-16.00000000,
-4.00000000,
-18.00000000,
2.00000000,
3.00000000,
-4.00000000,
-4.00000000,
7.00000000,
7.00000000,
3.00000000,
28.00000000,
1.00000000,
30.00000191,
6.00000000,
31.00000000,
2.00000000,
-37.00000000,
-5.00000000,
-5.00000000,
-18.00000000,
-7.00000000,
-15.00000095,
-16.00000000,
13.00000000,
-8.00000000,
-25.00000000,
57.00000000,
45.00000000,
-9.00000000,
35.00000000,
30.00000191,
37.00000000,
-20.00000000,
-17.00000000,
-33.00000000,
32.00000000,
-61.00000381,
-49.00000000,
34.00000000,
4.00000000,
-59.00000381,
-1.00000000,
-26.00000000,
-13.00000000,
39.00000000,
-20.00000000,
-18.00000000,
6.00000000,
-24.00000000,
-15.00000095,
6.00000000,
17.00000000,
-19.00000000,
45.00000000,
49.00000000,
37.00000000,
13.00000000,
-8.00000000,
7.00000000,
-7.00000000,
-41.00000000,
-14.00000000,
-22.00000000,
4.00000000,
6.00000000,
1.00000000,
-7.00000000,
-31.00000000,
4.00000000,
8.00000000,
10.00000000,
6.00000000,
-4.00000000,
-3.00000000,
12.00000000,
2.00000000,
-26.00000000,
-15.00000095,
-37.00000000,
-24.00000000,
9.00000000,
-27.00000000,
3.00000000,
-10.00000000,
-2.00000000,
-12.00000000,
-10.00000000,
73.00000000,
14.00000000,
-19.00000000,
35.00000000,
16.00000000,
-44.00000000,
0.00000000,
8.00000000,
-7.00000000,
34.00000000,
-22.00000000,
-9.00000000,
31.00000000,
-26.00000000,
46.00000000,
-4.00000000,
-15.00000095,
13.00000000,
-10.00000000,
-1.00000000,
-6.00000000,
22.00000000,
22.00000000,
-36.00000000,
-27.00000000,
31.00000000,
-13.00000000,
9.00000000,
17.00000000,
-19.00000000,
4.00000000,
16.00000000,
-46.00000000,
3.00000000,
-5.00000000,
14.00000000,
-32.00000000,
-27.00000000,
21.00000000,
24.00000000,
-7.00000000,
30.00000191,
2.00000000,
-4.00000000,
-2.00000000,
-29.00000000,
26.00000000,
-15.00000095,
52.00000000,
72.00000000,
-31.00000000,
-15.00000095,
0.00000000,
-55.00000000,
-35.00000000,
32.00000000,
-24.00000000,
-14.00000000,
30.00000191,
18.00000000,
7.00000000,
17.00000000,
-3.00000000,
-24.00000000,
-60.00000381,
1.00000000,
-29.00000000,
-6.00000000,
19.00000000,
-13.00000000,
-18.00000000,
-25.00000000,
-8.00000000,
18.00000000,
-8.00000000,
-21.00000000,
-17.00000000,
-50.00000000,
3.00000000,
14.00000000,
23.00000000,
-5.00000000,
-11.00000000,
7.00000000,
47.00000000,
-30.00000191,
-9.00000000,
12.00000000,
43.00000000,
3.00000000,
-9.00000000,
-51.00000000,
11.00000000,
5.00000000,
-19.00000000,
-4.00000000,
-20.00000000,
26.00000000,
22.00000000,
10.00000000,
47.00000000,
-27.00000000,
14.00000000,
55.00000000,
-45.00000000,
-25.00000000,
19.00000000,
7.00000000,
63.00000000,
13.00000000,
-26.00000000,
28.00000000,
29.00000000,
-4.00000000,
8.00000000,
24.00000000,
-12.00000000,
1.00000000,
30.00000191,
9.00000000,
5.00000000,
53.00000000,
23.00000000,
37.00000000,
32.00000000,
-15.00000095,
62.00000000,
-26.00000000,
-90.00000000,
-12.00000000,
-21.00000000,
-31.00000000,
-51.00000000,
-3.00000000,
-15.00000095,
43.00000000,
-2.00000000,
26.00000000,
24.00000000,
-19.00000000,
9.00000000,
-14.00000000,
78.00000000,
-31.00000000,
-16.00000000,
-49.00000000,
-54.00000000,
-12.00000000,
-46.00000000,
-29.00000000,
-21.00000000,
7.00000000,
-45.00000000,
20.00000000,
-13.00000000,
-23.00000000,
-31.00000000,
-8.00000000,
53.00000000,
1.00000000,
12.00000000,
-6.00000000,
18.00000000,
-22.00000000,
8.00000000,
-4.00000000,
5.00000000,
40.00000000,
-26.00000000,
16.00000000,
-66.00000000,
-31.00000000,
-8.00000000,
-9.00000000,
-7.00000000,
0.00000000,
-22.00000000,
-19.00000000,
8.00000000,
21.00000000,
-68.00000000,
16.00000000,
63.00000000,
16.00000000,
47.00000000,
29.00000000,
12.00000000,
2.00000000,
-30.00000191,
-5.00000000,
-16.00000000,
-62.00000000,
-17.00000000,
8.00000000,
22.00000000,
-72.00000000,
24.00000000,
-22.00000000,
-19.00000000,
-50.00000000,
-47.00000000,
-44.00000000,
12.00000000,
-3.00000000,
-24.00000000,
14.00000000,
-42.00000000,
6.00000000,
-15.00000095,
19.00000000,
-3.00000000,
-12.00000000,
4.00000000,
5.00000000,
13.00000000,
-9.00000000,
-17.00000000,
-37.00000000,
34.00000000,
6.00000000,
9.00000000,
-5.00000000,
7.00000000,
25.00000000,
-59.00000381,
17.00000000,
-34.00000000,
14.00000000,
41.00000000,
82.00000000,
-13.00000000,
52.00000000,
-24.00000000,
-31.00000000,
45.00000000,
-11.00000000,
-6.00000000,
1.00000000,
4.00000000,
-42.00000000,
39.00000000,
13.00000000,
38.00000000,
16.00000000,
-53.00000000,
10.00000000,
47.00000000,
1.00000000,
-35.00000000,
48.00000000,
29.00000000,
-10.00000000,
-36.00000000,
15.00000095,
-62.00000000,
-48.00000000,
-13.00000000,
11.00000000,
13.00000000,
-50.00000000,
-40.00000000,
17.00000000,
16.00000000,
-71.00000000,
-24.00000000,
-33.00000000,
-62.00000000,
-34.00000000,
62.00000000,
-11.00000000,
22.00000000,
36.00000000,
-30.00000191,
27.00000000,
23.00000000,
-25.00000000,
32.00000000,
-59.00000381,
-67.00000000,
38.00000000,
-40.00000000,
0.00000000,
-6.00000000,
5.00000000,
6.00000000,
-47.00000000,
17.00000000,
21.00000000,
28.00000000,
-45.00000000,
4.00000000,
41.00000000,
-16.00000000,
-19.00000000,
7.00000000,
20.00000000,
-6.00000000,
-6.00000000,
-39.00000000,
63.00000000,
-16.00000000,
-17.00000000,
52.00000000,
-2.00000000,
38.00000000,
-23.00000000,
38.00000000,
-4.00000000,
-16.00000000,
-1.00000000,
1.00000000,
-15.00000095,
-33.00000000,
55.00000000,
6.00000000,
-1.00000000,
-2.00000000,
-29.00000000,
-16.00000000,
-6.00000000,
-68.00000000,
-14.00000000,
-63.00000000,
33.00000000,
21.00000000,
-43.00000000,
21.00000000,
15.00000095,
4.00000000,
15.00000095,
11.00000000,
19.00000000,
-38.00000000,
28.00000000,
1.00000000,
-27.00000000,
9.00000000,
18.00000000,
-52.00000000,
-20.00000000,
12.00000000,
6.00000000,
-20.00000000,
9.00000000,
-29.00000000,
-16.00000000,
30.00000191,
2.00000000,
31.00000000,
-13.00000000,
6.00000000,
20.00000000,
-16.00000000,
-2.00000000,
-17.00000000,
-2.00000000,
-29.00000000,
-29.00000000,
36.00000000,
-1.00000000,
-12.00000000,
-21.00000000,
19.00000000,
-36.00000000,
6.00000000,
-33.00000000,
-13.00000000,
-25.00000000,
-16.00000000,
3.00000000,
15.00000095,
6.00000000,
20.00000000,
32.00000000,
22.00000000,
-10.00000000,
-21.00000000,
19.00000000,
30.00000191,
8.00000000,
-17.00000000,
39.00000000,
-5.00000000,
-22.00000000,
-5.00000000,
22.00000000,
9.00000000,
79.00000000,
7.00000000,
15.00000095,
64.00000000,
49.00000000,
-17.00000000,
7.00000000,
55.00000000,
-4.00000000,
11.00000000,
44.00000000,
-7.00000000,
21.00000000,
-12.00000000,
-40.00000000,
10.00000000,
-20.00000000,
42.00000000,
63.00000000,
-37.00000000,
-31.00000000,
61.00000381,
41.00000000,
-38.00000000,
3.00000000,
35.00000000,
53.00000000,
33.00000000,
10.00000000,
-40.00000000,
58.00000000,
27.00000000,
-35.00000000,
11.00000000,
31.00000000,
-15.00000095,
61.00000381,
-2.00000000,
-14.00000000,
19.00000000,
-17.00000000,
22.00000000,
-51.00000000,
15.00000095,
1.00000000,
-39.00000000,
27.00000000,
-14.00000000,
13.00000000,
-23.00000000,
8.00000000,
19.00000000,
-10.00000000,
18.00000000,
13.00000000,
7.00000000,
27.00000000,
-14.00000000,
-41.00000000,
49.00000000,
-11.00000000,
-32.00000000,
-24.00000000,
-36.00000000,
-1.00000000,
-14.00000000,
-54.00000000,
-11.00000000,
28.00000000,
-17.00000000,
-48.00000000,
-20.00000000,
-48.00000000,
-12.00000000,
-45.00000000,
1.00000000,
-48.00000000,
8.00000000,
15.00000095,
-37.00000000,
-19.00000000,
-34.00000000,
-4.00000000,
33.00000000,
-17.00000000,
-31.00000000,
32.00000000,
-7.00000000,
-2.00000000,
25.00000000,
-58.00000000,
20.00000000,
-18.00000000,
-17.00000000,
21.00000000,
-23.00000000,
26.00000000,
17.00000000,
-10.00000000,
-12.00000000,
-4.00000000,
59.00000381,
-3.00000000,
-31.00000000,
26.00000000,
56.00000000,
13.00000000,
3.00000000,
-20.00000000,
12.00000000,
1.00000000,
8.00000000,
10.00000000,
-22.00000000,
24.00000000,
15.00000095,
-9.00000000,
2.00000000,
-15.00000095,
-23.00000000,
0.00000000,
32.00000000,
-11.00000000,
15.00000095,
-4.00000000,
4.00000000,
-8.00000000,
36.00000000,
-4.00000000,
-39.00000000,
-3.00000000,
16.00000000,
-20.00000000,
-8.00000000,
-24.00000000,
18.00000000,
19.00000000,
22.00000000,
-1.00000000,
38.00000000,
21.00000000,
5.00000000,
-17.00000000,
-1.00000000,
-44.00000000,
24.00000000,
-10.00000000,
-36.00000000,
-10.00000000,
15.00000095,
16.00000000,
-13.00000000,
-16.00000000,
-21.00000000,
4.00000000,
-26.00000000,
-23.00000000,
-6.00000000,
-32.00000000,
-37.00000000,
-44.00000000,
0.00000000,
-18.00000000,
-8.00000000,
8.00000000,
-20.00000000,
5.00000000,
8.00000000,
9.00000000,
-10.00000000,
3.00000000,
21.00000000,
10.00000000,
-12.00000000,
-40.00000000,
10.00000000,
10.00000000,
17.00000000,
7.00000000,
-10.00000000,
-32.00000000,
28.00000000,
14.00000000,
-12.00000000,
7.00000000,
-9.00000000,
-3.00000000,
4.00000000,
-10.00000000,
29.00000000,
-5.00000000,
5.00000000,
-15.00000095,
-13.00000000,
-2.00000000,
1.00000000,
28.00000000,
17.00000000,
-10.00000000,
2.00000000,
7.00000000,
-3.00000000,
25.00000000,
-9.00000000,
5.00000000,
-9.00000000,
9.00000000,
-4.00000000,
-16.00000000,
-4.00000000,
-7.00000000,
44.00000000,
-17.00000000,
8.00000000,
37.00000000,
-47.00000000,
4.00000000,
35.00000000,
-19.00000000,
10.00000000,
40.00000000,
-2.00000000,
34.00000000,
10.00000000,
-10.00000000,
-19.00000000,
22.00000000,
-5.00000000,
-10.00000000,
23.00000000,
-5.00000000,
27.00000000,
-15.00000095,
-33.00000000,
3.00000000,
37.00000000,
-14.00000000,
1.00000000,
19.00000000,
-6.00000000,
35.00000000,
14.00000000,
-50.00000000,
-25.00000000,
6.00000000,
-61.00000381,
-36.00000000,
10.00000000,
-18.00000000,
3.00000000,
-12.00000000,
-39.00000000,
-38.00000000,
1.00000000,
-51.00000000,
4.00000000,
8.00000000,
10.00000000,
1.00000000,
-30.00000191,
4.00000000,
21.00000000,
2.00000000,
-20.00000000,
16.00000000,
8.00000000,
26.00000000,
-18.00000000,
-21.00000000,
0.00000000,
11.00000000,
-6.00000000,
14.00000000,
3.00000000,
3.00000000,
38.00000000,
-25.00000000,
37.00000000,
-31.00000000,
29.00000000,
-19.00000000,
3.00000000,
33.00000000,
1.00000000,
42.00000000,
9.00000000,
39.00000000,
-18.00000000,
-67.00000000,
3.00000000,
-78.00000000,
-53.00000000,
-44.00000000,
-41.00000000,
-50.00000000,
-49.00000000,
16.00000000,
23.00000000,
-37.00000000,
33.00000000,
42.00000000,
-14.00000000,
14.00000000,
49.00000000,
1.00000000,
34.00000000,
9.00000000,
6.00000000,
9.00000000,
19.00000000,
-34.00000000,
13.00000000,
19.00000000,
-8.00000000,
42.00000000,
12.00000000,
-49.00000000,
56.00000000,
12.00000000,
-31.00000000,
12.00000000,
-59.00000381,
-1.00000000,
-13.00000000,
-31.00000000,
8.00000000,
-36.00000000,
5.00000000,
-1.00000000,
-11.00000000,
12.00000000,
-5.00000000,
-27.00000000,
-2.00000000,
-19.00000000,
-18.00000000,
-46.00000000,
-19.00000000,
-81.00000000,
-75.00000000,
-25.00000000,
26.00000000,
-22.00000000,
-7.00000000,
3.00000000,
13.00000000,
-29.00000000,
-47.00000000,
1.00000000,
-11.00000000,
-21.00000000,
-24.00000000,
-13.00000000,
-26.00000000,
-1.00000000,
-12.00000000,
35.00000000,
54.00000000,
-21.00000000,
35.00000000,
-13.00000000,
-5.00000000,
36.00000000,
9.00000000,
-15.00000095,
-24.00000000,
-10.00000000,
5.00000000,
-3.00000000,
9.00000000,
-38.00000000,
15.00000095,
-12.00000000,
-9.00000000,
8.00000000,
-44.00000000,
7.00000000,
9.00000000,
4.00000000,
-22.00000000,
10.00000000,
12.00000000,
-5.00000000,
38.00000000,
31.00000000,
-10.00000000,
27.00000000,
-2.00000000,
30.00000191,
-9.00000000,
-39.00000000,
22.00000000,
-13.00000000,
-15.00000095,
39.00000000,
-2.00000000,
-6.00000000,
-23.00000000,
19.00000000,
2.00000000,
21.00000000,
3.00000000,
-15.00000095,
-35.00000000,
9.00000000,
-6.00000000,
11.00000000,
18.00000000,
-29.00000000,
-21.00000000,
-17.00000000,
-15.00000095,
-32.00000000,
-37.00000000,
-38.00000000,
-28.00000000,
10.00000000,
18.00000000,
0.00000000,
32.00000000,
14.00000000,
-14.00000000,
-24.00000000,
25.00000000,
-16.00000000,
-1.00000000,
36.00000000,
-38.00000000,
14.00000000,
32.00000000,
-40.00000000,
-6.00000000,
-5.00000000,
-41.00000000,
11.00000000,
-25.00000000,
-66.00000000,
35.00000000,
-7.00000000,
-55.00000000,
-31.00000000,
-13.00000000,
-31.00000000,
-25.00000000,
-18.00000000,
-51.00000000,
12.00000000,
-34.00000000,
-40.00000000,
9.00000000,
9.00000000,
-17.00000000,
16.00000000,
23.00000000,
-48.00000000,
-22.00000000,
31.00000000,
-45.00000000,
9.00000000,
-23.00000000,
-9.00000000,
-35.00000000,
-54.00000000,
-39.00000000,
-13.00000000,
-17.00000000,
11.00000000,
-3.00000000,
36.00000000,
-2.00000000,
30.00000191,
60.00000381,
17.00000000,
13.00000000,
55.00000000,
-18.00000000,
-5.00000000,
-36.00000000,
4.00000000,
0.00000000,
-20.00000000,
-17.00000000,
29.00000000,
20.00000000,
-3.00000000,
6.00000000,
2.00000000,
-22.00000000,
7.00000000,
13.00000000,
-34.00000000,
37.00000000,
1.00000000,
-27.00000000,
4.00000000,
3.00000000,
-42.00000000,
-3.00000000,
-32.00000000,
7.00000000,
-4.00000000,
-27.00000000,
-6.00000000,
-12.00000000,
-29.00000000,
47.00000000,
-23.00000000,
-44.00000000,
45.00000000,
8.00000000,
-32.00000000,
19.00000000,
-14.00000000,
1.00000000,
16.00000000,
59.00000381,
59.00000381,
-57.00000000,
70.00000000,
47.00000000,
-115.00000000,
47.00000000,
-30.00000191,
7.00000000,
3.00000000,
-31.00000000,
18.00000000,
4.00000000,
-26.00000000,
26.00000000,
21.00000000,
-26.00000000,
-6.00000000,
-43.00000000,
-37.00000000,
52.00000000,
-47.00000000,
-20.00000000,
75.00000000,
-26.00000000,
24.00000000,
14.00000000,
51.00000000,
61.00000381,
3.00000000,
25.00000000,
44.00000000,
-31.00000000,
17.00000000,
-27.00000000,
14.00000000,
-8.00000000,
-34.00000000,
-6.00000000,
24.00000000,
-14.00000000,
32.00000000,
-3.00000000,
-4.00000000,
28.00000000,
-25.00000000,
-9.00000000,
8.00000000,
9.00000000,
-10.00000000,
-3.00000000,
-46.00000000,
4.00000000,
-12.00000000,
-10.00000000,
58.00000000,
-24.00000000,
40.00000000,
42.00000000,
-49.00000000,
18.00000000,
1.00000000,
50.00000000,
-20.00000000,
-37.00000000,
37.00000000,
-18.00000000,
-80.00000000,
-18.00000000,
3.00000000,
9.00000000,
-13.00000000,
-8.00000000,
-78.00000000,
2.00000000,
-19.00000000,
-81.00000000,
9.00000000,
6.00000000,
-14.00000000,
-26.00000000,
13.00000000,
-20.00000000,
-46.00000000,
-3.00000000,
39.00000000,
-19.00000000,
-25.00000000,
-8.00000000,
-43.00000000,
5.00000000,
-12.00000000,
-17.00000000,
16.00000000,
-19.00000000,
10.00000000,
48.00000000,
-1.00000000,
17.00000000,
13.00000000,
2.00000000,
8.00000000,
21.00000000,
27.00000000,
-6.00000000,
-59.00000381,
19.00000000,
11.00000000,
-27.00000000,
-17.00000000,
-22.00000000,
-17.00000000,
18.00000000,
21.00000000,
12.00000000,
-7.00000000,
-32.00000000,
-8.00000000,
-26.00000000,
-65.00000000,
-36.00000000,
-45.00000000,
-43.00000000,
33.00000000,
6.00000000,
10.00000000,
2.00000000,
-29.00000000,
-25.00000000,
-25.00000000,
-22.00000000,
-18.00000000,
-21.00000000,
-27.00000000,
-19.00000000,
-23.00000000,
-43.00000000,
-2.00000000,
-13.00000000,
7.00000000,
7.00000000,
-7.00000000,
-10.00000000,
31.00000000,
6.00000000,
32.00000000,
38.00000000,
4.00000000,
-11.00000000,
24.00000000,
31.00000000,
-25.00000000,
-58.00000000,
-1.00000000,
-37.00000000,
-76.00000000,
-14.00000000,
-12.00000000,
-25.00000000,
4.00000000,
-25.00000000,
12.00000000,
45.00000000,
43.00000000,
6.00000000,
15.00000095,
65.00000000,
27.00000000,
4.00000000,
-26.00000000,
-60.00000381,
-23.00000000,
-32.00000000,
-36.00000000,
4.00000000,
-39.00000000,
-29.00000000,
-11.00000000,
2.00000000,
62.00000000,
-8.00000000,
40.00000000,
62.00000000,
12.00000000,
25.00000000,
19.00000000,
40.00000000,
13.00000000,
-5.00000000,
22.00000000,
11.00000000,
-5.00000000,
-5.00000000,
-10.00000000,
-31.00000000,
-38.00000000,
7.00000000,
26.00000000,
6.00000000,
3.00000000,
13.00000000,
-6.00000000,
-18.00000000,
20.00000000,
-28.00000000,
20.00000000,
0.00000000,
18.00000000,
32.00000000,
58.00000000,
32.00000000,
-15.00000095,
-8.00000000,
-22.00000000,
3.00000000,
35.00000000,
-40.00000000,
0.00000000,
-16.00000000,
-22.00000000,
-20.00000000,
-22.00000000,
17.00000000,
15.00000095,
-52.00000000,
24.00000000,
-9.00000000,
-28.00000000,
-39.00000000,
3.00000000,
18.00000000,
6.00000000,
29.00000000,
-15.00000095,
24.00000000,
31.00000000,
-52.00000000,
26.00000000,
2.00000000,
-16.00000000,
6.00000000,
-9.00000000,
-22.00000000,
-33.00000000,
-82.00000000,
-64.00000000,
-26.00000000,
-68.00000000,
-32.00000000,
-18.00000000,
-10.00000000,
36.00000000,
-10.00000000,
4.00000000,
33.00000000,
-14.00000000,
21.00000000,
27.00000000,
-8.00000000,
29.00000000,
22.00000000,
-8.00000000,
11.00000000,
27.00000000,
8.00000000,
-9.00000000,
24.00000000,
-11.00000000,
8.00000000,
52.00000000,
-14.00000000,
-7.00000000,
-19.00000000,
-30.00000191,
14.00000000,
7.00000000,
3.00000000,
-7.00000000,
26.00000000,
-27.00000000,
-6.00000000,
44.00000000,
-24.00000000,
-27.00000000,
-10.00000000,
35.00000000,
37.00000000,
16.00000000,
22.00000000,
40.00000000,
34.00000000,
15.00000095,
0.00000000,
-14.00000000,
40.00000000,
-36.00000000,
-36.00000000,
19.00000000,
-16.00000000,
-21.00000000,
21.00000000,
-17.00000000,
-3.00000000,
-12.00000000,
12.00000000,
-15.00000095,
4.00000000,
23.00000000,
24.00000000,
-16.00000000,
-8.00000000,
8.00000000,
-4.00000000,
30.00000191,
-6.00000000,
38.00000000,
19.00000000,
-1.00000000,
29.00000000,
-26.00000000,
-28.00000000,
19.00000000,
27.00000000,
-5.00000000,
21.00000000,
34.00000000,
-28.00000000,
18.00000000,
-1.00000000,
-23.00000000,
-4.00000000,
-14.00000000,
16.00000000,
-51.00000000,
-46.00000000,
-13.00000000,
-48.00000000,
-65.00000000,
-7.00000000,
-3.00000000,
-22.00000000,
-60.00000381,
-67.00000000,
-53.00000000,
-17.00000000,
-66.00000000,
-54.00000000,
-31.00000000,
9.00000000,
11.00000000,
-46.00000000,
-5.00000000,
-23.00000000,
-22.00000000,
-8.00000000,
5.00000000,
-37.00000000,
-6.00000000,
-16.00000000,
-5.00000000,
-10.00000000,
44.00000000,
-6.00000000,
-73.00000000,
-3.00000000,
38.00000000,
13.00000000,
18.00000000,
4.00000000,
5.00000000,
-20.00000000,
-18.00000000,
-55.00000000,
-35.00000000,
-42.00000000,
2.00000000,
-7.00000000,
-23.00000000,
-3.00000000,
-7.00000000,
-13.00000000,
-52.00000000,
-33.00000000,
13.00000000,
10.00000000,
-4.00000000,
-5.00000000,
2.00000000,
26.00000000,
44.00000000,
-11.00000000,
16.00000000,
18.00000000,
-5.00000000,
5.00000000,
6.00000000,
-33.00000000,
-9.00000000,
-10.00000000,
-10.00000000,
-10.00000000,
-11.00000000,
36.00000000,
33.00000000,
3.00000000,
3.00000000,
-14.00000000,
-7.00000000,
-27.00000000,
3.00000000,
20.00000000,
33.00000000,
23.00000000,
-10.00000000,
24.00000000,
-15.00000095,
7.00000000,
-2.00000000,
12.00000000,
47.00000000,
8.00000000,
23.00000000,
22.00000000,
16.00000000,
-14.00000000,
46.00000000,
-5.00000000,
-7.00000000,
26.00000000,
20.00000000,
-7.00000000,
33.00000000,
17.00000000,
5.00000000,
-7.00000000,
2.00000000,
-25.00000000,
-43.00000000,
8.00000000,
-22.00000000,
-22.00000000,
-19.00000000,
-32.00000000,
-2.00000000,
-29.00000000,
-13.00000000,
-4.00000000,
1.00000000,
-11.00000000,
-6.00000000,
-1.00000000,
40.00000000,
24.00000000,
21.00000000,
-27.00000000,
-28.00000000,
14.00000000,
-5.00000000,
12.00000000,
12.00000000,
-15.00000095,
21.00000000,
-18.00000000,
3.00000000,
0.00000000,
4.00000000,
1.00000000,
7.00000000,
-2.00000000,
28.00000000,
18.00000000,
-10.00000000,
-20.00000000,
-1.00000000,
37.00000000,
-5.00000000,
-5.00000000,
-26.00000000,
-5.00000000,
-11.00000000,
-33.00000000,
-2.00000000,
-11.00000000,
-6.00000000,
-12.00000000,
2.00000000,
-22.00000000,
22.00000000,
24.00000000,
1.00000000,
20.00000000,
-12.00000000,
20.00000000,
-10.00000000,
-4.00000000,
-1.00000000,
14.00000000,
30.00000191,
0.00000000,
-4.00000000,
-2.00000000,
-14.00000000,
32.00000000,
9.00000000,
-18.00000000,
9.00000000,
-11.00000000,
-44.00000000,
-33.00000000,
10.00000000,
14.00000000,
-9.00000000,
21.00000000,
-25.00000000,
-13.00000000,
13.00000000,
-8.00000000,
-28.00000000,
3.00000000,
-44.00000000,
20.00000000,
2.00000000,
-16.00000000,
7.00000000,
24.00000000,
5.00000000,
-3.00000000,
11.00000000,
-18.00000000,
-27.00000000,
2.00000000,
-7.00000000,
7.00000000,
54.00000000,
-8.00000000,
-8.00000000,
3.00000000,
-18.00000000,
-7.00000000,
-4.00000000,
-33.00000000,
20.00000000,
44.00000000,
-18.00000000,
12.00000000,
42.00000000,
-55.00000000,
-29.00000000,
-15.00000095,
-20.00000000,
-18.00000000,
57.00000000,
-11.00000000,
5.00000000,
43.00000000,
-51.00000000,
1.00000000,
-5.00000000,
28.00000000,
2.00000000,
-15.00000095,
-17.00000000,
13.00000000,
25.00000000,
-43.00000000,
11.00000000,
8.00000000,
-24.00000000,
16.00000000,
8.00000000,
-4.00000000,
-7.00000000,
14.00000000,
-36.00000000,
12.00000000,
48.00000000,
-19.00000000,
40.00000000,
16.00000000,
-24.00000000,
1.00000000,
1.00000000,
-9.00000000,
10.00000000,
-8.00000000,
-11.00000000,
-12.00000000,
0.00000000,
1.00000000,
-31.00000000,
16.00000000,
-31.00000000,
-14.00000000,
14.00000000,
-37.00000000,
21.00000000,
32.00000000,
-38.00000000,
-16.00000000,
17.00000000,
-21.00000000,
-5.00000000,
-36.00000000,
8.00000000,
1.00000000,
47.00000000,
-9.00000000,
-4.00000000,
7.00000000,
-14.00000000,
-28.00000000,
32.00000000,
-1.00000000,
-6.00000000,
11.00000000,
-50.00000000,
-1.00000000,
23.00000000,
-6.00000000,
-9.00000000,
35.00000000,
11.00000000,
6.00000000,
-7.00000000,
8.00000000,
-9.00000000,
-10.00000000,
25.00000000,
-1.00000000,
-15.00000095,
27.00000000,
21.00000000,
-4.00000000,
11.00000000,
-7.00000000,
-5.00000000,
-23.00000000,
7.00000000,
32.00000000,
-9.00000000,
30.00000191,
14.00000000,
6.00000000,
14.00000000,
-14.00000000,
-7.00000000,
-19.00000000,
11.00000000,
30.00000191,
-3.00000000,
-26.00000000,
36.00000000,
1.00000000,
-72.00000000,
-19.00000000,
-38.00000000,
29.00000000,
-16.00000000,
-45.00000000,
63.00000000,
-13.00000000,
-14.00000000,
0.00000000,
27.00000000,
15.00000095,
-13.00000000,
17.00000000,
22.00000000,
-51.00000000,
59.00000381,
15.00000095,
-41.00000000,
14.00000000,
14.00000000,
-27.00000000,
-12.00000000,
-4.00000000,
13.00000000,
-10.00000000,
10.00000000,
23.00000000,
-8.00000000,
9.00000000,
-14.00000000,
-25.00000000,
6.00000000,
31.00000000,
-16.00000000,
11.00000000,
9.00000000,
10.00000000,
-45.00000000,
-8.00000000,
6.00000000,
5.00000000,
-4.00000000,
-3.00000000,
-3.00000000,
2.00000000,
15.00000095,
14.00000000,
-20.00000000,
26.00000000,
-15.00000095,
14.00000000,
-1.00000000,
-15.00000095,
6.00000000,
53.00000000,
40.00000000,
-50.00000000,
61.00000381,
35.00000000,
-87.00000000,
43.00000000,
-15.00000095,
-86.00000000,
6.00000000,
-7.00000000,
39.00000000,
-30.00000191,
-23.00000000,
23.00000000,
-27.00000000,
0.00000000,
-3.00000000,
-2.00000000,
-9.00000000,
20.00000000,
-23.00000000,
-2.00000000,
23.00000000,
-11.00000000,
9.00000000,
36.00000000,
4.00000000,
-11.00000000,
-18.00000000,
-22.00000000,
22.00000000,
17.00000000,
-21.00000000,
-16.00000000,
24.00000000,
2.00000000,
-38.00000000,
-18.00000000,
-19.00000000,
-48.00000000,
-27.00000000,
4.00000000,
2.00000000,
8.00000000,
25.00000000,
9.00000000,
-9.00000000,
-33.00000000,
-57.00000000,
-39.00000000,
-28.00000000,
-43.00000000,
-45.00000000,
-5.00000000,
36.00000000,
58.00000000,
19.00000000,
0.00000000,
-9.00000000,
15.00000095,
-83.00000000,
-57.00000000,
21.00000000,
38.00000000,
0.00000000,
28.00000000,
-1.00000000,
-46.00000000,
24.00000000,
-23.00000000,
-61.00000381,
7.00000000,
6.00000000,
5.00000000,
5.00000000,
-12.00000000,
-41.00000000,
1.00000000,
-23.00000000,
-44.00000000,
-2.00000000,
6.00000000,
-3.00000000,
-3.00000000,
8.00000000,
28.00000000,
21.00000000,
-16.00000000,
-33.00000000,
43.00000000,
44.00000000,
3.00000000,
5.00000000,
-1.00000000,
-35.00000000,
-14.00000000,
-15.00000095,
-34.00000000,
-12.00000000,
-11.00000000,
5.00000000,
-38.00000000,
-27.00000000,
-67.00000000,
-6.00000000,
2.00000000,
-26.00000000,
-9.00000000,
10.00000000,
28.00000000,
16.00000000,
12.00000000,
36.00000000,
16.00000000,
29.00000000,
3.00000000,
2.00000000,
23.00000000,
32.00000000,
-3.00000000,
9.00000000,
43.00000000,
4.00000000,
4.00000000,
9.00000000,
-20.00000000,
17.00000000,
30.00000191,
-5.00000000,
-14.00000000,
44.00000000,
6.00000000,
-16.00000000,
-6.00000000,
29.00000000,
63.00000000,
65.00000000,
31.00000000,
21.00000000,
-1.00000000,
11.00000000,
20.00000000,
-7.00000000,
5.00000000,
18.00000000,
21.00000000,
8.00000000,
38.00000000,
-18.00000000,
36.00000000,
26.00000000,
4.00000000,
-33.00000000,
-1.00000000,
9.00000000,
-3.00000000,
-15.00000095,
30.00000191,
-7.00000000,
-34.00000000,
1.00000000,
29.00000000,
-34.00000000,
-36.00000000,
-1.00000000,
-15.00000095,
-58.00000000,
-17.00000000,
22.00000000,
-9.00000000,
-35.00000000,
14.00000000,
-40.00000000,
-41.00000000,
20.00000000,
6.00000000,
-31.00000000,
41.00000000,
86.00000000,
18.00000000,
47.00000000,
21.00000000,
23.00000000,
15.00000095,
10.00000000,
13.00000000,
-30.00000191,
-14.00000000,
3.00000000,
-6.00000000,
3.00000000,
23.00000000,
33.00000000,
18.00000000,
35.00000000,
11.00000000,
10.00000000,
4.00000000,
18.00000000,
51.00000000,
1.00000000,
32.00000000,
6.00000000,
22.00000000,
15.00000095,
-14.00000000,
-15.00000095,
3.00000000,
49.00000000,
-22.00000000,
-44.00000000,
21.00000000,
4.00000000,
-69.00000000,
-42.00000000,
12.00000000,
-21.00000000,
-29.00000000,
-10.00000000,
8.00000000,
-2.00000000,
13.00000000,
33.00000000,
47.00000000,
8.00000000,
21.00000000,
12.00000000,
22.00000000,
13.00000000,
28.00000000,
3.00000000,
23.00000000,
26.00000000,
65.00000000,
37.00000000,
-4.00000000,
18.00000000,
15.00000095,
25.00000000,
-4.00000000,
-18.00000000,
2.00000000,
-11.00000000,
-3.00000000,
2.00000000,
-3.00000000,
3.00000000,
-25.00000000,
-8.00000000,
-16.00000000,
-35.00000000,
-17.00000000,
5.00000000,
-6.00000000,
-39.00000000,
-1.00000000,
-12.00000000,
-9.00000000,
7.00000000,
33.00000000,
-16.00000000,
-7.00000000,
-6.00000000,
-6.00000000,
9.00000000,
-6.00000000,
6.00000000,
-22.00000000,
9.00000000,
-19.00000000,
3.00000000,
-4.00000000,
-7.00000000,
-29.00000000,
-4.00000000,
3.00000000,
-31.00000000,
-31.00000000,
-33.00000000,
-29.00000000,
-1.00000000,
-12.00000000,
-6.00000000,
20.00000000,
-4.00000000,
-22.00000000,
2.00000000,
-42.00000000,
2.00000000,
-10.00000000,
-36.00000000,
-13.00000000,
11.00000000,
-36.00000000,
-11.00000000,
23.00000000,
-46.00000000,
-36.00000000,
-18.00000000,
-35.00000000,
-21.00000000,
26.00000000,
-13.00000000,
3.00000000,
4.00000000,
-4.00000000,
-6.00000000,
-23.00000000,
22.00000000,
-45.00000000,
-14.00000000,
30.00000191,
-54.00000000,
-6.00000000,
-8.00000000,
-6.00000000,
25.00000000,
15.00000095,
9.00000000,
6.00000000,
4.00000000,
10.00000000,
2.00000000,
-6.00000000,
-24.00000000,
29.00000000,
-39.00000000,
-56.00000000,
12.00000000,
-19.00000000,
-55.00000000,
17.00000000,
14.00000000,
-23.00000000,
-12.00000000,
15.00000095,
7.00000000,
-22.00000000,
12.00000000,
7.00000000,
-2.00000000,
18.00000000,
-28.00000000,
-4.00000000,
28.00000000,
-11.00000000,
32.00000000,
24.00000000,
-6.00000000,
-14.00000000,
-53.00000000,
-21.00000000,
7.00000000,
-19.00000000,
32.00000000,
37.00000000,
-35.00000000,
19.00000000,
8.00000000,
18.00000000,
25.00000000,
-18.00000000,
49.00000000,
43.00000000,
18.00000000,
15.00000095,
33.00000000,
8.00000000,
-22.00000000,
-31.00000000,
3.00000000,
-60.00000381,
-22.00000000,
18.00000000,
-52.00000000,
-35.00000000,
40.00000000,
-4.00000000,
-5.00000000,
23.00000000,
-16.00000000,
-27.00000000,
16.00000000,
0.00000000,
-15.00000095,
8.00000000,
27.00000000,
16.00000000,
-8.00000000,
55.00000000,
19.00000000,
-31.00000000,
39.00000000,
28.00000000,
-47.00000000,
-18.00000000,
2.00000000,
0.00000000,
-75.00000000,
-46.00000000,
29.00000000,
-31.00000000,
-52.00000000,
28.00000000,
9.00000000,
-1.00000000,
-26.00000000,
42.00000000,
47.00000000,
2.00000000,
-10.00000000,
39.00000000,
12.00000000,
-15.00000095,
-58.00000000,
10.00000000,
-21.00000000,
-11.00000000,
-18.00000000,
-9.00000000,
4.00000000,
-16.00000000,
-7.00000000,
14.00000000,
29.00000000,
-40.00000000,
-38.00000000,
39.00000000,
-27.00000000,
2.00000000,
33.00000000,
5.00000000,
21.00000000,
-28.00000000,
35.00000000,
37.00000000,
-32.00000000,
7.00000000,
17.00000000,
10.00000000,
-14.00000000,
-15.00000095,
-3.00000000,
17.00000000,
8.00000000,
12.00000000,
10.00000000,
31.00000000,
1.00000000,
-24.00000000,
-16.00000000,
-12.00000000,
-32.00000000,
-19.00000000,
20.00000000,
-11.00000000,
-28.00000000,
11.00000000,
-33.00000000,
-3.00000000,
-7.00000000,
-21.00000000,
-14.00000000,
24.00000000,
12.00000000,
-16.00000000,
9.00000000,
-23.00000000,
-15.00000095,
13.00000000,
-42.00000000,
1.00000000,
-55.00000000,
-15.00000095,
27.00000000,
-22.00000000,
-1.00000000,
-8.00000000,
11.00000000,
-14.00000000,
-11.00000000,
19.00000000,
-29.00000000,
10.00000000,
-1.00000000,
15.00000095,
-26.00000000,
-56.00000000,
11.00000000,
13.00000000,
-41.00000000,
-29.00000000,
-2.00000000,
-24.00000000,
-30.00000191,
-19.00000000,
-41.00000000,
1.00000000,
-15.00000095,
-17.00000000,
-24.00000000,
-13.00000000,
2.00000000,
31.00000000,
47.00000000,
12.00000000,
59.00000381,
-1.00000000,
7.00000000,
11.00000000,
13.00000000,
15.00000095,
63.00000000,
43.00000000,
24.00000000,
18.00000000,
12.00000000,
10.00000000,
26.00000000,
22.00000000,
-17.00000000,
23.00000000,
-31.00000000,
6.00000000,
14.00000000,
-23.00000000,
4.00000000,
2.00000000,
-5.00000000,
-19.00000000,
-3.00000000,
0.00000000,
13.00000000,
18.00000000,
-8.00000000,
-20.00000000,
-20.00000000,
-11.00000000,
-33.00000000,
-13.00000000,
27.00000000,
-6.00000000,
8.00000000,
-19.00000000,
15.00000095,
-9.00000000,
25.00000000,
7.00000000,
7.00000000,
-2.00000000,
1.00000000,
54.00000000,
5.00000000,
-14.00000000,
5.00000000,
34.00000000,
2.00000000,
-21.00000000,
17.00000000,
11.00000000,
1.00000000,
-6.00000000,
2.00000000,
2.00000000,
-8.00000000,
-4.00000000,
12.00000000,
-16.00000000,
20.00000000,
16.00000000,
15.00000095,
18.00000000,
-2.00000000,
-14.00000000,
-25.00000000,
-5.00000000,
-30.00000191,
-11.00000000,
-22.00000000,
3.00000000,
10.00000000,
-16.00000000,
-7.00000000,
-51.00000000,
29.00000000,
1.00000000,
12.00000000,
9.00000000,
9.00000000,
7.00000000,
29.00000000,
14.00000000,
7.00000000,
3.00000000,
20.00000000,
0.00000000,
-24.00000000,
12.00000000,
33.00000000,
-18.00000000,
-20.00000000,
43.00000000,
-2.00000000,
-26.00000000,
-21.00000000,
-30.00000191,
-41.00000000,
-25.00000000,
-9.00000000,
-46.00000000,
2.00000000,
10.00000000,
-16.00000000,
-5.00000000,
-10.00000000,
22.00000000,
3.00000000,
21.00000000,
52.00000000,
18.00000000,
-36.00000000,
-31.00000000,
-9.00000000,
-30.00000191,
-33.00000000,
-85.00000000,
18.00000000,
-1.00000000,
0.00000000,
31.00000000,
32.00000000,
-4.00000000,
30.00000191,
6.00000000,
14.00000000,
-3.00000000,
8.00000000,
20.00000000,
-12.00000000,
38.00000000,
49.00000000,
17.00000000,
28.00000000,
33.00000000,
-24.00000000,
22.00000000,
34.00000000,
18.00000000,
43.00000000,
36.00000000,
42.00000000,
33.00000000,
-9.00000000,
33.00000000,
14.00000000,
-12.00000000,
-6.00000000,
-30.00000191,
-43.00000000,
32.00000000,
-42.00000000,
-13.00000000,
-21.00000000,
30.00000191,
15.00000095,
-28.00000000,
0.00000000,
-21.00000000,
5.00000000,
-19.00000000,
-16.00000000,
-9.00000000,
-17.00000000,
51.00000000,
-5.00000000,
-12.00000000,
31.00000000,
11.00000000,
37.00000000,
6.00000000,
-28.00000000,
-24.00000000,
8.00000000,
18.00000000,
41.00000000,
12.00000000,
-26.00000000,
25.00000000,
53.00000000,
-19.00000000,
-4.00000000,
38.00000000,
-25.00000000,
-60.00000381,
4.00000000,
0.00000000,
-14.00000000,
-75.00000000,
18.00000000,
3.00000000,
-2.00000000,
-32.00000000,
-64.00000000,
-54.00000000,
-31.00000000,
-9.00000000,
-40.00000000,
5.00000000,
11.00000000,
20.00000000,
-76.00000000,
-36.00000000,
20.00000000,
0.00000000,
-3.00000000,
13.00000000,
43.00000000,
53.00000000,
18.00000000,
-14.00000000,
-27.00000000,
-6.00000000,
11.00000000,
41.00000000,
1.00000000,
23.00000000,
-9.00000000,
14.00000000,
-20.00000000,
-1.00000000,
-62.00000000,
15.00000095,
9.00000000,
-63.00000000,
64.00000000,
42.00000000,
-49.00000000,
-45.00000000,
-37.00000000,
6.00000000,
-24.00000000,
-26.00000000,
-5.00000000,
2.00000000,
21.00000000,
-6.00000000,
-33.00000000,
24.00000000,
11.00000000,
29.00000000,
25.00000000,
-7.00000000,
-4.00000000,
44.00000000,
7.00000000,
-3.00000000,
-6.00000000,
0.00000000,
11.00000000,
5.00000000,
2.00000000,
51.00000000,
38.00000000,
38.00000000,
9.00000000,
2.00000000,
-11.00000000,
-2.00000000,
19.00000000,
-29.00000000,
18.00000000,
32.00000000,
12.00000000,
29.00000000,
24.00000000,
32.00000000,
-68.00000000,
5.00000000,
-16.00000000,
7.00000000,
-49.00000000,
-24.00000000,
8.00000000,
-11.00000000,
-22.00000000,
0.00000000,
-4.00000000,
4.00000000,
5.00000000,
6.00000000,
-7.00000000,
-1.00000000,
-4.00000000,
-51.00000000,
7.00000000,
18.00000000,
-13.00000000,
2.00000000,
0.00000000,
-35.00000000,
47.00000000,
12.00000000,
9.00000000,
-21.00000000,
-54.00000000,
-43.00000000,
-50.00000000,
-86.00000000,
5.00000000,
-60.00000381,
-28.00000000,
14.00000000,
-43.00000000,
60.00000381,
16.00000000,
-27.00000000,
44.00000000,
-36.00000000,
57.00000000,
53.00000000,
20.00000000,
-27.00000000,
-7.00000000,
33.00000000,
-27.00000000,
-30.00000191,
-10.00000000,
-15.00000095,
-56.00000000,
2.00000000,
24.00000000,
16.00000000,
19.00000000,
44.00000000,
21.00000000,
48.00000000,
6.00000000,
-7.00000000,
9.00000000,
-9.00000000,
-4.00000000,
5.00000000,
3.00000000,
-8.00000000,
15.00000095,
23.00000000,
7.00000000,
-16.00000000,
8.00000000,
-14.00000000,
-11.00000000,
43.00000000,
-3.00000000,
9.00000000,
26.00000000,
-32.00000000,
31.00000000,
43.00000000,
6.00000000,
19.00000000,
-1.00000000,
-19.00000000,
37.00000000,
57.00000000,
49.00000000,
-3.00000000,
28.00000000,
-12.00000000,
0.00000000,
1.00000000,
-64.00000000,
-34.00000000,
-19.00000000,
-14.00000000,
-8.00000000,
0.00000000,
26.00000000,
-84.00000000,
12.00000000,
45.00000000,
-19.00000000,
-5.00000000,
30.00000191,
-9.00000000,
-48.00000000,
-25.00000000,
-34.00000000,
-15.00000095,
-32.00000000,
-13.00000000,
-10.00000000,
-43.00000000,
-34.00000000,
24.00000000,
-6.00000000,
-1.00000000,
6.00000000,
28.00000000,
53.00000000,
0.00000000,
36.00000000,
1.00000000,
-35.00000000,
-34.00000000,
-43.00000000,
0.00000000,
-9.00000000,
25.00000000,
-15.00000095,
11.00000000,
13.00000000,
-5.00000000,
-9.00000000,
-44.00000000,
4.00000000,
11.00000000,
-31.00000000,
-28.00000000,
-4.00000000,
-38.00000000,
19.00000000,
31.00000000,
-27.00000000,
-22.00000000,
2.00000000,
11.00000000,
-21.00000000,
1.00000000,
-17.00000000,
-35.00000000,
5.00000000,
-33.00000000,
-39.00000000,
-44.00000000,
7.00000000,
3.00000000,
-6.00000000,
21.00000000,
-19.00000000,
14.00000000,
-19.00000000,
-6.00000000,
8.00000000,
29.00000000,
5.00000000,
3.00000000,
-24.00000000,
-12.00000000,
-47.00000000,
-28.00000000,
-17.00000000,
31.00000000,
-15.00000095,
-35.00000000,
-7.00000000,
-43.00000000,
8.00000000,
17.00000000,
-28.00000000,
-23.00000000,
-35.00000000,
74.00000000,
-19.00000000,
-21.00000000,
-14.00000000,
3.00000000,
9.00000000,
9.00000000,
20.00000000,
32.00000000,
43.00000000,
3.00000000,
-10.00000000,
-58.00000000,
-34.00000000,
-9.00000000,
4.00000000,
-28.00000000,
33.00000000,
52.00000000,
11.00000000,
-36.00000000,
-1.00000000,
-17.00000000,
-43.00000000,
-2.00000000,
-42.00000000,
-2.00000000,
-6.00000000,
-6.00000000,
-12.00000000,
-17.00000000,
18.00000000,
24.00000000,
8.00000000,
11.00000000,
-1.00000000,
-2.00000000,
22.00000000,
-4.00000000,
-6.00000000,
-14.00000000,
18.00000000,
31.00000000,
24.00000000,
43.00000000,
-26.00000000,
-10.00000000,
-63.00000000,
-25.00000000,
8.00000000,
-18.00000000,
-8.00000000,
25.00000000,
24.00000000,
-6.00000000,
29.00000000,
25.00000000,
3.00000000,
33.00000000,
-3.00000000,
17.00000000,
-35.00000000,
-47.00000000,
-8.00000000,
14.00000000,
-43.00000000,
-21.00000000,
7.00000000,
21.00000000,
56.00000000,
-16.00000000,
20.00000000,
35.00000000,
-10.00000000,
-33.00000000,
12.00000000,
17.00000000,
-46.00000000,
-12.00000000,
21.00000000,
-11.00000000,
-37.00000000,
-13.00000000,
9.00000000,
-68.00000000,
-6.00000000,
17.00000000,
0.00000000,
-30.00000191,
2.00000000,
70.00000000,
-12.00000000,
-27.00000000,
-37.00000000,
-4.00000000,
-18.00000000,
-25.00000000,
26.00000000,
45.00000000,
-20.00000000,
-3.00000000,
28.00000000,
-21.00000000,
2.00000000,
-30.00000191,
37.00000000,
1.00000000,
9.00000000,
-1.00000000,
41.00000000,
60.00000381,
-46.00000000,
29.00000000,
-2.00000000,
-63.00000000,
-19.00000000,
-16.00000000,
22.00000000,
7.00000000,
-17.00000000,
-7.00000000,
-5.00000000,
-46.00000000,
-19.00000000,
-12.00000000,
-26.00000000,
-4.00000000,
13.00000000,
-8.00000000,
-2.00000000,
-20.00000000,
-20.00000000,
-17.00000000,
12.00000000,
10.00000000,
-58.00000000,
-37.00000000,
-19.00000000,
26.00000000,
4.00000000,
18.00000000,
52.00000000,
-20.00000000,
5.00000000,
44.00000000,
