# stage2.refine.conv.weight (shape [32, 32, 3, 3], dtype float32),
91.00000000,
29.00000000,
25.99999809,
-16.00000000,
-5.00000000,
5.00000000,
11.00000000,
69.00000000,
-28.00000191,
32.00000000,
-5.00000000,
-44.00000000,
-4.00000000,
38.00000000,
-51.99999619,
-44.00000000,
-32.00000000,
20.00000000,
-21.00000000,
1.00000000,
12.99999905,
7.00000048,
-38.00000000,
-2.00000000,
-42.00000000,
-33.00000000,
20.00000000,
-38.00000000,
15.00000000,
-12.00000000,
-25.99999809,
-22.00000000,
9.00000000,
-74.00000000,
-43.00000000,
6.00000000,
-53.00000000,
10.00000000,
-12.00000000,
-37.00000000,
-20.00000000,
-11.00000000,
16.00000000,
-31.00000000,
-29.00000000,
6.00000000,
17.00000000,
-1.00000000,
35.00000000,
-14.00000095,
-4.00000000,
27.00000191,
4.00000000,
3.00000000,
-30.00000000,
-2.00000000,
-11.00000000,
23.00000000,
42.00000000,
45.00000381,
-55.00000000,
-5.00000000,
15.00000000,
-18.00000000,
7.00000048,
47.00000000,
-3.00000000,
-16.00000000,
-17.00000000,
24.00000000,
-8.00000000,
-12.00000000,
-3.00000000,
20.00000000,
-67.00000000,
-10.00000000,
-35.00000000,
-53.00000000,
-2.00000000,
17.00000000,
-17.00000000,
-59.00000000,
-35.00000000,
-15.00000000,
-7.00000048,
7.00000048,
-2.00000000,
-22.00000000,
23.00000000,
-1.00000000,
39.00000000,
20.00000000,
-28.00000191,
-25.00000000,
28.00000191,
-23.00000000,
-1.00000000,
19.00000000,
-61.00000000,
-9.00000000,
22.00000000,
54.00000381,
-5.00000000,
20.00000000,
31.00000000,
-36.00000000,
-33.00000000,
3.00000000,
-48.00000000,
-38.00000000,
-48.00000000,
-40.00000000,
-3.00000000,
-14.00000095,
-19.00000000,
-35.00000000,
-44.00000000,
22.00000000,
68.00000000,
-18.00000000,
-20.00000000,
20.00000000,
14.00000095,
36.00000000,
5.00000000,
43.00000000,
19.00000000,
4.00000000,
-24.00000000,
-20.00000000,
41.00000000,
-37.00000000,
23.00000000,
31.00000000,
-8.00000000,
59.00000000,
2.00000000,
-15.00000000,
12.00000000,
28.00000191,
-33.00000000,
-22.00000000,
-38.00000000,
-5.00000000,
78.00000000,
33.00000000,
20.00000000,
25.00000000,
8.00000000,
-25.00000000,
7.00000048,
5.00000000,
-12.99999905,
51.00000000,
-22.00000000,
-38.00000000,
4.00000000,
-9.00000000,
-12.00000000,
36.00000000,
14.00000095,
10.00000000,
-84.00000000,
-56.00000381,
-77.00000000,
-20.00000000,
-20.00000000,
-31.00000000,
-28.00000191,
-30.00000000,
14.00000095,
-43.00000000,
-20.00000000,
-14.00000095,
16.00000000,
1.00000000,
-32.00000000,
-5.00000000,
1.00000000,
-12.00000000,
5.00000000,
-6.00000000,
-38.00000000,
-39.00000000,
-47.00000000,
-25.99999809,
15.00000000,
-11.00000000,
-71.00000000,
-5.00000000,
48.00000000,
-36.00000000,
0.00000000,
6.00000000,
6.00000000,
-49.00000000,
-35.00000000,
-14.00000095,
-30.00000000,
12.99999905,
12.00000000,
17.00000000,
19.00000000,
-2.00000000,
-6.00000000,
-15.00000000,
18.00000000,
-29.00000000,
-11.00000000,
-3.00000000,
15.00000000,
24.00000000,
-11.00000000,
5.00000000,
29.00000000,
-65.00000000,
-11.00000000,
-57.00000000,
-50.00000000,
-15.00000000,
27.00000191,
29.00000000,
19.00000000,
21.00000000,
22.00000000,
-25.00000000,
8.00000000,
-6.00000000,
2.00000000,
-1.00000000,
-5.00000000,
-38.00000000,
-5.00000000,
-33.00000000,
-27.00000191,
-12.99999905,
-11.00000000,
-34.00000000,
-11.00000000,
-14.00000095,
-23.00000000,
-25.00000000,
-11.00000000,
-59.00000000,
-36.00000000,
-41.00000000,
-18.00000000,
-4.00000000,
-14.00000095,
16.00000000,
-12.00000000,
9.00000000,
3.00000000,
16.00000000,
25.99999809,
48.00000000,
53.00000000,
-3.00000000,
-9.00000000,
-15.00000000,
3.00000000,
32.00000000,
30.00000000,
-23.00000000,
12.99999905,
16.00000000,
-24.00000000,
-29.00000000,
19.00000000,
-30.00000000,
21.00000000,
0.00000000,
-36.00000000,
-29.00000000,
4.00000000,
4.00000000,
15.00000000,
53.00000000,
28.00000191,
-65.00000000,
-9.00000000,
-15.00000000,
-44.00000000,
-30.00000000,
40.00000000,
-10.00000000,
-2.00000000,
-3.00000000,
-53.00000000,
9.00000000,
41.00000000,
-62.99999619,
9.00000000,
33.00000000,
-27.00000191,
-32.00000000,
-60.00000000,
-56.00000381,
-68.00000000,
-34.00000000,
-12.00000000,
-91.00000000,
-24.00000000,
-81.00000000,
-92.99999237,
-100.00000000,
-15.00000000,
-24.00000000,
9.00000000,
-59.00000000,
-54.00000381,
5.00000000,
-9.00000000,
-4.00000000,
-62.00000000,
27.00000191,
-14.00000095,
-6.00000000,
1.00000000,
-37.00000000,
-36.00000000,
43.00000000,
-20.00000000,
-28.00000191,
-21.00000000,
-41.00000000,
-74.00000000,
-21.00000000,
2.00000000,
-22.00000000,
27.00000191,
1.00000000,
-27.00000191,
-5.00000000,
8.00000000,
25.00000000,
-24.00000000,
-6.00000000,
-12.00000000,
-9.00000000,
49.00000000,
22.00000000,
20.00000000,
18.00000000,
-14.00000095,
18.00000000,
9.00000000,
25.99999809,
64.00000000,
-14.00000095,
21.00000000,
-25.99999809,
42.00000000,
44.00000000,
-12.00000000,
-44.00000000,
11.00000000,
19.00000000,
-38.00000000,
17.00000000,
2.00000000,
-11.00000000,
4.00000000,
14.00000095,
21.00000000,
-10.00000000,
-59.00000000,
-105.00000000,
-15.00000000,
19.00000000,
-71.00000000,
-36.00000000,
-25.99999809,
-10.00000000,
-48.00000000,
4.00000000,
-1.00000000,
-39.00000000,
-37.00000000,
8.00000000,
28.00000191,
-8.00000000,
50.00000000,
61.00000000,
-3.00000000,
-5.00000000,
-25.00000000,
25.99999809,
-32.00000000,
-2.00000000,
-25.99999809,
-23.00000000,
-14.00000095,
-41.00000000,
-45.00000381,
-6.00000000,
-2.00000000,
-45.00000381,
-31.00000000,
-11.00000000,
-20.00000000,
-4.00000000,
0.00000000,
-14.00000095,
-49.00000000,
9.00000000,
14.00000095,
40.00000000,
-20.00000000,
15.00000000,
19.00000000,
-5.00000000,
7.00000048,
50.00000000,
-30.00000000,
-19.00000000,
44.00000000,
-51.99999619,
4.00000000,
17.00000000,
-72.00000000,
6.00000000,
0.00000000,
29.00000000,
20.00000000,
30.00000000,
-8.00000000,
42.00000000,
-8.00000000,
28.00000191,
-43.00000000,
15.00000000,
36.00000000,
64.00000000,
21.00000000,
50.00000000,
-2.00000000,
24.00000000,
-11.00000000,
-29.00000000,
36.00000000,
27.00000191,
65.00000000,
12.00000000,
37.00000000,
43.00000000,
25.99999809,
10.00000000,
0.00000000,
6.00000000,
18.00000000,
15.00000000,
35.00000000,
-38.00000000,
4.00000000,
2.00000000,
-51.99999619,
-21.00000000,
-44.00000000,
-55.00000000,
5.00000000,
-20.00000000,
-24.00000000,
1.00000000,
-21.00000000,
-19.00000000,
21.00000000,
23.00000000,
-57.00000000,
-39.00000000,
0.00000000,
-66.00000000,
-7.00000048,
-11.00000000,
-1.00000000,
-44.00000000,
-15.00000000,
-50.00000000,
28.00000191,
12.99999905,
-51.00000000,
-16.00000000,
43.00000000,
-85.00000000,
-38.00000000,
-48.00000000,
42.00000000,
50.00000000,
-5.00000000,
-47.00000000,
0.00000000,
6.00000000,
45.00000381,
21.00000000,
25.99999809,
48.00000000,
66.00000000,
72.00000000,
16.00000000,
5.00000000,
23.00000000,
-44.00000000,
-3.00000000,
18.00000000,
-29.00000000,
21.00000000,
-30.00000000,
-75.00000000,
-9.00000000,
35.00000000,
-2.00000000,
2.00000000,
33.00000000,
21.00000000,
-27.00000191,
-23.00000000,
22.00000000,
-24.00000000,
-19.00000000,
2.00000000,
0.00000000,
8.00000000,
-1.00000000,
1.00000000,
11.00000000,
-32.00000000,
-25.99999809,
10.00000000,
21.00000000,
25.99999809,
67.00000000,
21.00000000,
57.00000000,
0.00000000,
10.00000000,
17.00000000,
-2.00000000,
51.00000000,
29.00000000,
-4.00000000,
-11.00000000,
-28.00000191,
-53.00000000,
-22.00000000,
-44.00000000,
9.00000000,
-16.00000000,
4.00000000,
41.00000000,
55.00000000,
73.00000000,
64.00000000,
-20.00000000,
29.00000000,
2.00000000,
24.00000000,
32.00000000,
-2.00000000,
-54.00000381,
-46.00000000,
-10.00000000,
-20.00000000,
20.00000000,
-11.00000000,
-37.00000000,
-47.00000000,
12.00000000,
-32.00000000,
-74.00000000,
-74.00000000,
35.00000000,
-39.00000000,
-60.00000000,
33.00000000,
-30.00000000,
-69.00000000,
24.00000000,
-27.00000191,
-58.00000000,
33.00000000,
43.00000000,
-21.00000000,
10.00000000,
0.00000000,
-60.00000000,
41.00000000,
-1.00000000,
16.00000000,
33.00000000,
29.00000000,
2.00000000,
-11.00000000,
7.00000048,
4.00000000,
0.00000000,
5.00000000,
-56.00000381,
39.00000000,
5.00000000,
-41.00000000,
-18.00000000,
-24.00000000,
-34.00000000,
42.00000000,
-16.00000000,
-114.99999237,
35.00000000,
17.00000000,
-84.00000000,
12.00000000,
17.00000000,
-5.00000000,
-32.00000000,
-4.00000000,
-78.00000000,
-12.00000000,
28.00000191,
-84.00000000,
4.00000000,
18.00000000,
-33.00000000,
-12.00000000,
-23.00000000,
-12.99999905,
-7.00000048,
21.00000000,
-3.00000000,
18.00000000,
-7.00000048,
-35.00000000,
-5.00000000,
-32.00000000,
-68.00000000,
8.00000000,
-7.00000048,
-25.00000000,
9.00000000,
-3.00000000,
-40.00000000,
-18.00000000,
10.00000000,
-17.00000000,
-3.00000000,
12.99999905,
9.00000000,
-46.00000000,
0.00000000,
48.00000000,
32.00000000,
-20.00000000,
-39.00000000,
-25.00000000,
-11.00000000,
-40.00000000,
-7.00000048,
-19.00000000,
-56.00000381,
-33.00000000,
-7.00000048,
-62.99999619,
-4.00000000,
-11.00000000,
-65.00000000,
40.00000000,
40.00000000,
-9.00000000,
-12.99999905,
-11.00000000,
-47.00000000,
36.00000000,
12.99999905,
-20.00000000,
-29.00000000,
-40.00000000,
-40.00000000,
11.00000000,
25.00000000,
-19.00000000,
1.00000000,
39.00000000,
-45.00000381,
4.00000000,
-28.00000191,
-37.00000000,
-15.00000000,
-53.00000000,
-69.00000000,
29.00000000,
-33.00000000,
-41.00000000,
-6.00000000,
2.00000000,
-67.00000000,
6.00000000,
8.00000000,
-41.00000000,
3.00000000,
4.00000000,
21.00000000,
17.00000000,
25.99999809,
-36.00000000,
42.00000000,
49.00000000,
59.00000000,
9.00000000,
-29.00000000,
17.00000000,
-1.00000000,
-6.00000000,
-31.00000000,
-12.99999905,
33.00000000,
-60.00000000,
-6.00000000,
24.00000000,
-57.00000000,
27.00000191,
3.00000000,
-11.00000000,
7.00000048,
-18.00000000,
-8.00000000,
-30.00000000,
-28.00000191,
-16.00000000,
-28.00000191,
9.00000000,
-19.00000000,
-41.00000000,
37.00000000,
51.00000000,
-41.00000000,
22.00000000,
71.00000000,
-76.00000000,
-49.00000000,
-23.00000000,
-8.00000000,
-25.00000000,
-95.00000000,
-5.00000000,
8.00000000,
-4.00000000,
15.00000000,
-12.00000000,
-65.00000000,
-8.00000000,
-5.00000000,
-79.00000000,
-4.00000000,
2.00000000,
-70.00000000,
-19.00000000,
-8.00000000,
-51.00000000,
-2.00000000,
-24.00000000,
-33.00000000,
49.00000000,
27.00000191,
-24.00000000,
-7.00000048,
-2.00000000,
-49.00000000,
8.00000000,
27.00000191,
-19.00000000,
9.00000000,
-14.00000095,
-3.00000000,
28.00000191,
-31.00000000,
-23.00000000,
-5.00000000,
-43.00000000,
-64.00000000,
-20.00000000,
1.00000000,
-46.00000000,
5.00000000,
15.00000000,
-65.00000000,
48.00000000,
-17.00000000,
23.00000000,
25.99999809,
42.00000000,
-27.00000191,
-11.00000000,
-6.00000000,
-96.00000000,
3.00000000,
21.00000000,
4.00000000,
21.00000000,
35.00000000,
-30.00000000,
-16.00000000,
-37.00000000,
-77.00000000,
17.00000000,
22.00000000,
-8.00000000,
8.00000000,
-12.99999905,
-8.00000000,
-37.00000000,
-24.00000000,
6.00000000,
39.00000000,
40.00000000,
-5.00000000,
33.00000000,
57.00000000,
-32.00000000,
31.00000000,
-2.00000000,
-43.00000000,
-5.00000000,
-21.00000000,
-5.00000000,
8.00000000,
-10.00000000,
-12.00000000,
-16.00000000,
38.00000000,
-86.00000000,
3.00000000,
5.00000000,
1.00000000,
18.00000000,
1.00000000,
7.00000048,
41.00000000,
-3.00000000,
-62.00000000,
-6.00000000,
48.00000000,
20.00000000,
-27.00000191,
-33.00000000,
-3.00000000,
32.00000000,
-15.00000000,
30.00000000,
-57.00000000,
6.00000000,
19.00000000,
4.00000000,
0.00000000,
17.00000000,
-16.00000000,
-30.00000000,
-20.00000000,
-7.00000048,
-14.00000095,
-25.00000000,
-23.00000000,
16.00000000,
25.99999809,
29.00000000,
9.00000000,
-43.00000000,
-8.00000000,
42.00000000,
4.00000000,
-4.00000000,
-25.99999809,
25.00000000,
21.00000000,
-9.00000000,
-5.00000000,
-24.00000000,
-45.00000381,
-21.00000000,
-30.00000000,
-35.00000000,
28.00000191,
9.00000000,
7.00000048,
19.00000000,
39.00000000,
45.00000381,
46.00000000,
-32.00000000,
-43.00000000,
0.00000000,
-51.99999619,
-48.00000000,
-73.00000000,
-8.00000000,
-4.00000000,
41.00000000,
-80.00000000,
1.00000000,
-24.00000000,
-53.00000000,
-55.00000000,
-36.00000000,
-5.00000000,
10.00000000,
1.00000000,
-10.00000000,
18.00000000,
-34.00000000,
-58.00000000,
43.00000000,
-15.00000000,
-11.00000000,
-40.00000000,
3.00000000,
-34.00000000,
-53.00000000,
-15.00000000,
16.00000000,
23.00000000,
-8.00000000,
-5.00000000,
-34.00000000,
-27.00000191,
-31.00000000,
-31.00000000,
-37.00000000,
-37.00000000,
-73.00000000,
-29.00000000,
-9.00000000,
-54.00000381,
-32.00000000,
-14.00000095,
-42.00000000,
-33.00000000,
-7.00000048,
16.00000000,
23.00000000,
-8.00000000,
-22.00000000,
15.00000000,
-4.00000000,
32.00000000,
30.00000000,
29.00000000,
-16.00000000,
28.00000191,
30.00000000,
-19.00000000,
-56.00000381,
-55.00000000,
-56.00000381,
-65.00000000,
51.99999619,
-22.00000000,
-28.00000191,
0.00000000,
-89.00000000,
-75.00000000,
22.00000000,
-61.00000000,
-3.00000000,
41.00000000,
7.00000048,
42.00000000,
4.00000000,
-18.00000000,
-11.00000000,
-9.00000000,
-28.00000191,
17.00000000,
-27.00000191,
30.00000000,
29.00000000,
-31.00000000,
12.00000000,
61.00000000,
-25.99999809,
-51.99999619,
12.99999905,
-44.00000000,
-16.00000000,
10.00000000,
12.00000000,
53.00000000,
-12.99999905,
-20.00000000,
27.00000191,
-7.00000048,
-32.00000000,
-67.00000000,
-80.00000000,
-35.00000000,
-75.00000000,
1.00000000,
30.00000000,
-12.99999905,
10.00000000,
87.00000000,
76.00000000,
66.00000000,
-27.00000191,
0.00000000,
19.00000000,
-36.00000000,
-4.00000000,
67.00000000,
-11.00000000,
30.00000000,
2.00000000,
37.00000000,
-5.00000000,
-44.00000000,
53.00000000,
12.00000000,
-25.00000000,
9.00000000,
2.00000000,
31.00000000,
-1.00000000,
3.00000000,
22.00000000,
-25.99999809,
-54.00000381,
-30.00000000,
-32.00000000,
-48.00000000,
-35.00000000,
78.00000000,
33.00000000,
-8.00000000,
49.00000000,
4.00000000,
65.00000000,
-25.00000000,
-36.00000000,
-3.00000000,
11.00000000,
31.00000000,
-9.00000000,
12.00000000,
-24.00000000,
-8.00000000,
27.00000191,
50.00000000,
-16.00000000,
14.00000095,
-22.00000000,
-51.00000000,
45.00000381,
-9.00000000,
9.00000000,
19.00000000,
-27.00000191,
-25.00000000,
-35.00000000,
-51.99999619,
-12.00000000,
6.00000000,
17.00000000,
43.00000000,
12.00000000,
-24.00000000,
28.00000191,
36.00000000,
-16.00000000,
-50.00000000,
42.00000000,
-15.00000000,
-78.00000000,
7.00000048,
12.00000000,
-14.00000095,
81.00000000,
9.00000000,
-8.00000000,
41.00000000,
40.00000000,
-6.00000000,
-27.00000191,
-4.00000000,
-31.00000000,
-5.00000000,
23.00000000,
24.00000000,
-25.00000000,
39.00000000,
-31.00000000,
-12.99999905,
43.00000000,
10.00000000,
-64.00000000,
-62.99999619,
-34.00000000,
19.00000000,
-10.00000000,
1.00000000,
-5.00000000,
12.00000000,
23.00000000,
-11.00000000,
2.00000000,
45.00000381,
-38.00000000,
-36.00000000,
25.00000000,
-47.00000000,
-6.00000000,
-23.00000000,
36.00000000,
36.00000000,
-7.00000048,
-40.00000000,
16.00000000,
15.00000000,
-36.00000000,
-31.00000000,
-21.00000000,
-57.00000000,
9.00000000,
5.00000000,
-21.00000000,
-12.99999905,
-10.00000000,
-12.99999905,
8.00000000,
43.00000000,
21.00000000,
28.00000191,
10.00000000,
-28.00000191,
-15.00000000,
-12.00000000,
0.00000000,
-22.00000000,
-17.00000000,
-28.00000191,
-9.00000000,
-3.00000000,
46.00000000,
5.00000000,
22.00000000,
24.00000000,
39.00000000,
47.00000000,
14.00000095,
8.00000000,
-8.00000000,
4.00000000,
-32.00000000,
-21.00000000,
-9.00000000,
20.00000000,
0.00000000,
12.00000000,
57.00000000,
39.00000000,
-46.00000000,
3.00000000,
-14.00000095,
36.00000000,
18.00000000,
-12.00000000,
87.00000000,
32.00000000,
9.00000000,
62.99999619,
12.00000000,
25.00000000,
48.00000000,
18.00000000,
38.00000000,
-9.00000000,
-36.00000000,
-66.00000000,
-48.00000000,
-9.00000000,
-30.00000000,
6.00000000,
9.00000000,
-21.00000000,
19.00000000,
-6.00000000,
-12.99999905,
-7.00000048,
-20.00000000,
1.00000000,
-12.00000000,
4.00000000,
35.00000000,
-29.00000000,
2.00000000,
18.00000000,
-38.00000000,
7.00000048,
-12.00000000,
25.00000000,
18.00000000,
44.00000000,
-4.00000000,
3.00000000,
24.00000000,
-28.00000191,
-7.00000048,
-1.00000000,
-60.00000000,
-23.00000000,
12.99999905,
-6.00000000,
1.00000000,
-3.00000000,
-3.00000000,
7.00000048,
17.00000000,
-18.00000000,
-5.00000000,
-19.00000000,
57.00000000,
73.00000000,
35.00000000,
7.00000048,
45.00000381,
14.00000095,
16.00000000,
22.00000000,
-33.00000000,
-15.00000000,
16.00000000,
-37.00000000,
5.00000000,
-59.00000000,
17.00000000,
-39.00000000,
7.00000048,
-10.00000000,
-45.00000381,
-24.00000000,
-20.00000000,
-12.99999905,
8.00000000,
10.00000000,
-18.00000000,
-19.00000000,
-27.00000191,
7.00000048,
38.00000000,
35.00000000,
19.00000000,
21.00000000,
-23.00000000,
-7.00000048,
0.00000000,
-8.00000000,
-11.00000000,
-5.00000000,
49.00000000,
-8.00000000,
-31.00000000,
16.00000000,
-33.00000000,
-34.00000000,
-56.00000381,
-51.99999619,
-25.99999809,
-47.00000000,
-22.00000000,
-2.00000000,
19.00000000,
0.00000000,
12.00000000,
-17.00000000,
-11.00000000,
-17.00000000,
1.00000000,
-10.00000000,
-18.00000000,
-32.00000000,
-20.00000000,
19.00000000,
-18.00000000,
-11.00000000,
-5.00000000,
54.00000381,
-20.00000000,
1.00000000,
12.99999905,
-9.00000000,
1.00000000,
-11.00000000,
64.00000000,
-9.00000000,
12.99999905,
22.00000000,
25.99999809,
27.00000191,
-4.00000000,
-24.00000000,
14.00000095,
-4.00000000,
-12.99999905,
-37.00000000,
8.00000000,
-27.00000191,
-35.00000000,
-25.99999809,
-12.99999905,
-33.00000000,
44.00000000,
76.00000000,
82.00000000,
20.00000000,
-1.00000000,
5.00000000,
45.00000381,
43.00000000,
12.99999905,
-8.00000000,
0.00000000,
27.00000191,
6.00000000,
8.00000000,
19.00000000,
24.00000000,
29.00000000,
16.00000000,
-49.00000000,
-27.00000191,
18.00000000,
-62.99999619,
12.00000000,
28.00000191,
-49.00000000,
-22.00000000,
0.00000000,
-2.00000000,
0.00000000,
6.00000000,
6.00000000,
47.00000000,
23.00000000,
10.00000000,
25.99999809,
25.99999809,
47.00000000,
-12.00000000,
32.00000000,
-1.00000000,
-7.00000048,
7.00000048,
-9.00000000,
12.99999905,
0.00000000,
-12.00000000,
-22.00000000,
-4.00000000,
-30.00000000,
18.00000000,
-11.00000000,
-70.00000000,
11.00000000,
0.00000000,
-59.00000000,
-60.00000000,
-79.00000000,
-25.99999809,
-27.00000191,
-75.00000000,
-14.00000095,
-11.00000000,
-68.00000000,
-12.00000000,
6.00000000,
-3.00000000,
2.00000000,
11.00000000,
-35.00000000,
30.00000000,
51.99999619,
-4.00000000,
-22.00000000,
25.00000000,
-27.00000191,
-20.00000000,
-21.00000000,
31.00000000,
11.00000000,
6.00000000,
4.00000000,
-40.00000000,
11.00000000,
-37.00000000,
-14.00000095,
17.00000000,
-30.00000000,
11.00000000,
39.00000000,
-36.00000000,
-75.00000000,
-25.00000000,
-17.00000000,
-48.00000000,
10.00000000,
-37.00000000,
-27.00000191,
-23.00000000,
-20.00000000,
9.00000000,
-33.00000000,
3.00000000,
-39.00000000,
-56.00000381,
-49.00000000,
-22.00000000,
-41.00000000,
-23.00000000,
-66.00000000,
-31.00000000,
-27.00000191,
-79.00000000,
-69.00000000,
-53.00000000,
-43.00000000,
-27.00000191,
-59.00000000,
25.00000000,
8.00000000,
12.99999905,
38.00000000,
-23.00000000,
-24.00000000,
19.00000000,
31.00000000,
11.00000000,
25.99999809,
30.00000000,
-1.00000000,
36.00000000,
-12.00000000,
6.00000000,
34.00000000,
33.00000000,
-1.00000000,
-37.00000000,
9.00000000,
19.00000000,
-21.00000000,
54.00000381,
51.00000000,
-62.00000000,
-24.00000000,
25.00000000,
36.00000000,
31.00000000,
108.00000763,
-46.00000000,
20.00000000,
34.00000000,
65.00000000,
75.00000000,
77.00000000,
-86.00000000,
-33.00000000,
-90.00000763,
16.00000000,
1.00000000,
25.00000000,
-65.00000000,
-19.00000000,
-18.00000000,
-5.00000000,
-15.00000000,
-38.00000000,
-17.00000000,
-12.99999905,
-37.00000000,
-17.00000000,
-44.00000000,
-45.00000381,
3.00000000,
-2.00000000,
8.00000000,
24.00000000,
25.00000000,
42.00000000,
-64.00000000,
-8.00000000,
-32.00000000,
-2.00000000,
38.00000000,
71.00000000,
37.00000000,
23.00000000,
33.00000000,
-29.00000000,
55.00000000,
40.00000000,
-64.00000000,
7.00000048,
-62.00000000,
0.00000000,
28.00000191,
-27.00000191,
23.00000000,
-17.00000000,
-7.00000048,
9.00000000,
30.00000000,
-29.00000000,
35.00000000,
-25.00000000,
16.00000000,
-41.00000000,
12.00000000,
-14.00000095,
9.00000000,
111.00000000,
29.00000000,
67.00000000,
95.00000000,
50.00000000,
29.00000000,
60.00000000,
42.00000000,
42.00000000,
-9.00000000,
41.00000000,
49.00000000,
19.00000000,
10.00000000,
83.00000000,
38.00000000,
22.00000000,
41.00000000,
22.00000000,
1.00000000,
-39.00000000,
-10.00000000,
-15.00000000,
-4.00000000,
-9.00000000,
-39.00000000,
5.00000000,
-72.00000000,
19.00000000,
-3.00000000,
-48.00000000,
-34.00000000,
-44.00000000,
-91.00000000,
-92.00000000,
-35.00000000,
-46.00000000,
-14.00000095,
18.00000000,
-14.00000095,
8.00000000,
17.00000000,
22.00000000,
-3.00000000,
36.00000000,
45.00000381,
42.00000000,
-27.00000191,
-39.00000000,
-44.00000000,
1.00000000,
75.00000000,
-10.00000000,
35.00000000,
-30.00000000,
4.00000000,
8.00000000,
-36.00000000,
-21.00000000,
-25.00000000,
-15.00000000,
15.00000000,
2.00000000,
11.00000000,
-42.00000000,
22.00000000,
35.00000000,
10.00000000,
22.00000000,
50.00000000,
-27.00000191,
-55.00000000,
-62.99999619,
6.00000000,
-27.00000191,
41.00000000,
25.00000000,
-32.00000000,
-47.00000000,
-28.00000191,
33.00000000,
14.00000095,
-14.00000095,
41.00000000,
19.00000000,
0.00000000,
80.00000000,
90.00000763,
57.00000000,
8.00000000,
60.00000000,
-18.00000000,
-19.00000000,
19.00000000,
36.00000000,
38.00000000,
88.00000000,
65.00000000,
38.00000000,
55.00000000,
81.00000000,
-16.00000000,
16.00000000,
-3.00000000,
0.00000000,
3.00000000,
12.00000000,
16.00000000,
62.00000000,
96.00000000,
16.00000000,
18.00000000,
60.00000000,
-32.00000000,
60.00000000,
19.00000000,
35.00000000,
20.00000000,
48.00000000,
-14.00000095,
-53.00000000,
-49.00000000,
-42.00000000,
-23.00000000,
-20.00000000,
-53.00000000,
-76.00000000,
-23.00000000,
22.00000000,
7.00000048,
51.99999619,
-8.00000000,
-29.00000000,
1.00000000,
-67.00000000,
-40.00000000,
-42.00000000,
42.00000000,
12.00000000,
10.00000000,
12.99999905,
-2.00000000,
-59.00000000,
32.00000000,
-9.00000000,
-41.00000000,
-32.00000000,
35.00000000,
-45.00000381,
19.00000000,
25.00000000,
25.99999809,
9.00000000,
6.00000000,
25.99999809,
-12.99999905,
-34.00000000,
-7.00000048,
-6.00000000,
-29.00000000,
-27.00000191,
2.00000000,
20.00000000,
-33.00000000,
8.00000000,
-6.00000000,
-3.00000000,
25.00000000,
-31.00000000,
-33.00000000,
3.00000000,
25.00000000,
23.00000000,
-9.00000000,
-12.00000000,
-21.00000000,
-29.00000000,
-51.99999619,
-57.00000000,
4.00000000,
-1.00000000,
-6.00000000,
-51.99999619,
-24.00000000,
10.00000000,
-58.00000000,
-11.00000000,
31.00000000,
-67.00000000,
-81.00000000,
-72.00000000,
-15.00000000,
6.00000000,
4.00000000,
-51.00000000,
-62.00000000,
-51.99999619,
20.00000000,
33.00000000,
27.00000191,
12.00000000,
-12.99999905,
-5.00000000,
38.00000000,
31.00000000,
56.00000381,
-1.00000000,
-4.00000000,
-25.00000000,
11.00000000,
-49.00000000,
-41.00000000,
25.00000000,
6.00000000,
-44.00000000,
-41.00000000,
-18.00000000,
-11.00000000,
-86.00000000,
-17.00000000,
18.00000000,
-50.00000000,
-4.00000000,
3.00000000,
-54.00000381,
-4.00000000,
-12.00000000,
-15.00000000,
-11.00000000,
-7.00000048,
-37.00000000,
-25.00000000,
24.00000000,
12.00000000,
6.00000000,
8.00000000,
-62.99999619,
-10.00000000,
-28.00000191,
-32.00000000,
-78.00000000,
-64.00000000,
-21.00000000,
-32.00000000,
0.00000000,
-39.00000000,
0.00000000,
-25.00000000,
-65.00000000,
-44.00000000,
23.00000000,
66.00000000,
25.99999809,
-12.00000000,
25.99999809,
21.00000000,
18.00000000,
7.00000048,
-8.00000000,
-50.00000000,
10.00000000,
14.00000095,
20.00000000,
-31.00000000,
-25.00000000,
14.00000095,
49.00000000,
14.00000095,
16.00000000,
-22.00000000,
-50.00000000,
-21.00000000,
6.00000000,
-25.00000000,
-17.00000000,
-19.00000000,
-55.00000000,
-27.00000191,
21.00000000,
-16.00000000,
-10.00000000,
38.00000000,
67.00000000,
36.00000000,
42.00000000,
36.00000000,
1.00000000,
51.99999619,
65.00000000,
46.00000000,
17.00000000,
19.00000000,
6.00000000,
44.00000000,
53.00000000,
42.00000000,
-23.00000000,
47.00000000,
-5.00000000,
-30.00000000,
-14.00000095,
-18.00000000,
-15.00000000,
-12.00000000,
2.00000000,
1.00000000,
-12.00000000,
8.00000000,
-24.00000000,
8.00000000,
-10.00000000,
1.00000000,
-20.00000000,
-50.00000000,
10.00000000,
-32.00000000,
-65.00000000,
28.00000191,
-36.00000000,
-53.00000000,
-22.00000000,
-8.00000000,
-19.00000000,
24.00000000,
0.00000000,
2.00000000,
-2.00000000,
21.00000000,
28.00000191,
-18.00000000,
-25.99999809,
-12.99999905,
5.00000000,
15.00000000,
4.00000000,
5.00000000,
-19.00000000,
4.00000000,
-47.00000000,
-15.00000000,
-67.00000000,
15.00000000,
34.00000000,
-19.00000000,
6.00000000,
-25.99999809,
-18.00000000,
-19.00000000,
-11.00000000,
-42.00000000,
-43.00000000,
-32.00000000,
25.00000000,
-39.00000000,
2.00000000,
7.00000048,
-19.00000000,
10.00000000,
22.00000000,
-9.00000000,
-17.00000000,
-36.00000000,
-32.00000000,
-6.00000000,
-62.99999619,
-20.00000000,
-55.00000000,
-62.99999619,
36.00000000,
51.00000000,
49.00000000,
43.00000000,
45.00000381,
3.00000000,
17.00000000,
32.00000000,
71.00000000,
-12.00000000,
11.00000000,
-38.00000000,
-9.00000000,
39.00000000,
14.00000095,
17.00000000,
2.00000000,
3.00000000,
12.99999905,
23.00000000,
-2.00000000,
-2.00000000,
10.00000000,
2.00000000,
25.99999809,
33.00000000,
-37.00000000,
8.00000000,
0.00000000,
-16.00000000,
14.00000095,
25.00000000,
11.00000000,
30.00000000,
-3.00000000,
53.00000000,
-39.00000000,
-35.00000000,
-44.00000000,
-1.00000000,
-78.00000000,
-1.00000000,
-25.00000000,
-25.99999809,
17.00000000,
-11.00000000,
-27.00000191,
29.00000000,
-38.00000000,
-7.00000048,
-8.00000000,
-25.99999809,
-34.00000000,
-87.00000000,
-12.99999905,
-11.00000000,
-11.00000000,
-17.00000000,
-9.00000000,
-2.00000000,
-39.00000000,
-20.00000000,
4.00000000,
3.00000000,
1.00000000,
-18.00000000,
24.00000000,
5.00000000,
-14.00000095,
54.00000381,
-28.00000191,
19.00000000,
2.00000000,
-22.00000000,
-31.00000000,
-54.00000381,
-30.00000000,
-43.00000000,
-40.00000000,
-59.00000000,
-51.00000000,
34.00000000,
43.00000000,
-40.00000000,
-17.00000000,
-2.00000000,
-47.00000000,
-66.00000000,
-47.00000000,
-64.00000000,
-14.00000095,
-17.00000000,
-32.00000000,
16.00000000,
29.00000000,
-2.00000000,
4.00000000,
-9.00000000,
3.00000000,
49.00000000,
36.00000000,
2.00000000,
21.00000000,
12.99999905,
3.00000000,
11.00000000,
-1.00000000,
-25.99999809,
22.00000000,
-19.00000000,
-36.00000000,
-11.00000000,
-25.00000000,
-3.00000000,
5.00000000,
-42.00000000,
-56.00000381,
-31.00000000,
-6.00000000,
-7.00000048,
2.00000000,
41.00000000,
-12.00000000,
40.00000000,
-16.00000000,
40.00000000,
-34.00000000,
-8.00000000,
-6.00000000,
-33.00000000,
-18.00000000,
25.99999809,
-49.00000000,
-51.99999619,
-45.00000381,
55.00000000,
0.00000000,
14.00000095,
20.00000000,
-27.00000191,
29.00000000,
37.00000000,
-12.00000000,
47.00000000,
48.00000000,
10.00000000,
10.00000000,
33.00000000,
2.00000000,
43.00000000,
73.00000000,
30.00000000,
35.00000000,
-25.99999809,
3.00000000,
8.00000000,
40.00000000,
30.00000000,
-14.00000095,
-14.00000095,
10.00000000,
27.00000191,
-69.00000000,
-15.00000000,
-9.00000000,
8.00000000,
-5.00000000,
-70.00000000,
-48.00000000,
-25.99999809,
-4.00000000,
55.00000000,
25.99999809,
48.00000000,
10.00000000,
50.00000000,
5.00000000,
-37.00000000,
-15.00000000,
-33.00000000,
96.00000000,
61.00000000,
62.00000000,
-3.00000000,
-11.00000000,
-20.00000000,
-34.00000000,
-25.99999809,
12.00000000,
-16.00000000,
44.00000000,
1.00000000,
6.00000000,
56.00000381,
12.99999905,
24.00000000,
-23.00000000,
14.00000095,
-7.00000048,
49.00000000,
-31.00000000,
-62.99999619,
2.00000000,
-25.99999809,
-64.00000000,
-103.00000000,
-58.00000000,
-22.00000000,
-14.00000095,
20.00000000,
10.00000000,
49.00000000,
38.00000000,
11.00000000,
80.00000000,
53.00000000,
-25.99999809,
-37.00000000,
-46.00000000,
-36.00000000,
9.00000000,
-17.00000000,
-31.00000000,
-42.00000000,
-14.00000095,
47.00000000,
12.00000000,
6.00000000,
37.00000000,
-28.00000191,
64.00000000,
45.00000381,
23.00000000,
27.00000191,
-37.00000000,
0.00000000,
4.00000000,
-40.00000000,
5.00000000,
14.00000095,
-11.00000000,
37.00000000,
18.00000000,
-42.00000000,
-33.00000000,
7.00000048,
11.00000000,
18.00000000,
12.00000000,
1.00000000,
18.00000000,
9.00000000,
28.00000191,
-1.00000000,
-21.00000000,
35.00000000,
6.00000000,
7.00000048,
-29.00000000,
-11.00000000,
7.00000048,
14.00000095,
-19.00000000,
-34.00000000,
-5.00000000,
9.00000000,
-18.00000000,
-32.00000000,
62.00000000,
3.00000000,
-47.00000000,
-25.00000000,
-61.00000000,
-68.00000000,
-10.00000000,
-72.00000000,
-39.00000000,
-46.00000000,
-135.00000000,
1.00000000,
-19.00000000,
-60.00000000,
-14.00000095,
4.00000000,
-41.00000000,
11.00000000,
31.00000000,
9.00000000,
41.00000000,
-8.00000000,
22.00000000,
32.00000000,
-9.00000000,
46.00000000,
25.99999809,
-24.00000000,
-36.00000000,
-51.00000000,
16.00000000,
-16.00000000,
15.00000000,
23.00000000,
25.99999809,
65.00000000,
24.00000000,
25.00000000,
41.00000000,
56.00000381,
60.00000000,
10.00000000,
49.00000000,
36.00000000,
-15.00000000,
-51.99999619,
-34.00000000,
11.00000000,
5.00000000,
7.00000048,
-17.00000000,
-21.00000000,
-28.00000191,
-34.00000000,
-39.00000000,
-30.00000000,
-1.00000000,
-68.00000000,
-46.00000000,
31.00000000,
4.00000000,
-41.00000000,
60.00000000,
44.00000000,
27.00000191,
32.00000000,
50.00000000,
-7.00000048,
-4.00000000,
12.00000000,
-2.00000000,
-30.00000000,
-17.00000000,
-60.00000000,
-33.00000000,
-92.99999237,
-18.00000000,
-11.00000000,
-16.00000000,
-43.00000000,
53.00000000,
8.00000000,
0.00000000,
27.00000191,
5.00000000,
-12.00000000,
49.00000000,
32.00000000,
43.00000000,
-22.00000000,
11.00000000,
-49.00000000,
-49.00000000,
-33.00000000,
-5.00000000,
-7.00000048,
37.00000000,
15.00000000,
61.00000000,
100.00000000,
64.00000000,
-12.00000000,
-73.00000000,
-37.00000000,
-24.00000000,
19.00000000,
17.00000000,
-23.00000000,
-19.00000000,
36.00000000,
40.00000000,
40.00000000,
68.00000000,
-15.00000000,
17.00000000,
44.00000000,
-51.99999619,
-20.00000000,
-9.00000000,
-23.00000000,
-43.00000000,
-22.00000000,
42.00000000,
-46.00000000,
16.00000000,
-41.00000000,
-48.00000000,
27.00000191,
32.00000000,
-38.00000000,
-5.00000000,
12.00000000,
-4.00000000,
3.00000000,
46.00000000,
56.00000381,
50.00000000,
-6.00000000,
-30.00000000,
18.00000000,
-4.00000000,
-48.00000000,
-18.00000000,
-38.00000000,
-17.00000000,
0.00000000,
-15.00000000,
6.00000000,
-22.00000000,
-47.00000000,
-9.00000000,
19.00000000,
-71.00000000,
-83.00000000,
-14.00000095,
7.00000048,
50.00000000,
-40.00000000,
-12.00000000,
-10.00000000,
-18.00000000,
2.00000000,
-9.00000000,
-39.00000000,
48.00000000,
54.00000381,
31.00000000,
17.00000000,
-5.00000000,
-28.00000191,
30.00000000,
8.00000000,
-43.00000000,
5.00000000,
-2.00000000,
-64.00000000,
5.00000000,
-51.99999619,
-40.00000000,
-38.00000000,
-39.00000000,
-39.00000000,
27.00000191,
3.00000000,
-49.00000000,
-18.00000000,
22.00000000,
-23.00000000,
-8.00000000,
14.00000095,
-25.99999809,
-62.99999619,
21.00000000,
-74.00000000,
-20.00000000,
0.00000000,
-58.00000000,
-12.99999905,
4.00000000,
-37.00000000,
-4.00000000,
7.00000048,
17.00000000,
-40.00000000,
15.00000000,
0.00000000,
-6.00000000,
28.00000191,
1.00000000,
17.00000000,
-22.00000000,
19.00000000,
31.00000000,
30.00000000,
-4.00000000,
36.00000000,
28.00000191,
21.00000000,
28.00000191,
22.00000000,
34.00000000,
-35.00000000,
4.00000000,
5.00000000,
28.00000191,
21.00000000,
39.00000000,
19.00000000,
-1.00000000,
-35.00000000,
-6.00000000,
-14.00000095,
-25.99999809,
-15.00000000,
-27.00000191,
-22.00000000,
-44.00000000,
-44.00000000,
-62.00000000,
7.00000048,
-29.00000000,
19.00000000,
12.99999905,
35.00000000,
-11.00000000,
4.00000000,
37.00000000,
51.99999619,
9.00000000,
-27.00000191,
22.00000000,
-21.00000000,
-36.00000000,
-55.00000000,
34.00000000,
1.00000000,
-19.00000000,
40.00000000,
4.00000000,
-22.00000000,
-6.00000000,
-4.00000000,
-1.00000000,
-30.00000000,
-5.00000000,
-83.00000000,
3.00000000,
-44.00000000,
-7.00000048,
-8.00000000,
-10.00000000,
6.00000000,
-1.00000000,
-72.00000000,
-42.00000000,
-36.00000000,
-35.00000000,
-61.00000000,
-12.00000000,
-24.00000000,
-56.00000381,
-4.00000000,
-17.00000000,
35.00000000,
27.00000191,
42.00000000,
32.00000000,
41.00000000,
0.00000000,
3.00000000,
12.00000000,
33.00000000,
-33.00000000,
-18.00000000,
4.00000000,
-18.00000000,
6.00000000,
0.00000000,
1.00000000,
-11.00000000,
-33.00000000,
-19.00000000,
10.00000000,
-24.00000000,
-11.00000000,
-40.00000000,
-34.00000000,
-86.00000000,
0.00000000,
31.00000000,
-11.00000000,
-48.00000000,
28.00000191,
2.00000000,
-22.00000000,
-2.00000000,
-36.00000000,
-9.00000000,
-28.00000191,
-31.00000000,
23.00000000,
-18.00000000,
-50.00000000,
8.00000000,
-31.00000000,
-69.00000000,
-1.00000000,
-4.00000000,
-80.00000000,
-67.00000000,
-14.00000095,
-39.00000000,
-31.00000000,
22.00000000,
-51.00000000,
-3.00000000,
7.00000048,
-35.00000000,
9.00000000,
1.00000000,
-62.99999619,
22.00000000,
-9.00000000,
-76.00000000,
0.00000000,
15.00000000,
7.00000048,
7.00000048,
-1.00000000,
-27.00000191,
8.00000000,
-51.99999619,
-51.00000000,
-35.00000000,
1.00000000,
-71.00000000,
12.00000000,
-8.00000000,
-51.00000000,
43.00000000,
65.00000000,
-23.00000000,
-39.00000000,
-28.00000191,
-39.00000000,
-11.00000000,
-45.00000381,
-25.99999809,
-23.00000000,
-32.00000000,
-38.00000000,
40.00000000,
-2.00000000,
-19.00000000,
-15.00000000,
-18.00000000,
-25.99999809,
-51.00000000,
37.00000000,
-8.00000000,
-8.00000000,
-48.00000000,
6.00000000,
-9.00000000,
34.00000000,
35.00000000,
-9.00000000,
-3.00000000,
25.99999809,
-4.00000000,
-51.99999619,
-20.00000000,
-2.00000000,
35.00000000,
-51.99999619,
-14.00000095,
-32.00000000,
-54.00000381,
-40.00000000,
-16.00000000,
-65.00000000,
-37.00000000,
-19.00000000,
-38.00000000,
8.00000000,
43.00000000,
-74.00000000,
-1.00000000,
-27.00000191,
0.00000000,
-2.00000000,
-9.00000000,
29.00000000,
2.00000000,
5.00000000,
25.99999809,
-11.00000000,
46.00000000,
53.00000000,
20.00000000,
27.00000191,
68.00000000,
14.00000095,
25.00000000,
48.00000000,
-48.00000000,
-64.00000000,
14.00000095,
-47.00000000,
-40.00000000,
19.00000000,
-41.00000000,
4.00000000,
11.00000000,
-34.00000000,
-30.00000000,
-17.00000000,
-9.00000000,
22.00000000,
-17.00000000,
20.00000000,
10.00000000,
-32.00000000,
18.00000000,
19.00000000,
-64.00000000,
37.00000000,
29.00000000,
-42.00000000,
46.00000000,
34.00000000,
-6.00000000,
-51.99999619,
4.00000000,
21.00000000,
14.00000095,
-1.00000000,
57.00000000,
-29.00000000,
18.00000000,
87.00000000,
10.00000000,
0.00000000,
-37.00000000,
-3.00000000,
12.99999905,
-25.00000000,
-28.00000191,
-46.00000000,
-74.00000000,
7.00000048,
-15.00000000,
21.00000000,
-25.99999809,
33.00000000,
19.00000000,
-53.00000000,
2.00000000,
12.00000000,
-19.00000000,
-43.00000000,
-14.00000095,
2.00000000,
-6.00000000,
1.00000000,
48.00000000,
-17.00000000,
7.00000048,
0.00000000,
-8.00000000,
-9.00000000,
44.00000000,
-2.00000000,
-25.00000000,
11.00000000,
35.00000000,
6.00000000,
-51.99999619,
25.99999809,
24.00000000,
-16.00000000,
-6.00000000,
37.00000000,
25.99999809,
48.00000000,
19.00000000,
-10.00000000,
23.00000000,
17.00000000,
12.00000000,
37.00000000,
-5.00000000,
0.00000000,
12.00000000,
18.00000000,
-42.00000000,
-82.00000000,
-54.00000381,
-25.00000000,
7.00000048,
-12.99999905,
-30.00000000,
-43.00000000,
-11.00000000,
-2.00000000,
-22.00000000,
-22.00000000,
-60.00000000,
-31.00000000,
-12.00000000,
2.00000000,
-25.99999809,
28.00000191,
-46.00000000,
-29.00000000,
-56.00000381,
-47.00000000,
-23.00000000,
-10.00000000,
-14.00000095,
9.00000000,
14.00000095,
-23.00000000,
36.00000000,
58.00000000,
-6.00000000,
21.00000000,
53.00000000,
16.00000000,
18.00000000,
23.00000000,
-9.00000000,
-38.00000000,
6.00000000,
-29.00000000,
-14.00000095,
-4.00000000,
-5.00000000,
-17.00000000,
-20.00000000,
0.00000000,
16.00000000,
-39.00000000,
8.00000000,
15.00000000,
4.00000000,
36.00000000,
-18.00000000,
10.00000000,
-51.99999619,
-45.00000381,
6.00000000,
-30.00000000,
-33.00000000,
36.00000000,
-2.00000000,
40.00000000,
77.00000000,
-18.00000000,
-12.00000000,
25.99999809,
-20.00000000,
-1.00000000,
16.00000000,
16.00000000,
51.99999619,
10.00000000,
-18.00000000,
7.00000048,
-6.00000000,
-6.00000000,
45.00000381,
18.00000000,
-42.00000000,
16.00000000,
57.00000000,
-12.00000000,
-3.00000000,
-14.00000095,
-47.00000000,
12.99999905,
4.00000000,
4.00000000,
21.00000000,
33.00000000,
1.00000000,
-14.00000095,
-24.00000000,
-18.00000000,
4.00000000,
-2.00000000,
7.00000048,
-50.00000000,
-32.00000000,
66.00000000,
9.00000000,
6.00000000,
38.00000000,
-27.00000191,
10.00000000,
59.00000000,
-12.00000000,
2.00000000,
46.00000000,
38.00000000,
-32.00000000,
23.00000000,
23.00000000,
-36.00000000,
-5.00000000,
-37.00000000,
3.00000000,
-47.00000000,
-49.00000000,
-20.00000000,
-23.00000000,
2.00000000,
-11.00000000,
-53.00000000,
-8.00000000,
1.00000000,
6.00000000,
-24.00000000,
3.00000000,
-5.00000000,
8.00000000,
-2.00000000,
14.00000095,
-3.00000000,
-4.00000000,
-48.00000000,
-50.00000000,
-34.00000000,
8.00000000,
-20.00000000,
31.00000000,
-54.00000381,
-68.00000000,
2.00000000,
-29.00000000,
-15.00000000,
-18.00000000,
43.00000000,
28.00000191,
-3.00000000,
21.00000000,
17.00000000,
20.00000000,
-12.99999905,
51.00000000,
14.00000095,
-40.00000000,
3.00000000,
51.99999619,
-16.00000000,
25.99999809,
-14.00000095,
-23.00000000,
-44.00000000,
-37.00000000,
-12.00000000,
-39.00000000,
-15.00000000,
-7.00000048,
-61.00000000,
-15.00000000,
37.00000000,
49.00000000,
74.00000000,
25.00000000,
-4.00000000,
15.00000000,
17.00000000,
-22.00000000,
-4.00000000,
-28.00000191,
-31.00000000,
-5.00000000,
-29.00000000,
-22.00000000,
-35.00000000,
16.00000000,
-9.00000000,
-15.00000000,
-41.00000000,
41.00000000,
62.99999619,
12.00000000,
11.00000000,
-12.00000000,
-22.00000000,
-1.00000000,
20.00000000,
-25.00000000,
-1.00000000,
41.00000000,
-27.00000191,
1.00000000,
56.00000381,
20.00000000,
49.00000000,
32.00000000,
-36.00000000,
25.99999809,
18.00000000,
-8.00000000,
37.00000000,
51.00000000,
-12.99999905,
12.00000000,
-3.00000000,
12.00000000,
39.00000000,
9.00000000,
1.00000000,
-32.00000000,
1.00000000,
-19.00000000,
-25.99999809,
-87.00000000,
39.00000000,
48.00000000,
45.00000381,
11.00000000,
19.00000000,
-19.00000000,
20.00000000,
-16.00000000,
-70.00000000,
-27.00000191,
-6.00000000,
-3.00000000,
-35.00000000,
-45.00000381,
12.00000000,
9.00000000,
-43.00000000,
-46.00000000,
-16.00000000,
-37.00000000,
-19.00000000,
28.00000191,
11.00000000,
-25.99999809,
75.00000000,
-2.00000000,
-50.00000000,
15.00000000,
16.00000000,
11.00000000,
-49.00000000,
-12.00000000,
6.00000000,
-12.99999905,
-11.00000000,
4.00000000,
-22.00000000,
0.00000000,
22.00000000,
-1.00000000,
6.00000000,
25.99999809,
-3.00000000,
-8.00000000,
27.00000191,
-46.00000000,
-38.00000000,
-35.00000000,
-35.00000000,
7.00000048,
-7.00000048,
17.00000000,
-6.00000000,
42.00000000,
20.00000000,
16.00000000,
-35.00000000,
6.00000000,
-9.00000000,
-25.99999809,
-40.00000000,
-27.00000191,
-12.00000000,
-1.00000000,
30.00000000,
41.00000000,
38.00000000,
18.00000000,
73.00000000,
2.00000000,
-12.00000000,
-24.00000000,
-5.00000000,
-12.00000000,
-14.00000095,
-31.00000000,
-17.00000000,
8.00000000,
-12.00000000,
-38.00000000,
-6.00000000,
41.00000000,
-12.99999905,
-48.00000000,
58.00000000,
-17.00000000,
-33.00000000,
-25.00000000,
-3.00000000,
-30.00000000,
-8.00000000,
-9.00000000,
-8.00000000,
23.00000000,
-12.99999905,
19.00000000,
32.00000000,
5.00000000,
-11.00000000,
39.00000000,
3.00000000,
70.00000000,
-16.00000000,
-1.00000000,
36.00000000,
11.00000000,
-5.00000000,
-6.00000000,
12.00000000,
36.00000000,
23.00000000,
-19.00000000,
12.99999905,
10.00000000,
11.00000000,
21.00000000,
0.00000000,
12.99999905,
11.00000000,
-58.00000000,
37.00000000,
-28.00000191,
-45.00000381,
6.00000000,
-12.00000000,
-62.00000000,
-41.00000000,
-2.00000000,
-12.99999905,
17.00000000,
-25.99999809,
3.00000000,
29.00000000,
-48.00000000,
-49.00000000,
34.00000000,
-4.00000000,
-47.00000000,
-6.00000000,
-47.00000000,
-34.00000000,
27.00000191,
29.00000000,
-27.00000191,
-33.00000000,
-48.00000000,
-15.00000000,
1.00000000,
-44.00000000,
-10.00000000,
16.00000000,
-36.00000000,
-31.00000000,
11.00000000,
69.00000000,
54.00000381,
7.00000048,
51.99999619,
65.00000000,
-4.00000000,
-76.00000000,
-2.00000000,
20.00000000,
12.99999905,
-10.00000000,
-29.00000000,
4.00000000,
18.00000000,
12.00000000,
42.00000000,
61.00000000,
51.99999619,
19.00000000,
18.00000000,
22.00000000,
56.00000381,
21.00000000,
-9.00000000,
-4.00000000,
1.00000000,
12.00000000,
8.00000000,
42.00000000,
54.00000381,
15.00000000,
-12.00000000,
32.00000000,
12.99999905,
-16.00000000,
-7.00000048,
12.99999905,
-6.00000000,
-30.00000000,
-29.00000000,
3.00000000,
-12.00000000,
-25.00000000,
27.00000191,
-34.00000000,
-11.00000000,
27.00000191,
-64.00000000,
37.00000000,
6.00000000,
-25.99999809,
-33.00000000,
-12.99999905,
-20.00000000,
-18.00000000,
4.00000000,
-55.00000000,
10.00000000,
14.00000095,
-12.99999905,
51.99999619,
54.00000381,
-36.00000000,
-39.00000000,
-25.00000000,
17.00000000,
-3.00000000,
14.00000095,
43.00000000,
-12.99999905,
8.00000000,
-33.00000000,
20.00000000,
-12.00000000,
-39.00000000,
1.00000000,
18.00000000,
14.00000095,
21.00000000,
57.00000000,
-35.00000000,
-23.00000000,
-9.00000000,
-36.00000000,
12.99999905,
42.00000000,
-32.00000000,
10.00000000,
59.00000000,
-7.00000048,
2.00000000,
5.00000000,
19.00000000,
28.00000191,
0.00000000,
-12.99999905,
44.00000000,
-23.00000000,
-42.00000000,
-10.00000000,
43.00000000,
-59.00000000,
-75.00000000,
-18.00000000,
-4.00000000,
-78.00000000,
-84.00000000,
-5.00000000,
23.00000000,
5.00000000,
-22.00000000,
45.00000381,
3.00000000,
-44.00000000,
16.00000000,
-28.00000191,
34.00000000,
-25.00000000,
-19.00000000,
-32.00000000,
-33.00000000,
-4.00000000,
-42.00000000,
-29.00000000,
19.00000000,
25.00000000,
-45.00000381,
-3.00000000,
-39.00000000,
-30.00000000,
1.00000000,
-17.00000000,
21.00000000,
-10.00000000,
51.00000000,
-108.00000763,
-19.00000000,
64.00000000,
-27.00000191,
-55.00000000,
-18.00000000,
35.00000000,
-38.00000000,
-67.00000000,
-25.00000000,
22.00000000,
-34.00000000,
22.00000000,
34.00000000,
-24.00000000,
-10.00000000,
-66.00000000,
-55.00000000,
-8.00000000,
18.00000000,
-58.00000000,
2.00000000,
58.00000000,
-31.00000000,
-39.00000000,
-23.00000000,
12.00000000,
-9.00000000,
-6.00000000,
-45.00000381,
6.00000000,
23.00000000,
-60.00000000,
-32.00000000,
27.00000191,
31.00000000,
17.00000000,
5.00000000,
-30.00000000,
-14.00000095,
-14.00000095,
18.00000000,
-67.00000000,
-39.00000000,
-53.00000000,
9.00000000,
47.00000000,
-65.00000000,
-17.00000000,
9.00000000,
-62.00000000,
-61.00000000,
-50.00000000,
12.99999905,
6.00000000,
-37.00000000,
28.00000191,
25.99999809,
-23.00000000,
50.00000000,
8.00000000,
-11.00000000,
32.00000000,
-16.00000000,
18.00000000,
2.00000000,
-29.00000000,
-20.00000000,
-31.00000000,
-18.00000000,
-31.00000000,
-88.00000000,
29.00000000,
-5.00000000,
-12.00000000,
15.00000000,
-2.00000000,
10.00000000,
-30.00000000,
20.00000000,
-6.00000000,
18.00000000,
-71.00000000,
8.00000000,
44.00000000,
-35.00000000,
8.00000000,
33.00000000,
43.00000000,
-40.00000000,
-3.00000000,
-5.00000000,
25.99999809,
8.00000000,
-8.00000000,
28.00000191,
19.00000000,
1.00000000,
-74.00000000,
-2.00000000,
41.00000000,
-91.00000000,
-43.00000000,
12.00000000,
-51.00000000,
-11.00000000,
-54.00000381,
-66.00000000,
61.00000000,
36.00000000,
-82.00000000,
29.00000000,
76.00000000,
-69.00000000,
-55.00000000,
69.00000000,
99.00000000,
9.00000000,
-61.00000000,
22.00000000,
2.00000000,
-79.00000000,
-20.00000000,
22.00000000,
-7.00000048,
-23.00000000,
0.00000000,
58.00000000,
-48.00000000,
-44.00000000,
33.00000000,
-57.00000000,
-55.00000000,
30.00000000,
-16.00000000,
-18.00000000,
-92.00000000,
8.00000000,
23.00000000,
40.00000000,
-6.00000000,
7.00000048,
108.00000763,
113.00000000,
-43.00000000,
-105.00000000,
120.00000000,
-10.00000000,
-71.00000000,
45.00000381,
29.00000000,
-61.00000000,
-17.00000000,
-24.00000000,
71.00000000,
11.00000000,
-22.00000000,
20.00000000,
-24.00000000,
0.00000000,
-4.00000000,
-31.00000000,
9.00000000,
36.00000000,
-25.99999809,
-36.00000000,
12.99999905,
-66.00000000,
-18.00000000,
-3.00000000,
-33.00000000,
1.00000000,
-8.00000000,
-51.00000000,
-42.00000000,
-25.99999809,
-82.00000000,
-7.00000048,
25.00000000,
77.00000000,
-9.00000000,
-36.00000000,
-10.00000000,
-21.00000000,
-39.00000000,
-28.00000191,
-24.00000000,
4.00000000,
-54.00000381,
-35.00000000,
-3.00000000,
-47.00000000,
17.00000000,
25.99999809,
-21.00000000,
-30.00000000,
36.00000000,
28.00000191,
-21.00000000,
-35.00000000,
-9.00000000,
53.00000000,
-25.00000000,
-16.00000000,
-3.00000000,
61.00000000,
-25.00000000,
-12.00000000,
35.00000000,
-53.00000000,
-27.00000191,
25.99999809,
-28.00000191,
-21.00000000,
4.00000000,
-46.00000000,
12.99999905,
-15.00000000,
-1.00000000,
10.00000000,
46.00000000,
35.00000000,
24.00000000,
23.00000000,
-65.00000000,
-10.00000000,
17.00000000,
-17.00000000,
-6.00000000,
-20.00000000,
5.00000000,
14.00000095,
-15.00000000,
-7.00000048,
5.00000000,
16.00000000,
27.00000191,
-25.99999809,
-7.00000048,
-3.00000000,
12.99999905,
-37.00000000,
-11.00000000,
-3.00000000,
5.00000000,
-35.00000000,
-31.00000000,
24.00000000,
-23.00000000,
-41.00000000,
-12.99999905,
6.00000000,
-34.00000000,
-14.00000095,
20.00000000,
43.00000000,
-34.00000000,
28.00000191,
18.00000000,
-46.00000000,
15.00000000,
8.00000000,
-36.00000000,
46.00000000,
40.00000000,
-23.00000000,
-1.00000000,
-20.00000000,
-6.00000000,
-30.00000000,
57.00000000,
-18.00000000,
10.00000000,
-2.00000000,
-48.00000000,
9.00000000,
-28.00000191,
-24.00000000,
-15.00000000,
4.00000000,
65.00000000,
-29.00000000,
-7.00000048,
42.00000000,
-37.00000000,
-25.00000000,
66.00000000,
-68.00000000,
-51.00000000,
38.00000000,
-8.00000000,
8.00000000,
70.00000000,
-34.00000000,
53.00000000,
1.00000000,
47.00000000,
-30.00000000,
27.00000191,
15.00000000,
2.00000000,
-19.00000000,
-42.00000000,
-83.00000000,
-41.00000000,
24.00000000,
12.99999905,
17.00000000,
-15.00000000,
11.00000000,
12.00000000,
-16.00000000,
-30.00000000,
-51.00000000,
16.00000000,
10.00000000,
27.00000191,
45.00000381,
-33.00000000,
15.00000000,
-1.00000000,
-32.00000000,
-39.00000000,
15.00000000,
33.00000000,
25.99999809,
21.00000000,
6.00000000,
-5.00000000,
-21.00000000,
-34.00000000,
-24.00000000,
7.00000048,
17.00000000,
-24.00000000,
-8.00000000,
39.00000000,
9.00000000,
9.00000000,
21.00000000,
-7.00000048,
-6.00000000,
10.00000000,
-25.00000000,
19.00000000,
14.00000095,
-14.00000095,
16.00000000,
37.00000000,
-19.00000000,
-66.00000000,
11.00000000,
16.00000000,
-34.00000000,
6.00000000,
-3.00000000,
12.99999905,
7.00000048,
-30.00000000,
66.00000000,
-32.00000000,
-8.00000000,
-38.00000000,
-51.99999619,
-43.00000000,
-4.00000000,
-3.00000000,
-73.00000000,
-1.00000000,
14.00000095,
16.00000000,
36.00000000,
4.00000000,
41.00000000,
10.00000000,
16.00000000,
33.00000000,
16.00000000,
3.00000000,
8.00000000,
-41.00000000,
45.00000381,
71.00000000,
-2.00000000,
35.00000000,
76.00000000,
33.00000000,
50.00000000,
58.00000000,
8.00000000,
10.00000000,
18.00000000,
-69.00000000,
-23.00000000,
-14.00000095,
69.00000000,
38.00000000,
12.00000000,
47.00000000,
0.00000000,
-60.00000000,
9.00000000,
-39.00000000,
-67.00000000,
-36.00000000,
-31.00000000,
2.00000000,
10.00000000,
0.00000000,
9.00000000,
-19.00000000,
9.00000000,
43.00000000,
-49.00000000,
55.00000000,
14.00000095,
-2.00000000,
-7.00000048,
-19.00000000,
41.00000000,
-1.00000000,
-8.00000000,
3.00000000,
-34.00000000,
-58.00000000,
23.00000000,
7.00000048,
10.00000000,
-14.00000095,
21.00000000,
-8.00000000,
-65.00000000,
-16.00000000,
-14.00000095,
-6.00000000,
-36.00000000,
7.00000048,
21.00000000,
18.00000000,
86.00000000,
35.00000000,
-15.00000000,
4.00000000,
8.00000000,
-30.00000000,
4.00000000,
-24.00000000,
6.00000000,
6.00000000,
16.00000000,
-2.00000000,
11.00000000,
28.00000191,
-37.00000000,
-51.00000000,
4.00000000,
-4.00000000,
-77.00000000,
4.00000000,
-5.00000000,
25.00000000,
43.00000000,
-17.00000000,
-53.00000000,
-22.00000000,
-16.00000000,
-1.00000000,
-43.00000000,
5.00000000,
23.00000000,
-31.00000000,
46.00000000,
24.00000000,
24.00000000,
18.00000000,
3.00000000,
-11.00000000,
35.00000000,
25.99999809,
-3.00000000,
-32.00000000,
-19.00000000,
-25.00000000,
-72.00000000,
-88.00000000,
7.00000048,
9.00000000,
-40.00000000,
-18.00000000,
-16.00000000,
3.00000000,
-10.00000000,
6.00000000,
-14.00000095,
-29.00000000,
-6.00000000,
29.00000000,
37.00000000,
5.00000000,
23.00000000,
46.00000000,
-27.00000191,
-12.99999905,
43.00000000,
27.00000191,
24.00000000,
12.00000000,
31.00000000,
44.00000000,
-4.00000000,
20.00000000,
54.00000381,
34.00000000,
18.00000000,
-16.00000000,
51.99999619,
30.00000000,
3.00000000,
59.00000000,
28.00000191,
42.00000000,
22.00000000,
20.00000000,
23.00000000,
23.00000000,
-28.00000191,
5.00000000,
-30.00000000,
-35.00000000,
-41.00000000,
-36.00000000,
-12.00000000,
-22.00000000,
18.00000000,
-4.00000000,
-12.99999905,
-74.00000000,
4.00000000,
8.00000000,
-2.00000000,
-36.00000000,
4.00000000,
3.00000000,
37.00000000,
2.00000000,
-12.00000000,
16.00000000,
0.00000000,
15.00000000,
-25.99999809,
-25.00000000,
-5.00000000,
-25.00000000,
7.00000048,
-12.00000000,
-94.00000000,
-25.99999809,
-20.00000000,
-14.00000095,
-37.00000000,
-7.00000048,
7.00000048,
-11.00000000,
-12.00000000,
22.00000000,
-69.00000000,
-90.00000763,
-29.00000000,
-9.00000000,
-55.00000000,
-55.00000000,
16.00000000,
-21.00000000,
1.00000000,
28.00000191,
54.00000381,
56.00000381,
2.00000000,
16.00000000,
10.00000000,
-24.00000000,
-10.00000000,
-23.00000000,
45.00000381,
39.00000000,
-9.00000000,
-49.00000000,
-27.00000191,
-23.00000000,
-39.00000000,
-44.00000000,
-56.00000381,
-30.00000000,
7.00000048,
0.00000000,
-11.00000000,
-25.99999809,
-30.00000000,
22.00000000,
-41.00000000,
-77.00000000,
-48.00000000,
-64.00000000,
-85.00000000,
-109.00000000,
-44.00000000,
-61.00000000,
-37.00000000,
-25.00000000,
12.99999905,
39.00000000,
-9.00000000,
-12.99999905,
-4.00000000,
-27.00000191,
6.00000000,
-10.00000000,
-90.00000763,
12.00000000,
-18.00000000,
6.00000000,
27.00000191,
-5.00000000,
19.00000000,
17.00000000,
8.00000000,
-23.00000000,
-23.00000000,
-68.00000000,
2.00000000,
61.00000000,
31.00000000,
34.00000000,
62.99999619,
102.00000000,
49.00000000,
46.00000000,
95.00000000,
-9.00000000,
-48.00000000,
-45.00000381,
24.00000000,
18.00000000,
40.00000000,
-14.00000095,
9.00000000,
24.00000000,
58.00000000,
83.00000000,
-24.00000000,
48.00000000,
-32.00000000,
-74.00000000,
-60.00000000,
-64.00000000,
-12.99999905,
-37.00000000,
-29.00000000,
-36.00000000,
-12.00000000,
-62.00000000,
-50.00000000,
-7.00000048,
-29.00000000,
-46.00000000,
64.00000000,
41.00000000,
-3.00000000,
85.00000000,
19.00000000,
10.00000000,
22.00000000,
-22.00000000,
38.00000000,
23.00000000,
-49.00000000,
-57.00000000,
28.00000191,
-19.00000000,
4.00000000,
-43.00000000,
-28.00000191,
-9.00000000,
23.00000000,
-18.00000000,
12.00000000,
-4.00000000,
-56.00000381,
-35.00000000,
-44.00000000,
-84.00000000,
-48.00000000,
15.00000000,
51.99999619,
-45.00000381,
7.00000048,
-19.00000000,
-62.99999619,
61.00000000,
-5.00000000,
-3.00000000,
-10.00000000,
20.00000000,
19.00000000,
-66.00000000,
-14.00000095,
82.00000000,
-10.00000000,
-54.00000381,
45.00000381,
-7.00000048,
43.00000000,
91.00000000,
14.00000095,
39.00000000,
21.00000000,
-21.00000000,
-14.00000095,
4.00000000,
33.00000000,
91.00000000,
55.00000000,
-28.00000191,
-7.00000048,
15.00000000,
-21.00000000,
-65.00000000,
-62.00000000,
12.00000000,
-59.00000000,
-69.00000000,
5.00000000,
-10.00000000,
-14.00000095,
-25.00000000,
-62.00000000,
-73.00000000,
-25.00000000,
-24.00000000,
-62.99999619,
-10.00000000,
-62.99999619,
-51.99999619,
-35.00000000,
-47.00000000,
-29.00000000,
-58.00000000,
-92.99999237,
-48.00000000,
-64.00000000,
-55.00000000,
-51.99999619,
16.00000000,
-33.00000000,
-2.00000000,
-28.00000191,
15.00000000,
-22.00000000,
4.00000000,
-7.00000048,
-46.00000000,
9.00000000,
-27.00000191,
-49.00000000,
-1.00000000,
-38.00000000,
-50.00000000,
33.00000000,
-30.00000000,
-14.00000095,
1.00000000,
-1.00000000,
-61.00000000,
-21.00000000,
11.00000000,
30.00000000,
-2.00000000,
11.00000000,
10.00000000,
-9.00000000,
-62.99999619,
-95.00000000,
-9.00000000,
-25.00000000,
18.00000000,
-46.00000000,
-48.00000000,
-12.99999905,
-53.00000000,
12.00000000,
-34.00000000,
3.00000000,
-5.00000000,
53.00000000,
-49.00000000,
2.00000000,
47.00000000,
-101.00000763,
27.00000191,
-22.00000000,
54.00000381,
-21.00000000,
28.00000191,
85.00000000,
2.00000000,
-10.00000000,
-25.00000000,
-22.00000000,
-48.00000000,
-6.00000000,
46.00000000,
72.00000000,
-19.00000000,
17.00000000,
-25.99999809,
-31.00000000,
-57.00000000,
-42.00000000,
-8.00000000,
-58.00000000,
-38.00000000,
54.00000381,
17.00000000,
15.00000000,
-29.00000000,
8.00000000,
-24.00000000,
-2.00000000,
97.00000763,
95.00000000,
-4.00000000,
51.00000000,
61.00000000,
-46.00000000,
-21.00000000,
17.00000000,
-27.00000191,
53.00000000,
30.00000000,
-23.00000000,
-10.00000000,
28.00000191,
-72.00000000,
45.00000381,
-14.00000095,
25.99999809,
33.00000000,
50.00000000,
35.00000000,
14.00000095,
-35.00000000,
-34.00000000,
-49.00000000,
-62.00000000,
46.00000000,
16.00000000,
45.00000381,
0.00000000,
0.00000000,
46.00000000,
-67.00000000,
-29.00000000,
-4.00000000,
-9.00000000,
-17.00000000,
-11.00000000,
-33.00000000,
-17.00000000,
45.00000381,
8.00000000,
25.99999809,
53.00000000,
-2.00000000,
19.00000000,
-7.00000048,
-20.00000000,
-53.00000000,
-64.00000000,
-36.00000000,
-40.00000000,
-45.00000381,
-34.00000000,
-50.00000000,
-61.00000000,
-4.00000000,
-44.00000000,
-72.00000000,
8.00000000,
83.00000000,
113.00000000,
-7.00000048,
-37.00000000,
-123.00000000,
43.00000000,
-1.00000000,
-62.99999619,
14.00000095,
77.00000000,
-50.00000000,
-9.00000000,
-12.00000000,
-81.00000000,
18.00000000,
-25.99999809,
-77.00000000,
21.00000000,
-42.00000000,
-1.00000000,
-17.00000000,
6.00000000,
-86.00000000,
-34.00000000,
33.00000000,
-31.00000000,
7.00000048,
35.00000000,
19.00000000,
18.00000000,
53.00000000,
11.00000000,
-8.00000000,
18.00000000,
25.00000000,
20.00000000,
43.00000000,
12.00000000,
-40.00000000,
9.00000000,
2.00000000,
-38.00000000,
-16.00000000,
-45.00000381,
16.00000000,
-43.00000000,
-84.00000000,
-30.00000000,
-48.00000000,
-10.00000000,
32.00000000,
6.00000000,
-10.00000000,
-3.00000000,
51.00000000,
25.00000000,
4.00000000,
7.00000048,
-2.00000000,
32.00000000,
33.00000000,
82.00000000,
-44.00000000,
36.00000000,
45.00000381,
19.00000000,
22.00000000,
38.00000000,
6.00000000,
-1.00000000,
-18.00000000,
24.00000000,
5.00000000,
-25.99999809,
-10.00000000,
-49.00000000,
-117.00000000,
-51.00000000,
-9.00000000,
-65.00000000,
-2.00000000,
9.00000000,
6.00000000,
32.00000000,
11.00000000,
-59.00000000,
24.00000000,
48.00000000,
-94.00000000,
15.00000000,
-27.00000191,
-73.00000000,
-44.00000000,
14.00000095,
18.00000000,
-19.00000000,
25.99999809,
36.00000000,
-48.00000000,
-32.00000000,
-20.00000000,
-20.00000000,
-12.00000000,
10.00000000,
-28.00000191,
16.00000000,
-15.00000000,
51.99999619,
64.00000000,
10.00000000,
17.00000000,
-12.99999905,
-8.00000000,
27.00000191,
16.00000000,
4.00000000,
17.00000000,
36.00000000,
22.00000000,
-24.00000000,
17.00000000,
78.00000000,
-37.00000000,
-41.00000000,
-40.00000000,
-38.00000000,
-92.99999237,
-101.00000763,
51.00000000,
7.00000048,
-12.99999905,
-5.00000000,
23.00000000,
-6.00000000,
-45.00000381,
-42.00000000,
-45.00000381,
32.00000000,
15.00000000,
-56.00000381,
43.00000000,
14.00000095,
-75.00000000,
9.00000000,
27.00000191,
-77.00000000,
40.00000000,
49.00000000,
-9.00000000,
2.00000000,
-20.00000000,
-90.00000763,
28.00000191,
-42.00000000,
-94.00000000,
-54.00000381,
-18.00000000,
20.00000000,
-38.00000000,
-11.00000000,
7.00000048,
20.00000000,
55.00000000,
75.00000000,
31.00000000,
24.00000000,
-20.00000000,
-7.00000048,
38.00000000,
-20.00000000,
-9.00000000,
22.00000000,
-5.00000000,
84.00000000,
102.00000000,
40.00000000,
-50.00000000,
-59.00000000,
-45.00000381,
-48.00000000,
-39.00000000,
-99.00000000,
12.00000000,
-33.00000000,
-40.00000000,
46.00000000,
-3.00000000,
-96.00000000,
48.00000000,
-32.00000000,
-55.00000000,
-38.00000000,
-9.00000000,
43.00000000,
-45.00000381,
-40.00000000,
47.00000000,
22.00000000,
25.99999809,
68.00000000,
-17.00000000,
43.00000000,
-25.99999809,
-18.00000000,
-12.99999905,
5.00000000,
28.00000191,
-15.00000000,
12.00000000,
54.00000381,
-15.00000000,
-68.00000000,
-20.00000000,
12.99999905,
-34.00000000,
22.00000000,
27.00000191,
2.00000000,
-30.00000000,
-34.00000000,
-11.00000000,
-25.00000000,
-51.00000000,
-67.00000000,
36.00000000,
11.00000000,
-19.00000000,
-28.00000191,
8.00000000,
-25.00000000,
-1.00000000,
-36.00000000,
-20.00000000,
21.00000000,
-35.00000000,
-23.00000000,
-9.00000000,
36.00000000,
7.00000048,
29.00000000,
6.00000000,
-19.00000000,
43.00000000,
-31.00000000,
-10.00000000,
-31.00000000,
-74.00000000,
-120.00000000,
-25.99999809,
-10.00000000,
-42.00000000,
-25.99999809,
39.00000000,
-3.00000000,
-29.00000000,
31.00000000,
-33.00000000,
-35.00000000,
-14.00000095,
-21.00000000,
-29.00000000,
-8.00000000,
-35.00000000,
-7.00000048,
-19.00000000,
-60.00000000,
-25.99999809,
14.00000095,
12.00000000,
-33.00000000,
-8.00000000,
-29.00000000,
15.00000000,
-37.00000000,
8.00000000,
5.00000000,
-9.00000000,
-8.00000000,
9.00000000,
23.00000000,
15.00000000,
-64.00000000,
-12.99999905,
12.99999905,
-27.00000191,
-4.00000000,
17.00000000,
-36.00000000,
-29.00000000,
-18.00000000,
-12.00000000,
-18.00000000,
-25.99999809,
31.00000000,
-12.00000000,
-29.00000000,
2.00000000,
-4.00000000,
14.00000095,
-42.00000000,
-55.00000000,
-19.00000000,
-9.00000000,
-4.00000000,
-4.00000000,
11.00000000,
-33.00000000,
-18.00000000,
51.00000000,
-5.00000000,
-27.00000191,
72.00000000,
11.00000000,
-25.99999809,
109.00000000,
30.00000000,
-25.00000000,
78.00000000,
-10.00000000,
-47.00000000,
80.00000000,
-16.00000000,
-58.00000000,
33.00000000,
6.00000000,
-42.00000000,
30.00000000,
33.00000000,
7.00000048,
12.00000000,
40.00000000,
9.00000000,
41.00000000,
32.00000000,
22.00000000,
2.00000000,
-2.00000000,
7.00000048,
29.00000000,
-6.00000000,
6.00000000,
32.00000000,
21.00000000,
-40.00000000,
-11.00000000,
-11.00000000,
31.00000000,
19.00000000,
-5.00000000,
6.00000000,
-15.00000000,
0.00000000,
-9.00000000,
8.00000000,
28.00000191,
-10.00000000,
20.00000000,
-7.00000048,
-5.00000000,
-8.00000000,
-2.00000000,
-8.00000000,
-47.00000000,
-44.00000000,
-53.00000000,
-1.00000000,
21.00000000,
25.99999809,
5.00000000,
-7.00000048,
23.00000000,
12.00000000,
9.00000000,
-8.00000000,
9.00000000,
-16.00000000,
-37.00000000,
35.00000000,
24.00000000,
38.00000000,
11.00000000,
-24.00000000,
-3.00000000,
-15.00000000,
0.00000000,
3.00000000,
-34.00000000,
-54.00000381,
-25.99999809,
44.00000000,
-12.00000000,
-59.00000000,
0.00000000,
-9.00000000,
-21.00000000,
-24.00000000,
4.00000000,
-14.00000095,
25.99999809,
41.00000000,
-23.00000000,
-25.99999809,
-12.99999905,
40.00000000,
15.00000000,
-4.00000000,
1.00000000,
18.00000000,
-31.00000000,
8.00000000,
-28.00000191,
7.00000048,
-23.00000000,
-16.00000000,
30.00000000,
6.00000000,
-40.00000000,
-12.99999905,
-27.00000191,
-12.00000000,
-33.00000000,
-37.00000000,
-19.00000000,
-27.00000191,
-47.00000000,
-59.00000000,
-39.00000000,
-5.00000000,
11.00000000,
51.00000000,
25.99999809,
10.00000000,
12.00000000,
55.00000000,
12.99999905,
31.00000000,
68.00000000,
21.00000000,
28.00000191,
-12.00000000,
16.00000000,
23.00000000,
-1.00000000,
-35.00000000,
-32.00000000,
7.00000048,
-32.00000000,
-6.00000000,
15.00000000,
-72.00000000,
-22.00000000,
1.00000000,
0.00000000,
16.00000000,
-19.00000000,
48.00000000,
14.00000095,
18.00000000,
0.00000000,
29.00000000,
41.00000000,
12.99999905,
-4.00000000,
12.99999905,
24.00000000,
3.00000000,
-37.00000000,
-6.00000000,
-8.00000000,
-21.00000000,
42.00000000,
-25.00000000,
-12.00000000,
18.00000000,
38.00000000,
16.00000000,
27.00000191,
-15.00000000,
24.00000000,
64.00000000,
-9.00000000,
-42.00000000,
66.00000000,
4.00000000,
3.00000000,
40.00000000,
-2.00000000,
-29.00000000,
-21.00000000,
10.00000000,
21.00000000,
-29.00000000,
23.00000000,
8.00000000,
-1.00000000,
16.00000000,
-10.00000000,
-56.00000381,
-46.00000000,
-58.00000000,
23.00000000,
25.99999809,
24.00000000,
-10.00000000,
44.00000000,
42.00000000,
35.00000000,
32.00000000,
44.00000000,
-14.00000095,
12.99999905,
20.00000000,
-10.00000000,
18.00000000,
18.00000000,
-15.00000000,
45.00000381,
-28.00000191,
12.99999905,
14.00000095,
19.00000000,
-38.00000000,
-32.00000000,
-25.99999809,
36.00000000,
38.00000000,
-6.00000000,
45.00000381,
7.00000048,
-14.00000095,
14.00000095,
33.00000000,
-29.00000000,
-25.99999809,
-15.00000000,
-56.00000381,
17.00000000,
-51.99999619,
17.00000000,
-6.00000000,
29.00000000,
23.00000000,
-48.00000000,
33.00000000,
7.00000048,
-16.00000000,
25.99999809,
-19.00000000,
-62.99999619,
7.00000048,
6.00000000,
-37.00000000,
-16.00000000,
-8.00000000,
-7.00000048,
42.00000000,
-5.00000000,
-35.00000000,
34.00000000,
0.00000000,
7.00000048,
-8.00000000,
-5.00000000,
6.00000000,
5.00000000,
-12.99999905,
5.00000000,
-30.00000000,
-4.00000000,
73.00000000,
3.00000000,
-11.00000000,
22.00000000,
-83.00000000,
-49.00000000,
-32.00000000,
-25.00000000,
-69.00000000,
62.99999619,
9.00000000,
45.00000381,
11.00000000,
-29.00000000,
11.00000000,
1.00000000,
29.00000000,
25.00000000,
-20.00000000,
30.00000000,
49.00000000,
-5.00000000,
8.00000000,
-6.00000000,
-4.00000000,
-16.00000000,
3.00000000,
29.00000000,
28.00000191,
43.00000000,
-19.00000000,
-27.00000191,
12.99999905,
-39.00000000,
-11.00000000,
-32.00000000,
5.00000000,
-2.00000000,
29.00000000,
6.00000000,
11.00000000,
41.00000000,
-22.00000000,
-2.00000000,
48.00000000,
-10.00000000,
2.00000000,
-3.00000000,
33.00000000,
1.00000000,
-15.00000000,
18.00000000,
18.00000000,
31.00000000,
-15.00000000,
-6.00000000,
0.00000000,
59.00000000,
24.00000000,
-12.00000000,
-22.00000000,
10.00000000,
-51.99999619,
-55.00000000,
10.00000000,
49.00000000,
-35.00000000,
14.00000095,
20.00000000,
-49.00000000,
-12.00000000,
62.99999619,
-24.00000000,
8.00000000,
-12.99999905,
33.00000000,
35.00000000,
-40.00000000,
40.00000000,
-14.00000095,
6.00000000,
-18.00000000,
5.00000000,
20.00000000,
-1.00000000,
34.00000000,
-10.00000000,
29.00000000,
0.00000000,
4.00000000,
4.00000000,
-8.00000000,
14.00000095,
-18.00000000,
-32.00000000,
-48.00000000,
-41.00000000,
-44.00000000,
50.00000000,
-39.00000000,
-54.00000381,
-69.00000000,
-1.00000000,
-67.00000000,
-34.00000000,
-31.00000000,
-27.00000191,
-57.00000000,
6.00000000,
22.00000000,
-27.00000191,
-3.00000000,
10.00000000,
-84.00000000,
14.00000095,
15.00000000,
-56.00000381,
-27.00000191,
-38.00000000,
-62.99999619,
-3.00000000,
27.00000191,
-6.00000000,
-28.00000191,
3.00000000,
25.00000000,
-15.00000000,
19.00000000,
25.99999809,
-58.00000000,
66.00000000,
40.00000000,
-58.00000000,
-24.00000000,
24.00000000,
21.00000000,
17.00000000,
69.00000000,
-29.00000000,
27.00000191,
-1.00000000,
-19.00000000,
-1.00000000,
-4.00000000,
27.00000191,
12.00000000,
34.00000000,
9.00000000,
-58.00000000,
-7.00000048,
5.00000000,
-7.00000048,
-6.00000000,
-27.00000191,
-48.00000000,
-8.00000000,
-12.99999905,
7.00000048,
-9.00000000,
-8.00000000,
-17.00000000,
11.00000000,
-29.00000000,
21.00000000,
-11.00000000,
-29.00000000,
38.00000000,
-3.00000000,
0.00000000,
25.99999809,
-1.00000000,
6.00000000,
57.00000000,
32.00000000,
37.00000000,
-51.99999619,
-6.00000000,
12.99999905,
-33.00000000,
-28.00000191,
-84.00000000,
10.00000000,
24.00000000,
-40.00000000,
-12.99999905,
-14.00000095,
8.00000000,
11.00000000,
34.00000000,
1.00000000,
66.00000000,
33.00000000,
-18.00000000,
-2.00000000,
43.00000000,
23.00000000,
7.00000048,
30.00000000,
-10.00000000,
31.00000000,
-60.00000000,
21.00000000,
46.00000000,
-12.00000000,
33.00000000,
-2.00000000,
32.00000000,
10.00000000,
0.00000000,
-49.00000000,
35.00000000,
-7.00000048,
-6.00000000,
57.00000000,
37.00000000,
-59.00000000,
2.00000000,
-10.00000000,
-30.00000000,
41.00000000,
12.00000000,
-35.00000000,
69.00000000,
-14.00000095,
60.00000000,
-7.00000048,
58.00000000,
9.00000000,
3.00000000,
-8.00000000,
18.00000000,
22.00000000,
-15.00000000,
-21.00000000,
-14.00000095,
16.00000000,
48.00000000,
-58.00000000,
25.00000000,
25.99999809,
-53.00000000,
21.00000000,
54.00000381,
-35.00000000,
-12.99999905,
-10.00000000,
-27.00000191,
-9.00000000,
-31.00000000,
-54.00000381,
-62.00000000,
4.00000000,
-12.00000000,
-42.00000000,
-25.99999809,
4.00000000,
-6.00000000,
-30.00000000,
43.00000000,
7.00000048,
-3.00000000,
38.00000000,
67.00000000,
-29.00000000,
19.00000000,
34.00000000,
7.00000048,
-9.00000000,
24.00000000,
1.00000000,
4.00000000,
24.00000000,
12.00000000,
-34.00000000,
-17.00000000,
-18.00000000,
-43.00000000,
8.00000000,
1.00000000,
2.00000000,
27.00000191,
16.00000000,
5.00000000,
14.00000095,
-12.99999905,
-31.00000000,
-38.00000000,
-70.00000000,
12.99999905,
-50.00000000,
-45.00000381,
-34.00000000,
-28.00000191,
-24.00000000,
-40.00000000,
-57.00000000,
12.99999905,
-18.00000000,
-15.00000000,
12.00000000,
-8.00000000,
14.00000095,
6.00000000,
0.00000000,
-50.00000000,
19.00000000,
-41.00000000,
-5.00000000,
-35.00000000,
-10.00000000,
-54.00000381,
-60.00000000,
-41.00000000,
-42.00000000,
-39.00000000,
-17.00000000,
-25.00000000,
38.00000000,
-7.00000048,
51.00000000,
30.00000000,
11.00000000,
25.99999809,
15.00000000,
-24.00000000,
30.00000000,
-12.99999905,
-19.00000000,
54.00000381,
18.00000000,
-30.00000000,
-21.00000000,
-15.00000000,
19.00000000,
-2.00000000,
-25.00000000,
62.00000000,
45.00000381,
-8.00000000,
10.00000000,
56.00000381,
-17.00000000,
-18.00000000,
-109.00000000,
-62.00000000,
1.00000000,
-67.00000000,
-28.00000191,
-47.00000000,
1.00000000,
-6.00000000,
-19.00000000,
23.00000000,
56.00000381,
-43.00000000,
55.00000000,
33.00000000,
3.00000000,
39.00000000,
51.00000000,
39.00000000,
41.00000000,
-40.00000000,
72.00000000,
32.00000000,
-1.00000000,
-2.00000000,
20.00000000,
0.00000000,
-17.00000000,
-57.00000000,
-1.00000000,
14.00000095,
-36.00000000,
-2.00000000,
7.00000048,
9.00000000,
9.00000000,
-11.00000000,
2.00000000,
-23.00000000,
-8.00000000,
1.00000000,
36.00000000,
-17.00000000,
-50.00000000,
-35.00000000,
-66.00000000,
-54.00000381,
0.00000000,
-32.00000000,
-35.00000000,
-22.00000000,
-69.00000000,
-39.00000000,
12.00000000,
58.00000000,
-5.00000000,
-62.00000000,
14.00000095,
-31.00000000,
-64.00000000,
38.00000000,
-15.00000000,
-69.00000000,
-18.00000000,
18.00000000,
16.00000000,
25.00000000,
32.00000000,
15.00000000,
-40.00000000,
-15.00000000,
65.00000000,
29.00000000,
37.00000000,
44.00000000,
-2.00000000,
-29.00000000,
-55.00000000,
-58.00000000,
-65.00000000,
-82.00000000,
18.00000000,
12.99999905,
-22.00000000,
-1.00000000,
51.00000000,
-10.00000000,
-54.00000381,
36.00000000,
-7.00000048,
28.00000191,
-59.00000000,
-21.00000000,
-51.99999619,
-57.00000000,
6.00000000,
9.00000000,
9.00000000,
-62.99999619,
-109.00000000,
-55.00000000,
-51.99999619,
-53.00000000,
-51.00000000,
-31.00000000,
-25.00000000,
-19.00000000,
-70.00000000,
4.00000000,
31.00000000,
-2.00000000,
35.00000000,
48.00000000,
9.00000000,
-16.00000000,
42.00000000,
14.00000095,
-18.00000000,
-58.00000000,
-43.00000000,
-18.00000000,
-14.00000095,
-11.00000000,
-30.00000000,
-35.00000000,
20.00000000,
79.00000000,
24.00000000,
32.00000000,
-7.00000048,
-12.00000000,
16.00000000,
-66.00000000,
-25.00000000,
-42.00000000,
-23.00000000,
-5.00000000,
-31.00000000,
29.00000000,
16.00000000,
-68.00000000,
37.00000000,
-40.00000000,
-47.00000000,
-34.00000000,
5.00000000,
-41.00000000,
32.00000000,
36.00000000,
47.00000000,
31.00000000,
41.00000000,
31.00000000,
61.00000000,
-19.00000000,
-17.00000000,
49.00000000,
-8.00000000,
17.00000000,
69.00000000,
11.00000000,
51.00000000,
-8.00000000,
17.00000000,
50.00000000,
10.00000000,
-24.00000000,
14.00000095,
12.00000000,
-5.00000000,
25.99999809,
-37.00000000,
-16.00000000,
-37.00000000,
-8.00000000,
-4.00000000,
-25.00000000,
4.00000000,
-29.00000000,
-51.99999619,
25.99999809,
-2.00000000,
30.00000000,
10.00000000,
1.00000000,
10.00000000,
-21.00000000,
9.00000000,
-24.00000000,
-23.00000000,
-38.00000000,
29.00000000,
-19.00000000,
-19.00000000,
29.00000000,
-34.00000000,
-51.00000000,
16.00000000,
-55.00000000,
-87.00000000,
-7.00000048,
-24.00000000,
-32.00000000,
-32.00000000,
-49.00000000,
-67.00000000,
-22.00000000,
-17.00000000,
-39.00000000,
-8.00000000,
-25.99999809,
-31.00000000,
-14.00000095,
-39.00000000,
-14.00000095,
-38.00000000,
39.00000000,
14.00000095,
25.99999809,
29.00000000,
-10.00000000,
21.00000000,
21.00000000,
19.00000000,
3.00000000,
14.00000095,
2.00000000,
9.00000000,
-16.00000000,
-18.00000000,
-36.00000000,
35.00000000,
16.00000000,
14.00000095,
-10.00000000,
-27.00000191,
31.00000000,
-45.00000381,
22.00000000,
42.00000000,
6.00000000,
28.00000191,
-2.00000000,
-25.00000000,
-41.00000000,
31.00000000,
7.00000048,
31.00000000,
5.00000000,
-20.00000000,
-24.00000000,
14.00000095,
67.00000000,
2.00000000,
1.00000000,
51.99999619,
-11.00000000,
-51.00000000,
89.00000000,
22.00000000,
12.00000000,
42.00000000,
-39.00000000,
-39.00000000,
51.00000000,
20.00000000,
-12.00000000,
77.00000000,
-1.00000000,
-46.00000000,
41.00000000,
-39.00000000,
-28.00000191,
73.00000000,
23.00000000,
4.00000000,
106.00000000,
-9.00000000,
-32.00000000,
-17.00000000,
6.00000000,
-20.00000000,
-22.00000000,
-24.00000000,
-3.00000000,
6.00000000,
-37.00000000,
-36.00000000,
-1.00000000,
-1.00000000,
-47.00000000,
31.00000000,
-6.00000000,
-36.00000000,
-6.00000000,
-2.00000000,
4.00000000,
-9.00000000,
-8.00000000,
0.00000000,
48.00000000,
20.00000000,
59.00000000,
-1.00000000,
7.00000048,
-5.00000000,
27.00000191,
-9.00000000,
24.00000000,
-10.00000000,
27.00000191,
-16.00000000,
-23.00000000,
12.99999905,
10.00000000,
16.00000000,
7.00000048,
2.00000000,
16.00000000,
0.00000000,
10.00000000,
11.00000000,
-12.00000000,
-25.99999809,
-31.00000000,
-28.00000191,
19.00000000,
-16.00000000,
-27.00000191,
-12.00000000,
-19.00000000,
-3.00000000,
1.00000000,
1.00000000,
5.00000000,
8.00000000,
-32.00000000,
-43.00000000,
-37.00000000,
-8.00000000,
-8.00000000,
0.00000000,
-67.00000000,
-41.00000000,
-20.00000000,
-9.00000000,
25.00000000,
9.00000000,
-66.00000000,
22.00000000,
-20.00000000,
38.00000000,
40.00000000,
-12.00000000,
45.00000381,
30.00000000,
15.00000000,
36.00000000,
-15.00000000,
-23.00000000,
-32.00000000,
-24.00000000,
-58.00000000,
-4.00000000,
-20.00000000,
3.00000000,
25.99999809,
9.00000000,
18.00000000,
84.00000000,
40.00000000,
9.00000000,
72.00000000,
72.00000000,
-34.00000000,
43.00000000,
48.00000000,
-12.99999905,
-19.00000000,
17.00000000,
-14.00000095,
21.00000000,
25.00000000,
-1.00000000,
8.00000000,
29.00000000,
15.00000000,
19.00000000,
-4.00000000,
-23.00000000,
18.00000000,
-42.00000000,
4.00000000,
-15.00000000,
-28.00000191,
17.00000000,
-17.00000000,
-11.00000000,
55.00000000,
-25.99999809,
33.00000000,
46.00000000,
25.00000000,
57.00000000,
18.00000000,
-15.00000000,
18.00000000,
39.00000000,
-55.00000000,
-5.00000000,
-3.00000000,
-45.00000381,
24.00000000,
0.00000000,
12.00000000,
-32.00000000,
-15.00000000,
47.00000000,
-5.00000000,
19.00000000,
28.00000191,
-7.00000048,
11.00000000,
-17.00000000,
-17.00000000,
-19.00000000,
-11.00000000,
-28.00000191,
27.00000191,
37.00000000,
-19.00000000,
19.00000000,
39.00000000,
2.00000000,
-1.00000000,
12.99999905,
7.00000048,
37.00000000,
-6.00000000,
-19.00000000,
30.00000000,
-27.00000191,
8.00000000,
19.00000000,
-21.00000000,
7.00000048,
-3.00000000,
-16.00000000,
8.00000000,
48.00000000,
-20.00000000,
22.00000000,
54.00000381,
-31.00000000,
-23.00000000,
8.00000000,
-12.99999905,
-3.00000000,
-24.00000000,
-18.00000000,
-19.00000000,
-58.00000000,
-10.00000000,
-9.00000000,
-37.00000000,
-39.00000000,
-42.00000000,
-11.00000000,
-12.99999905,
17.00000000,
21.00000000,
-2.00000000,
-18.00000000,
10.00000000,
10.00000000,
17.00000000,
15.00000000,
33.00000000,
-27.00000191,
-28.00000191,
43.00000000,
-6.00000000,
6.00000000,
64.00000000,
3.00000000,
17.00000000,
-20.00000000,
-32.00000000,
-47.00000000,
-31.00000000,
-59.00000000,
-7.00000048,
43.00000000,
-1.00000000,
-57.00000000,
14.00000095,
2.00000000,
5.00000000,
-27.00000191,
16.00000000,
12.00000000,
10.00000000,
6.00000000,
2.00000000,
-12.00000000,
6.00000000,
8.00000000,
15.00000000,
-10.00000000,
-23.00000000,
8.00000000,
16.00000000,
4.00000000,
-74.00000000,
-29.00000000,
11.00000000,
-7.00000048,
-40.00000000,
23.00000000,
-3.00000000,
5.00000000,
44.00000000,
-25.99999809,
0.00000000,
-32.00000000,
-2.00000000,
7.00000048,
-39.00000000,
39.00000000,
9.00000000,
18.00000000,
-11.00000000,
-1.00000000,
-12.00000000,
-44.00000000,
-12.00000000,
14.00000095,
12.99999905,
-42.00000000,
-2.00000000,
10.00000000,
12.99999905,
33.00000000,
-4.00000000,
29.00000000,
25.00000000,
1.00000000,
25.99999809,
33.00000000,
-12.99999905,
-1.00000000,
25.00000000,
-41.00000000,
5.00000000,
24.00000000,
-17.00000000,
40.00000000,
45.00000381,
-21.00000000,
27.00000191,
-4.00000000,
-8.00000000,
14.00000095,
-22.00000000,
-47.00000000,
-18.00000000,
-6.00000000,
-2.00000000,
16.00000000,
6.00000000,
23.00000000,
23.00000000,
-7.00000048,
-11.00000000,
4.00000000,
-22.00000000,
-10.00000000,
0.00000000,
16.00000000,
-15.00000000,
-57.00000000,
-38.00000000,
-31.00000000,
21.00000000,
-5.00000000,
-1.00000000,
-12.99999905,
-2.00000000,
-85.00000000,
-35.00000000,
1.00000000,
-3.00000000,
8.00000000,
-34.00000000,
5.00000000,
-7.00000048,
-14.00000095,
25.99999809,
31.00000000,
19.00000000,
23.00000000,
-15.00000000,
-44.00000000,
-17.00000000,
33.00000000,
8.00000000,
25.99999809,
-1.00000000,
-51.00000000,
-6.00000000,
11.00000000,
-28.00000191,
-57.00000000,
-46.00000000,
-41.00000000,
15.00000000,
-12.00000000,
-21.00000000,
44.00000000,
6.00000000,
7.00000048,
-25.99999809,
-11.00000000,
50.00000000,
-40.00000000,
29.00000000,
45.00000381,
-7.00000048,
28.00000191,
3.00000000,
20.00000000,
31.00000000,
36.00000000,
32.00000000,
9.00000000,
28.00000191,
-8.00000000,
55.00000000,
-24.00000000,
8.00000000,
-21.00000000,
4.00000000,
-44.00000000,
40.00000000,
8.00000000,
-25.99999809,
25.99999809,
20.00000000,
1.00000000,
-30.00000000,
-1.00000000,
14.00000095,
-2.00000000,
-27.00000191,
-45.00000381,
-44.00000000,
-43.00000000,
-18.00000000,
-20.00000000,
29.00000000,
-18.00000000,
-8.00000000,
-25.00000000,
-28.00000191,
-50.00000000,
34.00000000,
25.00000000,
-28.00000191,
30.00000000,
5.00000000,
16.00000000,
33.00000000,
-2.00000000,
-28.00000191,
-5.00000000,
-16.00000000,
28.00000191,
33.00000000,
43.00000000,
14.00000095,
11.00000000,
27.00000191,
-37.00000000,
11.00000000,
53.00000000,
37.00000000,
11.00000000,
0.00000000,
7.00000048,
-27.00000191,
10.00000000,
47.00000000,
-10.00000000,
-50.00000000,
-17.00000000,
18.00000000,
-20.00000000,
-43.00000000,
-7.00000048,
18.00000000,
31.00000000,
29.00000000,
9.00000000,
20.00000000,
14.00000095,
-32.00000000,
40.00000000,
-22.00000000,
25.00000000,
21.00000000,
-14.00000095,
39.00000000,
45.00000381,
23.00000000,
-9.00000000,
-23.00000000,
-17.00000000,
-36.00000000,
-4.00000000,
-20.00000000,
8.00000000,
42.00000000,
-18.00000000,
-9.00000000,
23.00000000,
-19.00000000,
-5.00000000,
-24.00000000,
16.00000000,
42.00000000,
43.00000000,
19.00000000,
-5.00000000,
-11.00000000,
-11.00000000,
-4.00000000,
-3.00000000,
8.00000000,
-3.00000000,
-2.00000000,
19.00000000,
0.00000000,
-21.00000000,
-1.00000000,
16.00000000,
9.00000000,
-7.00000048,
55.00000000,
56.00000381,
76.00000000,
16.00000000,
0.00000000,
35.00000000,
1.00000000,
-2.00000000,
-49.00000000,
15.00000000,
-23.00000000,
-16.00000000,
-27.00000191,
-3.00000000,
-10.00000000,
-9.00000000,
47.00000000,
11.00000000,
23.00000000,
48.00000000,
33.00000000,
31.00000000,
-6.00000000,
-3.00000000,
20.00000000,
-1.00000000,
10.00000000,
20.00000000,
-5.00000000,
-7.00000048,
-11.00000000,
1.00000000,
-30.00000000,
-27.00000191,
-37.00000000,
40.00000000,
6.00000000,
20.00000000,
21.00000000,
4.00000000,
-22.00000000,
30.00000000,
32.00000000,
-24.00000000,
-24.00000000,
-79.00000000,
-40.00000000,
-59.00000000,
21.00000000,
-5.00000000,
-57.00000000,
-20.00000000,
-27.00000191,
-38.00000000,
62.99999619,
5.00000000,
9.00000000,
18.00000000,
-14.00000095,
-62.00000000,
-8.00000000,
-12.00000000,
-27.00000191,
14.00000095,
-33.00000000,
-12.00000000,
7.00000048,
1.00000000,
-20.00000000,
-23.00000000,
-25.00000000,
-24.00000000,
9.00000000,
-4.00000000,
-51.00000000,
3.00000000,
-35.00000000,
-24.00000000,
11.00000000,
-36.00000000,
-8.00000000,
-97.00000763,
-45.00000381,
-10.00000000,
-33.00000000,
-20.00000000,
41.00000000,
-9.00000000,
-38.00000000,
-11.00000000,
25.99999809,
66.00000000,
11.00000000,
-28.00000191,
7.00000048,
-3.00000000,
-57.00000000,
-22.00000000,
-5.00000000,
2.00000000,
-1.00000000,
-43.00000000,
11.00000000,
35.00000000,
2.00000000,
-15.00000000,
50.00000000,
-8.00000000,
-33.00000000,
-84.00000000,
-49.00000000,
-62.00000000,
-112.00000763,
-64.00000000,
-6.00000000,
-96.00000000,
-56.00000381,
17.00000000,
-20.00000000,
9.00000000,
12.99999905,
-7.00000048,
-15.00000000,
5.00000000,
4.00000000,
-23.00000000,
-5.00000000,
-50.00000000,
-17.00000000,
74.00000000,
44.00000000,
-11.00000000,
38.00000000,
-17.00000000,
28.00000191,
25.99999809,
35.00000000,
-14.00000095,
7.00000048,
28.00000191,
-19.00000000,
25.99999809,
41.00000000,
-37.00000000,
8.00000000,
0.00000000,
32.00000000,
-2.00000000,
-18.00000000,
12.00000000,
-30.00000000,
-22.00000000,
-9.00000000,
-42.00000000,
-29.00000000,
9.00000000,
-53.00000000,
-28.00000191,
-23.00000000,
18.00000000,
-31.00000000,
-38.00000000,
-27.00000191,
44.00000000,
75.00000000,
23.00000000,
10.00000000,
8.00000000,
18.00000000,
12.00000000,
17.00000000,
-12.00000000,
-24.00000000,
-8.00000000,
-40.00000000,
-53.00000000,
17.00000000,
7.00000048,
32.00000000,
10.00000000,
-19.00000000,
21.00000000,
-30.00000000,
-19.00000000,
-38.00000000,
34.00000000,
22.00000000,
19.00000000,
-7.00000048,
-56.00000381,
-10.00000000,
11.00000000,
-73.00000000,
-11.00000000,
-16.00000000,
-67.00000000,
-18.00000000,
0.00000000,
-36.00000000,
-34.00000000,
-21.00000000,
11.00000000,
-46.00000000,
8.00000000,
-39.00000000,
-36.00000000,
-21.00000000,
-3.00000000,
24.00000000,
-33.00000000,
24.00000000,
19.00000000,
-21.00000000,
-4.00000000,
-18.00000000,
-25.99999809,
-16.00000000,
-11.00000000,
57.00000000,
30.00000000,
-2.00000000,
54.00000381,
24.00000000,
-8.00000000,
34.00000000,
-25.00000000,
-76.00000000,
-72.00000000,
41.00000000,
-36.00000000,
-38.00000000,
-5.00000000,
-40.00000000,
-60.00000000,
46.00000000,
6.00000000,
36.00000000,
-35.00000000,
-53.00000000,
15.00000000,
7.00000048,
-24.00000000,
-30.00000000,
-14.00000095,
14.00000095,
0.00000000,
58.00000000,
-32.00000000,
30.00000000,
25.99999809,
-12.00000000,
37.00000000,
-28.00000191,
-6.00000000,
20.00000000,
-21.00000000,
-75.00000000,
-14.00000095,
12.99999905,
-39.00000000,
-53.00000000,
47.00000000,
30.00000000,
3.00000000,
28.00000191,
24.00000000,
-7.00000048,
11.00000000,
11.00000000,
12.00000000,
69.00000000,
40.00000000,
-11.00000000,
72.00000000,
-16.00000000,
-16.00000000,
37.00000000,
-7.00000048,
-28.00000191,
33.00000000,
-5.00000000,
-31.00000000,
5.00000000,
-49.00000000,
-49.00000000,
-40.00000000,
-75.00000000,
-90.00000763,
-14.00000095,
1.00000000,
3.00000000,
-8.00000000,
54.00000381,
34.00000000,
18.00000000,
64.00000000,
-8.00000000,
2.00000000,
-16.00000000,
37.00000000,
9.00000000,
-35.00000000,
3.00000000,
-23.00000000,
-25.00000000,
-53.00000000,
-28.00000191,
32.00000000,
51.99999619,
-25.99999809,
-7.00000048,
36.00000000,
2.00000000,
33.00000000,
-23.00000000,
69.00000000,
25.00000000,
17.00000000,
36.00000000,
51.99999619,
5.00000000,
-19.00000000,
116.00000000,
66.00000000,
-28.00000191,
-25.99999809,
0.00000000,
-24.00000000,
6.00000000,
-3.00000000,
-47.00000000,
-69.00000000,
-31.00000000,
36.00000000,
-3.00000000,
-16.00000000,
7.00000048,
-7.00000048,
-17.00000000,
25.00000000,
4.00000000,
27.00000191,
-45.00000381,
-45.00000381,
-17.00000000,
-64.00000000,
-36.00000000,
-47.00000000,
-84.00000000,
-27.00000191,
-38.00000000,
-28.00000191,
-54.00000381,
-28.00000191,
3.00000000,
-56.00000381,
-49.00000000,
22.00000000,
12.99999905,
-28.00000191,
-55.00000000,
16.00000000,
-51.00000000,
-14.00000095,
23.00000000,
22.00000000,
-54.00000381,
-37.00000000,
38.00000000,
-51.00000000,
11.00000000,
-1.00000000,
7.00000048,
12.00000000,
24.00000000,
40.00000000,
5.00000000,
38.00000000,
-49.00000000,
9.00000000,
-1.00000000,
-12.99999905,
0.00000000,
32.00000000,
4.00000000,
36.00000000,
22.00000000,
18.00000000,
25.00000000,
12.99999905,
-14.00000095,
-4.00000000,
12.00000000,
-21.00000000,
27.00000191,
7.00000048,
-9.00000000,
-11.00000000,
-10.00000000,
-21.00000000,
-7.00000048,
-3.00000000,
3.00000000,
-8.00000000,
-38.00000000,
4.00000000,
-5.00000000,
-9.00000000,
-22.00000000,
-12.00000000,
18.00000000,
-16.00000000,
12.99999905,
-30.00000000,
36.00000000,
21.00000000,
-8.00000000,
15.00000000,
42.00000000,
17.00000000,
-50.00000000,
-11.00000000,
-7.00000048,
16.00000000,
8.00000000,
-10.00000000,
36.00000000,
-3.00000000,
-3.00000000,
-12.99999905,
11.00000000,
21.00000000,
-49.00000000,
-41.00000000,
-40.00000000,
-8.00000000,
25.99999809,
12.00000000,
31.00000000,
-8.00000000,
12.00000000,
-42.00000000,
-54.00000381,
-1.00000000,
-56.00000381,
-7.00000048,
-12.99999905,
-56.00000381,
-46.00000000,
-30.00000000,
20.00000000,
31.00000000,
31.00000000,
-20.00000000,
-4.00000000,
18.00000000,
43.00000000,
24.00000000,
61.00000000,
33.00000000,
15.00000000,
-20.00000000,
-11.00000000,
6.00000000,
-53.00000000,
43.00000000,
-28.00000191,
-6.00000000,
21.00000000,
-3.00000000,
27.00000191,
-25.99999809,
-48.00000000,
21.00000000,
-22.00000000,
-33.00000000,
-18.00000000,
65.00000000,
4.00000000,
6.00000000,
19.00000000,
-33.00000000,
-50.00000000,
-7.00000048,
19.00000000,
-24.00000000,
-32.00000000,
-29.00000000,
6.00000000,
-2.00000000,
9.00000000,
10.00000000,
-4.00000000,
16.00000000,
9.00000000,
-49.00000000,
-16.00000000,
41.00000000,
-35.00000000,
34.00000000,
36.00000000,
-61.00000000,
-29.00000000,
44.00000000,
-49.00000000,
3.00000000,
-20.00000000,
-10.00000000,
-23.00000000,
-20.00000000,
-36.00000000,
-10.00000000,
-3.00000000,
-42.00000000,
-6.00000000,
-30.00000000,
-32.00000000,
-7.00000048,
0.00000000,
-38.00000000,
-8.00000000,
-21.00000000,
-60.00000000,
-25.00000000,
-15.00000000,
-50.00000000,
-3.00000000,
-16.00000000,
-43.00000000,
22.00000000,
10.00000000,
-57.00000000,
3.00000000,
-18.00000000,
-69.00000000,
-33.00000000,
38.00000000,
-34.00000000,
-15.00000000,
23.00000000,
32.00000000,
28.00000191,
-3.00000000,
33.00000000,
12.99999905,
25.00000000,
-40.00000000,
-1.00000000,
25.00000000,
17.00000000,
5.00000000,
7.00000048,
-14.00000095,
-23.00000000,
-18.00000000,
25.99999809,
-3.00000000,
19.00000000,
-25.00000000,
-29.00000000,
-23.00000000,
-16.00000000,
18.00000000,
-3.00000000,
-35.00000000,
-17.00000000,
-15.00000000,
-28.00000191,
-25.99999809,
12.99999905,
-33.00000000,
1.00000000,
12.00000000,
-2.00000000,
3.00000000,
48.00000000,
-7.00000048,
-6.00000000,
-7.00000048,
-10.00000000,
-58.00000000,
-44.00000000,
1.00000000,
-27.00000191,
-41.00000000,
14.00000095,
43.00000000,
10.00000000,
24.00000000,
16.00000000,
16.00000000,
8.00000000,
8.00000000,
14.00000095,
11.00000000,
47.00000000,
1.00000000,
-6.00000000,
19.00000000,
-38.00000000,
43.00000000,
-7.00000048,
9.00000000,
-15.00000000,
-74.00000000,
-28.00000191,
2.00000000,
-46.00000000,
11.00000000,
20.00000000,
38.00000000,
8.00000000,
-24.00000000,
1.00000000,
62.99999619,
-22.00000000,
-47.00000000,
-15.00000000,
-12.99999905,
-33.00000000,
-58.00000000,
11.00000000,
-7.00000048,
-8.00000000,
33.00000000,
48.00000000,
3.00000000,
11.00000000,
-11.00000000,
32.00000000,
-31.00000000,
4.00000000,
-16.00000000,
3.00000000,
-12.99999905,
-7.00000048,
-14.00000095,
-15.00000000,
-18.00000000,
-32.00000000,
-47.00000000,
-29.00000000,
34.00000000,
30.00000000,
-19.00000000,
33.00000000,
35.00000000,
-20.00000000,
17.00000000,
-106.00000000,
-67.00000000,
9.00000000,
-4.00000000,
-20.00000000,
7.00000048,
-10.00000000,
-25.99999809,
16.00000000,
-25.99999809,
-62.00000000,
-9.00000000,
30.00000000,
0.00000000,
-8.00000000,
16.00000000,
-57.00000000,
-37.00000000,
-35.00000000,
-47.00000000,
21.00000000,
6.00000000,
1.00000000,
11.00000000,
9.00000000,
-25.99999809,
-3.00000000,
-40.00000000,
29.00000000,
-14.00000095,
0.00000000,
31.00000000,
-28.00000191,
-30.00000000,
3.00000000,
-7.00000048,
18.00000000,
39.00000000,
-19.00000000,
-31.00000000,
-34.00000000,
-35.00000000,
2.00000000,
-39.00000000,
-20.00000000,
-40.00000000,
8.00000000,
-37.00000000,
-47.00000000,
-58.00000000,
-7.00000048,
6.00000000,
-44.00000000,
-17.00000000,
14.00000095,
81.00000000,
-35.00000000,
-16.00000000,
73.00000000,
-6.00000000,
22.00000000,
34.00000000,
9.00000000,
19.00000000,
82.00000000,
9.00000000,
12.00000000,
59.00000000,
0.00000000,
35.00000000,
54.00000381,
-49.00000000,
-37.00000000,
-38.00000000,
-25.99999809,
10.00000000,
-5.00000000,
-7.00000048,
-6.00000000,
25.00000000,
6.00000000,
-12.99999905,
-23.00000000,
-14.00000095,
-21.00000000,
-27.00000191,
16.00000000,
23.00000000,
-21.00000000,
24.00000000,
46.00000000,
68.00000000,
46.00000000,
-10.00000000,
57.00000000,
-9.00000000,
-1.00000000,
-4.00000000,
16.00000000,
46.00000000,
-64.00000000,
39.00000000,
-3.00000000,
-27.00000191,
29.00000000,
44.00000000,
-11.00000000,
-25.99999809,
-38.00000000,
19.00000000,
-20.00000000,
-15.00000000,
36.00000000,
-69.00000000,
-12.99999905,
-2.00000000,
-5.00000000,
15.00000000,
-7.00000048,
-21.00000000,
-15.00000000,
30.00000000,
-22.00000000,
-9.00000000,
25.99999809,
-36.00000000,
-42.00000000,
-67.00000000,
5.00000000,
-19.00000000,
-22.00000000,
-36.00000000,
-1.00000000,
-53.00000000,
38.00000000,
-9.00000000,
-47.00000000,
18.00000000,
-60.00000000,
-19.00000000,
-17.00000000,
-47.00000000,
-27.00000191,
-8.00000000,
29.00000000,
-21.00000000,
20.00000000,
2.00000000,
-3.00000000,
46.00000000,
47.00000000,
-2.00000000,
32.00000000,
14.00000095,
12.99999905,
-25.00000000,
17.00000000,
7.00000048,
-25.00000000,
-18.00000000,
28.00000191,
-8.00000000,
-16.00000000,
-79.00000000,
-12.99999905,
-17.00000000,
-29.00000000,
-38.00000000,
-35.00000000,
-9.00000000,
-20.00000000,
5.00000000,
66.00000000,
-49.00000000,
-25.00000000,
47.00000000,
-47.00000000,
2.00000000,
-29.00000000,
-17.00000000,
-8.00000000,
-20.00000000,
-12.99999905,
-3.00000000,
0.00000000,
-18.00000000,
-4.00000000,
10.00000000,
-7.00000048,
14.00000095,
20.00000000,
-7.00000048,
16.00000000,
17.00000000,
12.99999905,
10.00000000,
11.00000000,
5.00000000,
-25.00000000,
81.00000000,
10.00000000,
25.99999809,
35.00000000,
25.00000000,
-8.00000000,
37.00000000,
-4.00000000,
-28.00000191,
-25.00000000,
-27.00000191,
-19.00000000,
-6.00000000,
-37.00000000,
-8.00000000,
-21.00000000,
36.00000000,
35.00000000,
-15.00000000,
29.00000000,
37.00000000,
12.99999905,
-2.00000000,
-12.99999905,
48.00000000,
-28.00000191,
-37.00000000,
-4.00000000,
-12.00000000,
-11.00000000,
-12.99999905,
-27.00000191,
-32.00000000,
-25.00000000,
42.00000000,
-67.00000000,
29.00000000,
-3.00000000,
6.00000000,
-11.00000000,
-17.00000000,
-12.99999905,
-10.00000000,
-24.00000000,
-41.00000000,
-11.00000000,
17.00000000,
-7.00000048,
-32.00000000,
24.00000000,
42.00000000,
15.00000000,
-15.00000000,
-4.00000000,
55.00000000,
-55.00000000,
-38.00000000,
66.00000000,
-70.00000000,
25.99999809,
22.00000000,
-55.00000000,
-36.00000000,
1.00000000,
28.00000191,
6.00000000,
72.00000000,
-72.00000000,
-60.00000000,
12.99999905,
1.00000000,
0.00000000,
-12.99999905,
42.00000000,
25.99999809,
9.00000000,
53.00000000,
18.00000000,
9.00000000,
-8.00000000,
7.00000048,
39.00000000,
25.99999809,
3.00000000,
-36.00000000,
-1.00000000,
-28.00000191,
-50.00000000,
55.00000000,
-10.00000000,
-25.00000000,
30.00000000,
9.00000000,
-25.99999809,
44.00000000,
-25.99999809,
42.00000000,
38.00000000,
4.00000000,
35.00000000,
53.00000000,
19.00000000,
-12.00000000,
67.00000000,
-40.00000000,
-31.00000000,
-40.00000000,
-14.00000095,
-37.00000000,
44.00000000,
30.00000000,
38.00000000,
-44.00000000,
-17.00000000,
-17.00000000,
-7.00000048,
-4.00000000,
19.00000000,
-3.00000000,
-49.00000000,
14.00000095,
12.99999905,
-8.00000000,
1.00000000,
-24.00000000,
5.00000000,
47.00000000,
25.99999809,
14.00000095,
62.00000000,
-64.00000000,
61.00000000,
21.00000000,
10.00000000,
5.00000000,
-27.00000191,
1.00000000,
-4.00000000,
-39.00000000,
7.00000048,
-30.00000000,
-29.00000000,
12.00000000,
-61.00000000,
-12.00000000,
27.00000191,
-9.00000000,
-3.00000000,
-43.00000000,
6.00000000,
-18.00000000,
-16.00000000,
-32.00000000,
17.00000000,
-41.00000000,
-15.00000000,
55.00000000,
-62.99999619,
-9.00000000,
3.00000000,
12.99999905,
29.00000000,
29.00000000,
-23.00000000,
-19.00000000,
7.00000048,
6.00000000,
10.00000000,
-2.00000000,
-12.00000000,
42.00000000,
29.00000000,
-5.00000000,
-1.00000000,
-35.00000000,
34.00000000,
28.00000191,
-35.00000000,
31.00000000,
-7.00000048,
-19.00000000,
34.00000000,
-16.00000000,
-56.00000381,
5.00000000,
2.00000000,
-25.99999809,
-66.00000000,
-68.00000000,
43.00000000,
-16.00000000,
4.00000000,
12.99999905,
-53.00000000,
-39.00000000,
-41.00000000,
-51.99999619,
-14.00000095,
-45.00000381,
-25.99999809,
-9.00000000,
57.00000000,
-56.00000381,
25.99999809,
33.00000000,
-7.00000048,
-38.00000000,
24.00000000,
-11.00000000,
-12.99999905,
40.00000000,
-37.00000000,
-12.00000000,
24.00000000,
59.00000000,
23.00000000,
-42.00000000,
38.00000000,
4.00000000,
-14.00000095,
28.00000191,
6.00000000,
-9.00000000,
3.00000000,
15.00000000,
46.00000000,
19.00000000,
22.00000000,
7.00000048,
70.00000000,
-1.00000000,
-8.00000000,
27.00000191,
-1.00000000,
5.00000000,
19.00000000,
16.00000000,
-54.00000381,
12.00000000,
0.00000000,
-43.00000000,
-34.00000000,
-29.00000000,
54.00000381,
-41.00000000,
4.00000000,
58.00000000,
-92.00000000,
20.00000000,
58.00000000,
-20.00000000,
37.00000000,
-5.00000000,
35.00000000,
30.00000000,
-32.00000000,
38.00000000,
-22.00000000,
-67.00000000,
-30.00000000,
-41.00000000,
7.00000048,
-16.00000000,
-30.00000000,
-10.00000000,
-25.99999809,
29.00000000,
18.00000000,
-11.00000000,
-1.00000000,
3.00000000,
10.00000000,
-14.00000095,
17.00000000,
55.00000000,
37.00000000,
-32.00000000,
2.00000000,
6.00000000,
-15.00000000,
-67.00000000,
18.00000000,
55.00000000,
-94.00000000,
11.00000000,
83.00000000,
-25.99999809,
21.00000000,
33.00000000,
-22.00000000,
-12.00000000,
31.00000000,
34.00000000,
16.00000000,
19.00000000,
-8.00000000,
-8.00000000,
0.00000000,
0.00000000,
-3.00000000,
-48.00000000,
99.00000000,
-20.00000000,
-45.00000381,
-86.00000000,
-2.00000000,
-6.00000000,
-15.00000000,
-3.00000000,
90.00000763,
-32.00000000,
2.00000000,
64.00000000,
21.00000000,
22.00000000,
-37.00000000,
7.00000048,
-31.00000000,
-6.00000000,
-11.00000000,
-37.00000000,
41.00000000,
22.00000000,
-38.00000000,
-29.00000000,
34.00000000,
7.00000048,
-65.00000000,
40.00000000,
-2.00000000,
-9.00000000,
34.00000000,
7.00000048,
-54.00000381,
24.00000000,
35.00000000,
-30.00000000,
-39.00000000,
-39.00000000,
-15.00000000,
20.00000000,
15.00000000,
-1.00000000,
48.00000000,
32.00000000,
-8.00000000,
41.00000000,
-1.00000000,
-14.00000095,
-21.00000000,
-53.00000000,
-12.99999905,
-17.00000000,
-15.00000000,
28.00000191,
25.99999809,
-9.00000000,
-37.00000000,
12.99999905,
2.00000000,
-37.00000000,
6.00000000,
-7.00000048,
-3.00000000,
-83.00000000,
-56.00000381,
-81.00000000,
14.00000095,
-83.00000000,
-15.00000000,
-25.99999809,
-23.00000000,
-37.00000000,
17.00000000,
6.00000000,
-83.00000000,
-65.00000000,
-55.00000000,
-76.00000000,
-62.00000000,
-72.00000000,
-60.00000000,
-28.00000191,
-14.00000095,
-3.00000000,
-37.00000000,
-11.00000000,
4.00000000,
-59.00000000,
4.00000000,
-32.00000000,
-10.00000000,
-19.00000000,
4.00000000,
-21.00000000,
-2.00000000,
-40.00000000,
-20.00000000,
10.00000000,
10.00000000,
-25.99999809,
-9.00000000,
-41.00000000,
-8.00000000,
17.00000000,
24.00000000,
5.00000000,
-11.00000000,
39.00000000,
66.00000000,
27.00000191,
32.00000000,
35.00000000,
15.00000000,
10.00000000,
25.00000000,
27.00000191,
4.00000000,
51.99999619,
-31.00000000,
7.00000048,
-21.00000000,
-25.99999809,
0.00000000,
-46.00000000,
-78.00000000,
-42.00000000,
-72.00000000,
-30.00000000,
-119.00000763,
-22.00000000,
-68.00000000,
-3.00000000,
-50.00000000,
32.00000000,
-32.00000000,
24.00000000,
28.00000191,
4.00000000,
-28.00000191,
66.00000000,
10.00000000,
-29.00000000,
62.99999619,
43.00000000,
16.00000000,
-6.00000000,
21.00000000,
-2.00000000,
-64.00000000,
-46.00000000,
46.00000000,
-65.00000000,
-28.00000191,
-29.00000000,
-3.00000000,
-6.00000000,
-51.99999619,
-85.00000000,
-7.00000048,
-55.00000000,
-92.00000000,
-17.00000000,
-64.00000000,
-33.00000000,
-35.00000000,
49.00000000,
7.00000048,
-22.00000000,
16.00000000,
47.00000000,
61.00000000,
61.00000000,
48.00000000,
68.00000000,
-10.00000000,
-64.00000000,
-22.00000000,
12.00000000,
10.00000000,
-38.00000000,
-12.00000000,
10.00000000,
-18.00000000,
41.00000000,
27.00000191,
12.00000000,
11.00000000,
15.00000000,
20.00000000,
12.99999905,
-34.00000000,
-28.00000191,
45.00000381,
51.99999619,
4.00000000,
33.00000000,
35.00000000,
12.99999905,
16.00000000,
17.00000000,
-19.00000000,
-12.99999905,
-40.00000000,
-35.00000000,
-20.00000000,
-33.00000000,
-41.00000000,
-44.00000000,
-67.00000000,
-11.00000000,
-49.00000000,
-34.00000000,
-70.00000000,
-65.00000000,
-18.00000000,
-11.00000000,
-7.00000048,
-6.00000000,
-5.00000000,
-29.00000000,
-21.00000000,
14.00000095,
-53.00000000,
19.00000000,
11.00000000,
-28.00000191,
-15.00000000,
-5.00000000,
-2.00000000,
-4.00000000,
-15.00000000,
16.00000000,
12.00000000,
-25.99999809,
-18.00000000,
-25.99999809,
28.00000191,
-25.99999809,
-25.99999809,
-43.00000000,
-45.00000381,
-30.00000000,
-20.00000000,
-59.00000000,
-12.00000000,
-25.00000000,
-28.00000191,
39.00000000,
-17.00000000,
27.00000191,
11.00000000,
11.00000000,
-16.00000000,
-54.00000381,
-7.00000048,
-39.00000000,
-22.00000000,
-14.00000095,
20.00000000,
23.00000000,
1.00000000,
-32.00000000,
-11.00000000,
-16.00000000,
2.00000000,
35.00000000,
50.00000000,
54.00000381,
49.00000000,
35.00000000,
-37.00000000,
-38.00000000,
-29.00000000,
-12.99999905,
41.00000000,
19.00000000,
16.00000000,
34.00000000,
8.00000000,
-17.00000000,
35.00000000,
8.00000000,
5.00000000,
-22.00000000,
-12.00000000,
-44.00000000,
-30.00000000,
-68.00000000,
-18.00000000,
28.00000191,
51.00000000,
19.00000000,
-10.00000000,
0.00000000,
41.00000000,
23.00000000,
37.00000000,
-18.00000000,
-7.00000048,
-12.00000000,
61.00000000,
39.00000000,
51.00000000,
31.00000000,
0.00000000,
21.00000000,
14.00000095,
28.00000191,
-7.00000048,
-57.00000000,
-28.00000191,
-2.00000000,
-43.00000000,
-11.00000000,
20.00000000,
-1.00000000,
-11.00000000,
-24.00000000,
-14.00000095,
-9.00000000,
5.00000000,
-7.00000048,
-35.00000000,
-50.00000000,
-6.00000000,
7.00000048,
-65.00000000,
-9.00000000,
62.99999619,
-8.00000000,
-31.00000000,
23.00000000,
-62.99999619,
-24.00000000,
32.00000000,
-38.00000000,
-28.00000191,
-58.00000000,
8.00000000,
4.00000000,
-1.00000000,
25.00000000,
39.00000000,
24.00000000,
-2.00000000,
36.00000000,
30.00000000,
-15.00000000,
-10.00000000,
40.00000000,
-33.00000000,
-25.99999809,
-38.00000000,
-31.00000000,
31.00000000,
-42.00000000,
-61.00000000,
9.00000000,
-25.99999809,
35.00000000,
-11.00000000,
-33.00000000,
50.00000000,
-49.00000000,
-59.00000000,
21.00000000,
-9.00000000,
10.00000000,
-12.99999905,
-7.00000048,
-59.00000000,
20.00000000,
1.00000000,
-11.00000000,
-12.99999905,
17.00000000,
6.00000000,
-30.00000000,
-25.99999809,
14.00000095,
-28.00000191,
-7.00000048,
-23.00000000,
6.00000000,
-8.00000000,
10.00000000,
0.00000000,
-38.00000000,
-6.00000000,
-57.00000000,
3.00000000,
-11.00000000,
0.00000000,
-15.00000000,
3.00000000,
-20.00000000,
-40.00000000,
24.00000000,
-35.00000000,
-8.00000000,
-15.00000000,
-11.00000000,
-33.00000000,
-12.00000000,
9.00000000,
-1.00000000,
16.00000000,
9.00000000,
-61.00000000,
-12.00000000,
-4.00000000,
-22.00000000,
-5.00000000,
28.00000191,
-44.00000000,
-33.00000000,
9.00000000,
-71.00000000,
41.00000000,
9.00000000,
-5.00000000,
27.00000191,
0.00000000,
51.99999619,
-14.00000095,
41.00000000,
-16.00000000,
-62.00000000,
-2.00000000,
23.00000000,
-38.00000000,
-11.00000000,
21.00000000,
-16.00000000,
-12.99999905,
7.00000048,
12.00000000,
12.00000000,
41.00000000,
15.00000000,
3.00000000,
-23.00000000,
7.00000048,
22.00000000,
-33.00000000,
3.00000000,
-7.00000048,
8.00000000,
-41.00000000,
14.00000095,
-56.00000381,
-42.00000000,
39.00000000,
-50.00000000,
-24.00000000,
11.00000000,
-44.00000000,
-5.00000000,
-3.00000000,
3.00000000,
6.00000000,
6.00000000,
60.00000000,
-15.00000000,
-31.00000000,
23.00000000,
34.00000000,
-2.00000000,
57.00000000,
33.00000000,
-3.00000000,
-15.00000000,
-5.00000000,
58.00000000,
-23.00000000,
28.00000191,
55.00000000,
25.00000000,
-40.00000000,
1.00000000,
48.00000000,
28.00000191,
4.00000000,
-12.99999905,
68.00000000,
-3.00000000,
38.00000000,
50.00000000,
-25.00000000,
-20.00000000,
-21.00000000,
33.00000000,
-27.00000191,
-6.00000000,
8.00000000,
1.00000000,
18.00000000,
-49.00000000,
-12.00000000,
-28.00000191,
-48.00000000,
-4.00000000,
-64.00000000,
-15.00000000,
-40.00000000,
-76.00000000,
-32.00000000,
-32.00000000,
35.00000000,
6.00000000,
-15.00000000,
-50.00000000,
-14.00000095,
-54.00000381,
-14.00000095,
-41.00000000,
-25.00000000,
16.00000000,
15.00000000,
7.00000048,
-15.00000000,
-27.00000191,
57.00000000,
19.00000000,
33.00000000,
-5.00000000,
29.00000000,
41.00000000,
-59.00000000,
-14.00000095,
19.00000000,
-15.00000000,
-47.00000000,
14.00000095,
0.00000000,
-2.00000000,
55.00000000,
23.00000000,
18.00000000,
28.00000191,
28.00000191,
1.00000000,
22.00000000,
-12.99999905,
-41.00000000,
-20.00000000,
-38.00000000,
-24.00000000,
-58.00000000,
-25.99999809,
-28.00000191,
3.00000000,
-66.00000000,
-8.00000000,
-51.00000000,
-5.00000000,
-10.00000000,
15.00000000,
61.00000000,
0.00000000,
38.00000000,
25.00000000,
42.00000000,
-6.00000000,
4.00000000,
-17.00000000,
4.00000000,
34.00000000,
-16.00000000,
39.00000000,
12.99999905,
11.00000000,
10.00000000,
-11.00000000,
31.00000000,
14.00000095,
-66.00000000,
-3.00000000,
9.00000000,
-30.00000000,
-9.00000000,
-58.00000000,
14.00000095,
-31.00000000,
-47.00000000,
12.99999905,
-16.00000000,
-22.00000000,
30.00000000,
30.00000000,
29.00000000,
-38.00000000,
25.00000000,
0.00000000,
47.00000000,
38.00000000,
18.00000000,
-25.00000000,
33.00000000,
-35.00000000,
-41.00000000,
5.00000000,
14.00000095,
-73.00000000,
80.00000000,
62.99999619,
-40.00000000,
20.00000000,
51.99999619,
-5.00000000,
-2.00000000,
20.00000000,
-15.00000000,
-35.00000000,
18.00000000,
1.00000000,
-30.00000000,
-55.00000000,
9.00000000,
-40.00000000,
-34.00000000,
2.00000000,
-25.99999809,
-45.00000381,
47.00000000,
25.00000000,
17.00000000,
3.00000000,
2.00000000,
-5.00000000,
14.00000095,
46.00000000,
23.00000000,
-23.00000000,
