# stem.conv.weight (shape [16, 1, 3, 3], dtype float32),
23.00000191,
-28.00000000,
-10.00000000,
34.00000000,
-5.00000000,
-9.00000000,
16.00000000,
40.00000000,
5.00000000,
-45.00000381,
-43.99999619,
24.00000000,
4.00000000,
30.00000000,
-30.00000000,
43.00000000,
-6.00000000,
-30.00000000,
5.00000000,
1.00000000,
74.00000000,
21.99999809,
-60.00000000,
-99.00000000,
2.00000000,
0.00000000,
52.00000000,
-108.00000000,
36.00000000,
37.00000000,
2.00000000,
106.00000000,
-29.00000191,
18.00000000,
15.00000000,
-79.00000000,
13.00000000,
15.00000000,
51.00000000,
-48.00000000,
-34.00000000,
19.00000000,
15.00000000,
-24.00000000,
39.00000000,
-10.99999905,
16.00000000,
-31.00000000,
46.00000381,
-33.00000000,
-35.00000000,
-25.00000000,
-1.00000000,
-14.00000000,
42.00000000,
13.00000000,
7.00000000,
75.00000000,
-42.00000000,
48.00000000,
-10.99999905,
-87.99999237,
-56.99999619,
24.00000000,
62.00000000,
-28.00000000,
-90.00000763,
56.00000000,
-63.00000000,
-23.00000191,
73.00000000,
-28.00000000,
35.00000000,
-86.00000000,
46.00000381,
73.00000000,
-138.00000000,
82.00000000,
52.00000000,
-109.00000000,
45.00000381,
-25.00000000,
-56.00000000,
-15.00000000,
-50.00000000,
-81.00000000,
-58.00000381,
96.00000000,
101.00000000,
86.00000000,
-28.00000000,
-9.00000000,
38.00000000,
51.00000000,
-30.00000000,
-28.00000000,
32.00000000,
56.99999619,
-64.00000000,
55.00000000,
64.00000000,
52.00000000,
-12.00000000,
60.00000000,
33.00000000,
-97.00000000,
-88.99999237,
-63.00000000,
-16.00000000,
-77.00000000,
-98.00000000,
43.99999619,
58.00000381,
46.00000381,
26.00000000,
21.00000000,
-2.00000000,
15.00000000,
-9.00000000,
71.00000000,
-51.00000000,
-39.00000000,
72.00000000,
-56.99999619,
-50.00000000,
29.00000191,
-2.00000000,
43.99999619,
-37.00000000,
102.00000000,
-20.00000000,
-87.99999237,
117.00000763,
-9.00000000,
-106.00000000,
59.00000000,
34.00000000,
-60.00000000,
63.00000000,
-3.00000000,
-77.00000000,
-4.00000000,
26.00000000,
-45.00000381,
