# backbone.stage3.4.1.lamda (shape [1, 128, 1, 1], dtype float32),
-6839.00000000,
6674.00000000,
2967.00000000,
-718.00000000,
2358.00000000,
2260.00000000,
8180.00000000,
2720.00000000,
514.00000000,
1109.00000000,
3393.00000000,
1909.00000000,
909.00000000,
3964.00000000,
1572.00000000,
1056.00000000,
4895.00000000,
5452.00000000,
3061.00000000,
3308.00000000,
-209.00000000,
7438.00000000,
679.00000000,
5363.00000000,
1622.00000000,
1988.00000000,
3667.00000000,
2863.00000000,
-45.00000000,
2074.00000000,
893.00000000,
-672.00000000,
8254.00000000,
4602.00000000,
5577.00000000,
3291.00000000,
2782.00000000,
3903.00000000,
4180.00000000,
781.00000000,
6829.00000000,
3445.00000000,
774.00000000,
2943.00000000,
5050.00000000,
-2998.00000000,
3124.00000000,
97.00000000,
2923.00000000,
2222.00000000,
3641.00000000,
4875.00000000,
7455.00000000,
-891.00000000,
-5824.00000000,
1766.00000000,
3517.00000000,
-297.00000000,
-2298.00000000,
-1980.00000000,
1841.00000000,
5315.00000000,
527.00000000,
3232.00000000,
380.00000000,
-1023.00000000,
12076.00000000,
5440.00000000,
6190.00000000,
1611.00000000,
1007.00000000,
5180.00000000,
7197.00000000,
-1255.00000000,
2380.00000000,
-2381.00000000,
4337.00000000,
-1872.00000000,
4024.00000000,
4836.00000000,
4833.00000000,
2251.00000000,
3077.00000000,
6971.00000000,
-2079.00000000,
6857.00000000,
6927.00000000,
1634.00000000,
4630.00000000,
1305.00000000,
2975.00000000,
-2757.00000000,
824.00000000,
681.00000000,
-289.00000000,
5426.00000000,
-337.00000000,
-2272.00000000,
4297.00000000,
-2287.00000000,
2070.00000000,
5605.00000000,
3734.00000000,
-395.00000000,
4434.00000000,
-3106.00000000,
-825.00000000,
-11465.00000000,
9520.00000000,
-2581.00000000,
4875.00000000,
-1722.00000000,
4734.00000000,
2153.00000000,
3514.00000000,
-926.00000000,
4797.00000000,
3233.00000000,
2977.00000000,
-308.00000000,
8743.00000000,
-6756.00000000,
156.00000000,
904.00000000,
-241.00000000,
4066.00000000,
2594.00000000,
2571.00000000,
