# backbone.stage0.0.0.weight (shape [8, 3, 3, 3], dtype float32),
-14.00000000,
-16.00000000,
14.00000000,
12.00000000,
-24.00000000,
-12.00000000,
0.00000000,
-36.00000000,
-29.00000000,
28.00000000,
8.00000000,
8.00000000,
-22.00000000,
-49.00000000,
-24.00000000,
-4.00000000,
-38.00000000,
18.00000000,
-3.00000000,
1.00000000,
-3.00000000,
-20.00000000,
-56.00000000,
16.00000000,
2.00000000,
-38.00000000,
-4.00000000,
-14.00000000,
-16.00000000,
2.00000000,
12.00000000,
44.00000000,
15.00000000,
1.00000000,
38.00000000,
-20.00000000,
-38.00000000,
-18.00000000,
14.00000000,
-6.00000000,
42.00000000,
-1.00000000,
25.00000000,
32.00000000,
-1.00000000,
-20.00000000,
6.00000000,
4.00000000,
2.00000000,
34.00000000,
16.00000000,
-10.00000000,
6.00000000,
-8.00000000,
-16.00000000,
4.00000000,
30.00000000,
6.00000000,
8.00000000,
40.00000000,
6.00000000,
-12.00000000,
32.00000000,
-25.00000000,
24.00000000,
14.00000000,
-6.00000000,
36.00000000,
30.00000000,
-6.00000000,
8.00000000,
4.00000000,
-20.00000000,
12.00000000,
-14.00000000,
-48.00000000,
8.00000000,
48.00000000,
-10.00000000,
14.00000000,
25.00000000,
-8.00000000,
-20.00000000,
1.00000000,
10.00000000,
-42.00000000,
6.00000000,
10.00000000,
-25.00000000,
-6.00000000,
13.00000000,
-22.00000000,
32.00000000,
4.00000000,
-59.00000000,
14.00000000,
1.00000000,
-34.00000000,
-8.00000000,
22.00000000,
-20.00000000,
-20.00000000,
-8.00000000,
-42.00000000,
-6.00000000,
-12.00000000,
-29.00000000,
36.00000000,
-6.00000000,
18.00000000,
22.00000000,
10.00000000,
16.00000000,
15.00000000,
-10.00000000,
26.00000000,
36.00000000,
28.00000000,
13.00000000,
2.00000000,
16.00000000,
28.00000000,
26.00000000,
1.00000000,
16.00000000,
38.00000000,
16.00000000,
10.00000000,
14.00000000,
15.00000000,
28.00000000,
50.00000000,
12.00000000,
-1.00000000,
10.00000000,
-46.00000000,
-8.00000000,
-58.00000000,
24.00000000,
106.00000000,
42.00000000,
-58.00000000,
-34.00000000,
-42.00000000,
-3.00000000,
1.00000000,
-60.00000000,
30.00000000,
162.00000000,
14.00000000,
-40.00000000,
-25.00000000,
-82.00000000,
-52.00000000,
10.00000000,
-14.00000000,
26.00000000,
112.00000000,
42.00000000,
-56.00000000,
8.00000000,
-20.00000000,
-6.00000000,
-36.00000000,
-16.00000000,
18.00000000,
-8.00000000,
-8.00000000,
10.00000000,
64.00000000,
12.00000000,
-32.00000000,
-28.00000000,
-50.00000000,
8.00000000,
-32.00000000,
-12.00000000,
52.00000000,
40.00000000,
40.00000000,
0.00000000,
-55.00000000,
-14.00000000,
-20.00000000,
-25.00000000,
-22.00000000,
13.00000000,
48.00000000,
36.00000000,
32.00000000,
-34.00000000,
-36.00000000,
50.00000000,
38.00000000,
-72.00000000,
74.00000000,
15.00000000,
-94.00000000,
4.00000000,
10.00000000,
-76.00000000,
50.00000000,
-3.00000000,
-64.00000000,
66.00000000,
42.00000000,
-78.00000000,
44.00000000,
0.00000000,
-25.00000000,
53.00000000,
58.00000000,
-68.00000000,
34.00000000,
40.00000000,
-38.00000000,
